booster[0]:
0:[mm_kin_alphaBS<0.061026331] yes=1,no=2,missing=1
	1:[mm_iso<0.699464023] yes=3,no=4,missing=3
		3:[mm_kin_spvip<2.03388524] yes=7,no=8,missing=7
			7:[mm_kin_sl3d<10.931695] yes=15,no=16,missing=15
				15:[mm_kin_sl3d<7.23224163] yes=31,no=32,missing=31
					31:leaf=-0.0132499449
					32:leaf=-0.00152872002
				16:[mm_kin_sl3d<16.3167171] yes=33,no=34,missing=33
					33:leaf=0.00879009534
					34:leaf=0.0181624703
			8:[mm_otherVtxMaxProb2<0.315159708] yes=17,no=18,missing=17
				17:[mm_kin_pvip<0.0124648521] yes=35,no=36,missing=35
					35:leaf=0.0091275163
					36:leaf=-0.0140088098
				18:[mm_kin_spvip<2.92525077] yes=37,no=38,missing=37
					37:leaf=-0.0142128933
					38:leaf=-0.0194100048
		4:[mm_kin_spvip<3.34459043] yes=9,no=10,missing=9
			9:[mm_kin_sl3d<6.38831663] yes=19,no=20,missing=19
				19:[mm_iso<0.841783047] yes=39,no=40,missing=39
					39:leaf=-0.00183451525
					40:leaf=0.0134582054
				20:[mm_kin_spvip<2.3086133] yes=41,no=42,missing=41
					41:leaf=0.0192888584
					42:leaf=0.0149059789
			10:[mm_iso<0.902608633] yes=21,no=22,missing=21
				21:[mm_otherVtxMaxProb2<0.212112203] yes=43,no=44,missing=43
					43:leaf=-0
					44:leaf=-0.0157352202
				22:[mm_kin_spvip<5.52388096] yes=45,no=46,missing=45
					45:leaf=0.00665577734
					46:leaf=-0.0129307806
	2:[mm_kin_alphaBS<0.106762871] yes=5,no=6,missing=5
		5:[mm_iso<0.815439403] yes=11,no=12,missing=11
			11:[mm_kin_spvip<2.10527539] yes=23,no=24,missing=23
				23:[mm_iso<0.645279646] yes=47,no=48,missing=47
					47:leaf=-0.0157431196
					48:leaf=-0.00346710789
				24:[mm_kin_spvip<2.95806575] yes=49,no=50,missing=49
					49:leaf=-0.016313849
					50:leaf=-0.0196077004
			12:[mm_kin_spvip<2.92525077] yes=25,no=26,missing=25
				25:[mm_iso<0.905952334] yes=51,no=52,missing=51
					51:leaf=0.00498324027
					52:leaf=0.0128709674
				26:[mm_kin_spvip<4.14753962] yes=53,no=54,missing=53
					53:leaf=-0.00494367117
					54:leaf=-0.0172727276
		6:[mm_kin_alphaBS<0.157796144] yes=13,no=14,missing=13
			13:[mm_iso<0.881234467] yes=27,no=28,missing=27
				27:[mm_kin_spvip<1.87623918] yes=55,no=56,missing=55
					55:leaf=-0.0127169965
					56:leaf=-0.019232668
				28:[mm_kin_spvip<2.61841655] yes=57,no=58,missing=57
					57:leaf=0.00483180443
					58:leaf=-0.0119803911
			14:[mm_kin_alphaBS<0.221017033] yes=29,no=30,missing=29
				29:[mm_iso<0.88675946] yes=59,no=60,missing=59
					59:leaf=-0.0195175856
					60:leaf=-0.0135595305
				30:leaf=-0.0199540108
booster[1]:
0:[mm_kin_alphaBS<0.0583484992] yes=1,no=2,missing=1
	1:[mm_iso<0.719470918] yes=3,no=4,missing=3
		3:[mm_kin_spvip<1.97074878] yes=7,no=8,missing=7
			7:[mm_kin_sl3d<10.7221851] yes=15,no=16,missing=15
				15:[mm_iso<0.610076785] yes=31,no=32,missing=31
					31:leaf=-0.012951076
					32:leaf=-0.00132906321
				16:[mm_kin_sl3d<14.9182892] yes=33,no=34,missing=33
					33:leaf=0.0084994724
					34:leaf=0.0178962182
			8:[mm_otherVtxMaxProb2<0.374318957] yes=17,no=18,missing=17
				17:[mm_kin_pvip<0.0128877712] yes=35,no=36,missing=35
					35:leaf=0.010279594
					36:leaf=-0.0142062409
				18:[mm_kin_spvip<2.75790477] yes=37,no=38,missing=37
					37:leaf=-0.0124171358
					38:leaf=-0.018958414
		4:[mm_kin_spvip<3.44026494] yes=9,no=10,missing=9
			9:[mm_kin_sl3d<6.38831663] yes=19,no=20,missing=19
				19:[mm_iso<0.861220777] yes=39,no=40,missing=39
					39:leaf=-0
					40:leaf=0.0139179118
				20:[mm_kin_spvip<2.44746447] yes=41,no=42,missing=41
					41:leaf=0.0191367324
					42:leaf=0.0145812519
			10:[mm_otherVtxMaxProb2<0.38796401] yes=21,no=22,missing=21
				21:[mm_m1iso<0.835437119] yes=43,no=44,missing=43
					43:leaf=-0.00535629038
					44:leaf=0.0115953274
				22:[mm_kin_spvip<4.32534409] yes=45,no=46,missing=45
					45:leaf=-0.00267227693
					46:leaf=-0.0151652806
	2:[mm_kin_alphaBS<0.106762871] yes=5,no=6,missing=5
		5:[mm_iso<0.833028078] yes=11,no=12,missing=11
			11:[mm_kin_spvip<2.20628357] yes=23,no=24,missing=23
				23:[mm_iso<0.697287083] yes=47,no=48,missing=47
					47:leaf=-0.014403699
					48:leaf=-0
				24:[mm_kin_spvip<2.95806575] yes=49,no=50,missing=49
					49:leaf=-0.0158903487
					50:leaf=-0.0193405543
			12:[mm_kin_spvip<2.92525077] yes=25,no=26,missing=25
				25:[mm_kin_vtx_chi2dof<2.00408149] yes=51,no=52,missing=51
					51:leaf=0.0128179407
					52:leaf=0.00343208108
				26:[mm_kin_spvip<4.14753962] yes=53,no=54,missing=53
					53:leaf=-0.00395907322
					54:leaf=-0.0166747514
		6:[mm_kin_alphaBS<0.157796144] yes=13,no=14,missing=13
			13:[mm_iso<0.884992361] yes=27,no=28,missing=27
				27:[mm_kin_spvip<1.87623918] yes=55,no=56,missing=55
					55:leaf=-0.0119727785
					56:leaf=-0.018970089
				28:[mm_kin_spvip<2.61841655] yes=57,no=58,missing=57
					57:leaf=0.00474725245
					58:leaf=-0.0118171452
			14:[mm_kin_alphaBS<0.221017033] yes=29,no=30,missing=29
				29:[mm_iso<0.879378617] yes=59,no=60,missing=59
					59:leaf=-0.019345887
					60:leaf=-0.0136224069
				30:leaf=-0.0197557341
booster[2]:
0:[mm_kin_alphaBS<0.061026331] yes=1,no=2,missing=1
	1:[mm_iso<0.697287083] yes=3,no=4,missing=3
		3:[mm_kin_spvip<1.97074878] yes=7,no=8,missing=7
			7:[mm_kin_sl3d<10.7221851] yes=15,no=16,missing=15
				15:[mm_kin_sl3d<7.00707531] yes=31,no=32,missing=31
					31:leaf=-0.0130794924
					32:leaf=-0.00211790693
				16:[mm_kin_sl3d<15.3529453] yes=33,no=34,missing=33
					33:leaf=0.00781561248
					34:leaf=0.0175165292
			8:[mm_kin_spvip<2.65640235] yes=17,no=18,missing=17
				17:[mm_kin_sl3d<14.5087824] yes=35,no=36,missing=35
					35:leaf=-0.0155718112
					36:leaf=0.00931294635
				18:[mm_otherVtxMaxProb2<0.0422293916] yes=37,no=38,missing=37
					37:leaf=-0
					38:leaf=-0.0187043194
		4:[mm_kin_spvip<3.47185779] yes=9,no=10,missing=9
			9:[mm_kin_sl3d<6.84220982] yes=19,no=20,missing=19
				19:[mm_iso<0.85482347] yes=39,no=40,missing=39
					39:leaf=-0.000600404106
					40:leaf=0.0138004534
				20:[mm_kin_spvip<2.44746447] yes=41,no=42,missing=41
					41:leaf=0.0189213529
					42:leaf=0.0140215736
			10:[mm_otherVtxMaxProb2<0.264398307] yes=21,no=22,missing=21
				21:[mm_iso<0.899171054] yes=43,no=44,missing=43
					43:leaf=-0.00258314516
					44:leaf=0.0140934344
				22:[mm_kin_spvip<4.7004838] yes=45,no=46,missing=45
					45:leaf=-0.00549605535
					46:leaf=-0.016330583
	2:[mm_kin_alphaBS<0.111569464] yes=5,no=6,missing=5
		5:[mm_iso<0.833028078] yes=11,no=12,missing=11
			11:[mm_kin_spvip<2.10527539] yes=23,no=24,missing=23
				23:[mm_iso<0.695114315] yes=47,no=48,missing=47
					47:leaf=-0.0145519786
					48:leaf=-0.000938826357
				24:[mm_kin_spvip<2.95806575] yes=49,no=50,missing=49
					49:leaf=-0.0158032756
					50:leaf=-0.0191530511
			12:[mm_kin_spvip<3.02302146] yes=25,no=26,missing=25
				25:[mm_kin_spvip<2.00165462] yes=51,no=52,missing=51
					51:leaf=0.0128583526
					52:leaf=0.00511138001
				26:[mm_kin_spvip<4.14753962] yes=53,no=54,missing=53
					53:leaf=-0.00520667294
					54:leaf=-0.0167491268
		6:[mm_kin_alphaBS<0.162697926] yes=13,no=14,missing=13
			13:[mm_iso<0.881234467] yes=27,no=28,missing=27
				27:[mm_kin_spvip<2.03388524] yes=55,no=56,missing=55
					55:leaf=-0.0131094493
					56:leaf=-0.0189500693
				28:[mm_kin_spvip<2.69040585] yes=57,no=58,missing=57
					57:leaf=0.003838795
					58:leaf=-0.0134232575
			14:[mm_kin_alphaBS<0.221017033] yes=29,no=30,missing=29
				29:[mm_iso<0.962150335] yes=59,no=60,missing=59
					59:leaf=-0.0189903881
					60:leaf=-0.0115697226
				30:leaf=-0.019564569
booster[3]:
0:[mm_kin_alphaBS<0.0557520874] yes=1,no=2,missing=1
	1:[mm_iso<0.717283666] yes=3,no=4,missing=3
		3:[mm_kin_spvip<2.07179785] yes=7,no=8,missing=7
			7:[mm_kin_sl3d<10.2285824] yes=15,no=16,missing=15
				15:[mm_iso<0.617304862] yes=31,no=32,missing=31
					31:leaf=-0.0131442267
					32:leaf=-0.0018647199
				16:[mm_kin_sl3d<14.7089968] yes=33,no=34,missing=33
					33:leaf=0.00743475789
					34:leaf=0.0174104739
			8:[mm_kin_spvip<2.75790477] yes=17,no=18,missing=17
				17:[mm_kin_sl3d<14.5087824] yes=35,no=36,missing=35
					35:leaf=-0.0153667135
					36:leaf=0.00864468981
				18:[mm_otherVtxMaxProb2<0.0556552336] yes=37,no=38,missing=37
					37:leaf=-0
					38:leaf=-0.0185415018
		4:[mm_kin_spvip<3.47185779] yes=9,no=10,missing=9
			9:[mm_kin_sl3d<6.38831663] yes=19,no=20,missing=19
				19:[mm_iso<0.85482347] yes=39,no=40,missing=39
					39:leaf=-0.000380459387
					40:leaf=0.0134273665
				20:[mm_kin_spvip<2.69040585] yes=41,no=42,missing=41
					41:leaf=0.0187189225
					42:leaf=0.0130505441
			10:[mm_otherVtxMaxProb2<0.401624262] yes=21,no=22,missing=21
				21:[mm_iso<0.893907726] yes=43,no=44,missing=43
					43:leaf=-0.00479289237
					44:leaf=0.0118873343
				22:[mm_kin_spvip<4.32534409] yes=45,no=46,missing=45
					45:leaf=-0.0031593293
					46:leaf=-0.0150299799
	2:[mm_kin_alphaBS<0.111569464] yes=5,no=6,missing=5
		5:[mm_iso<0.835237145] yes=11,no=12,missing=11
			11:[mm_kin_spvip<2.10527539] yes=23,no=24,missing=23
				23:[mm_iso<0.679496288] yes=47,no=48,missing=47
					47:leaf=-0.0139702028
					48:leaf=-0.000284902955
				24:[mm_kin_spvip<2.95806575] yes=49,no=50,missing=49
					49:leaf=-0.0154890046
					50:leaf=-0.0189765505
			12:[mm_kin_spvip<3.05593443] yes=25,no=26,missing=25
				25:[mm_kin_spvip<1.97074878] yes=51,no=52,missing=51
					51:leaf=0.0132870227
					52:leaf=0.00615335023
				26:[mm_kin_spvip<4.14753962] yes=53,no=54,missing=53
					53:leaf=-0.00470989849
					54:leaf=-0.0163840465
		6:[mm_kin_alphaBS<0.167690292] yes=13,no=14,missing=13
			13:[mm_iso<0.871609211] yes=27,no=28,missing=27
				27:[mm_kin_spvip<1.97074878] yes=55,no=56,missing=55
					55:leaf=-0.0132485693
					56:leaf=-0.0188036337
				28:[mm_kin_spvip<2.69040585] yes=57,no=58,missing=57
					57:leaf=0.00260382402
					58:leaf=-0.0134033244
			14:[mm_kin_alphaBS<0.243656814] yes=29,no=30,missing=29
				29:[mm_iso<0.962150335] yes=59,no=60,missing=59
					59:leaf=-0.0189031772
					60:leaf=-0.0125188343
				30:leaf=-0.019391723
booster[4]:
0:[mm_kin_alphaBS<0.0639338717] yes=1,no=2,missing=1
	1:[mm_iso<0.719470918] yes=3,no=4,missing=3
		3:[mm_kin_spvip<1.97074878] yes=7,no=8,missing=7
			7:[mm_kin_sl3d<10.7221851] yes=15,no=16,missing=15
				15:[mm_iso<0.631478965] yes=31,no=32,missing=31
					31:leaf=-0.0122921728
					32:leaf=-0.00106583815
				16:[mm_kin_sl3d<16.0363388] yes=33,no=34,missing=33
					33:leaf=0.00902139675
					34:leaf=0.0176790785
			8:[mm_otherVtxMaxProb2<0.360298306] yes=17,no=18,missing=17
				17:[mm_kin_pvip<0.0128877712] yes=35,no=36,missing=35
					35:leaf=0.00904191937
					36:leaf=-0.0137376999
				18:[mm_kin_spvip<2.75790477] yes=37,no=38,missing=37
					37:leaf=-0.0123555837
					38:leaf=-0.0185141899
		4:[mm_kin_spvip<3.24655962] yes=9,no=10,missing=9
			9:[mm_kin_sl3d<6.38831663] yes=19,no=20,missing=19
				19:[mm_iso<0.850488245] yes=39,no=40,missing=39
					39:leaf=-0.000266376883
					40:leaf=0.0132896416
				20:[mm_kin_sl3d<9.32106686] yes=41,no=42,missing=41
					41:leaf=0.015680952
					42:leaf=0.0187419914
			10:[mm_kin_spvip<4.86245728] yes=21,no=22,missing=21
				21:[mm_iso<0.871609211] yes=43,no=44,missing=43
					43:leaf=-0.0108154425
					44:leaf=0.00678810338
				22:[mm_otherVtxMaxProb2<0.247476265] yes=45,no=46,missing=45
					45:leaf=0.00106275582
					46:leaf=-0.0159005746
	2:[mm_kin_alphaBS<0.115831845] yes=5,no=6,missing=5
		5:[mm_iso<0.824297667] yes=11,no=12,missing=11
			11:[mm_kin_spvip<2.10527539] yes=23,no=24,missing=23
				23:[mm_iso<0.703830898] yes=47,no=48,missing=47
					47:leaf=-0.0141253043
					48:leaf=-0.00156655535
				24:[mm_iso<0.743856251] yes=49,no=50,missing=49
					49:leaf=-0.0186555423
					50:leaf=-0.0151552269
			12:[mm_kin_spvip<2.99090695] yes=25,no=26,missing=25
				25:[mm_iso<0.905952334] yes=51,no=52,missing=51
					51:leaf=0.00357021671
					52:leaf=0.0116559183
				26:[mm_kin_spvip<3.77910781] yes=53,no=54,missing=53
					53:leaf=-0.00478711631
					54:leaf=-0.0157116391
		6:[mm_kin_alphaBS<0.162697926] yes=13,no=14,missing=13
			13:[mm_iso<0.881234467] yes=27,no=28,missing=27
				27:[mm_kin_spvip<1.84527719] yes=55,no=56,missing=55
					55:leaf=-0.0126082283
					56:leaf=-0.0185524896
				28:[mm_kin_spvip<2.69040585] yes=57,no=58,missing=57
					57:leaf=0.00291010831
					58:leaf=-0.0129205026
			14:[mm_kin_alphaBS<0.243656814] yes=29,no=30,missing=29
				29:[mm_iso<0.962150335] yes=59,no=60,missing=59
					59:leaf=-0.0187323522
					60:leaf=-0.0124306297
				30:leaf=-0.0192125402
booster[5]:
0:[mm_kin_alphaBS<0.061026331] yes=1,no=2,missing=1
	1:[mm_iso<0.719470918] yes=3,no=4,missing=3
		3:[mm_kin_spvip<2.13825822] yes=7,no=8,missing=7
			7:[mm_kin_sl3d<10.931695] yes=15,no=16,missing=15
				15:[mm_iso<0.610076785] yes=31,no=32,missing=31
					31:leaf=-0.0131282564
					32:leaf=-0.00204709312
				16:[mm_kin_sl3d<15.573288] yes=33,no=34,missing=33
					33:leaf=0.00820491463
					34:leaf=0.0172466319
			8:[mm_otherVtxMaxProb2<0.299458861] yes=17,no=18,missing=17
				17:[mm_kin_pvip<0.0127804875] yes=35,no=36,missing=35
					35:leaf=0.00950994529
					36:leaf=-0.0131802438
				18:[mm_kin_spvip<2.79135776] yes=37,no=38,missing=37
					37:leaf=-0.012724923
					38:leaf=-0.0183586758
		4:[mm_kin_spvip<3.47185779] yes=9,no=10,missing=9
			9:[mm_kin_sl3d<6.96620798] yes=19,no=20,missing=19
				19:[mm_iso<0.863544703] yes=39,no=40,missing=39
					39:leaf=0.00118928403
					40:leaf=0.0138857961
				20:[mm_kin_spvip<2.48190403] yes=41,no=42,missing=41
					41:leaf=0.0184546709
					42:leaf=0.0142229171
			10:[mm_otherVtxMaxProb2<0.41424644] yes=21,no=22,missing=21
				21:[mm_iso<0.899171054] yes=43,no=44,missing=43
					43:leaf=-0.00439437712
					44:leaf=0.0114389099
				22:[mm_kin_spvip<4.08806467] yes=45,no=46,missing=45
					45:leaf=-0.00264555681
					46:leaf=-0.0145030245
	2:[mm_kin_alphaBS<0.111569464] yes=5,no=6,missing=5
		5:[mm_iso<0.815439403] yes=11,no=12,missing=11
			11:[mm_kin_spvip<2.10527539] yes=23,no=24,missing=23
				23:[mm_iso<0.670452952] yes=47,no=48,missing=47
					47:leaf=-0.0147190616
					48:leaf=-0.00292399409
				24:[mm_iso<0.739174724] yes=49,no=50,missing=49
					49:leaf=-0.0184740163
					50:leaf=-0.0148055777
			12:[mm_kin_spvip<2.92525077] yes=25,no=26,missing=25
				25:[mm_kin_vtx_chi2dof<1.53707504] yes=51,no=52,missing=51
					51:leaf=0.0116200699
					52:leaf=0.00321437232
				26:[mm_kin_spvip<4.14753962] yes=53,no=54,missing=53
					53:leaf=-0.00569261005
					54:leaf=-0.0167483762
		6:[mm_kin_alphaBS<0.172753096] yes=13,no=14,missing=13
			13:[mm_iso<0.850488245] yes=27,no=28,missing=27
				27:[mm_kin_spvip<2.13825822] yes=55,no=56,missing=55
					55:leaf=-0.0144649539
					56:leaf=-0.0186234191
				28:[mm_kin_spvip<2.55005264] yes=57,no=58,missing=57
					57:leaf=0.0018722656
					58:leaf=-0.0131943058
			14:[mm_kin_alphaBS<0.243656814] yes=29,no=30,missing=29
				29:[mm_iso<0.962150335] yes=59,no=60,missing=59
					59:leaf=-0.0186319258
					60:leaf=-0.0123683335
				30:leaf=-0.0190336611
booster[6]:
0:[mm_kin_alphaBS<0.0583484992] yes=1,no=2,missing=1
	1:[mm_iso<0.715072751] yes=3,no=4,missing=3
		3:[mm_kin_spvip<2.03388524] yes=7,no=8,missing=7
			7:[mm_kin_sl3d<9.47323036] yes=15,no=16,missing=15
				15:[mm_m1iso<0.593392789] yes=31,no=32,missing=31
					31:leaf=-0.0133527787
					32:leaf=-0.00322469161
				16:[mm_kin_sl3d<16.0363388] yes=33,no=34,missing=33
					33:leaf=0.00678887637
					34:leaf=0.0173047464
			8:[mm_otherVtxMaxProb2<0.330828518] yes=17,no=18,missing=17
				17:[mm_kin_pvip<0.0125700654] yes=35,no=36,missing=35
					35:leaf=0.0102508413
					36:leaf=-0.0129423784
				18:[mm_kin_spvip<2.65640235] yes=37,no=38,missing=37
					37:leaf=-0.0117207682
					38:leaf=-0.0180704724
		4:[mm_kin_spvip<3.31332254] yes=9,no=10,missing=9
			9:[mm_kin_sl3d<6.17871952] yes=19,no=20,missing=19
				19:[mm_iso<0.85482347] yes=39,no=40,missing=39
					39:leaf=-0.000673888833
					40:leaf=0.0127252182
				20:[mm_kin_sl3d<10.0481319] yes=41,no=42,missing=41
					41:leaf=0.0155485338
					42:leaf=0.0184635893
			10:[mm_otherVtxMaxProb2<0.283283949] yes=21,no=22,missing=21
				21:[mm_iso<0.865583837] yes=43,no=44,missing=43
					43:leaf=-0.00136427209
					44:leaf=0.0129181966
				22:[mm_kin_spvip<4.6043582] yes=45,no=46,missing=45
					45:leaf=-0.00272206543
					46:leaf=-0.0153083075
	2:[mm_kin_alphaBS<0.106762871] yes=5,no=6,missing=5
		5:[mm_iso<0.821870625] yes=11,no=12,missing=11
			11:[mm_kin_spvip<1.97074878] yes=23,no=24,missing=23
				23:[mm_iso<0.645279646] yes=47,no=48,missing=47
					47:leaf=-0.014599272
					48:leaf=-0.00173885887
				24:[mm_kin_spvip<2.65640235] yes=49,no=50,missing=49
					49:leaf=-0.0139961559
					50:leaf=-0.0182745885
			12:[mm_kin_spvip<2.92525077] yes=25,no=26,missing=25
				25:[mm_kin_spvip<1.97074878] yes=51,no=52,missing=51
					51:leaf=0.0130356234
					52:leaf=0.00581114413
				26:[mm_kin_spvip<4.02907038] yes=53,no=54,missing=53
					53:leaf=-0.00393682672
					54:leaf=-0.0157823395
		6:[mm_kin_alphaBS<0.157796144] yes=13,no=14,missing=13
			13:[mm_iso<0.884992361] yes=27,no=28,missing=27
				27:[mm_kin_spvip<1.9081862] yes=55,no=56,missing=55
					55:leaf=-0.0118907643
					56:leaf=-0.018138567
				28:[mm_kin_spvip<2.61841655] yes=57,no=58,missing=57
					57:leaf=0.00454235589
					58:leaf=-0.0112766661
			14:[mm_kin_alphaBS<0.221017033] yes=29,no=30,missing=29
				29:[mm_iso<0.936221898] yes=59,no=60,missing=59
					59:leaf=-0.0182577334
					60:leaf=-0.0112126321
				30:leaf=-0.0188512225
booster[7]:
0:[mm_kin_alphaBS<0.061026331] yes=1,no=2,missing=1
	1:[mm_iso<0.701681316] yes=3,no=4,missing=3
		3:[mm_kin_spvip<1.97074878] yes=7,no=8,missing=7
			7:[mm_kin_sl3d<9.47323036] yes=15,no=16,missing=15
				15:[mm_m1iso<0.653358996] yes=31,no=32,missing=31
					31:leaf=-0.0124149583
					32:leaf=-0.00171019894
				16:[mm_kin_sl3d<13.2790003] yes=33,no=34,missing=33
					33:leaf=0.00444667041
					34:leaf=0.015909845
			8:[mm_otherVtxMaxProb2<0.360298306] yes=17,no=18,missing=17
				17:[mm_kin_pvip<0.0130982893] yes=35,no=36,missing=35
					35:leaf=0.00870583206
					36:leaf=-0.0139834769
				18:[mm_kin_spvip<2.51556039] yes=37,no=38,missing=37
					37:leaf=-0.011573052
					38:leaf=-0.017827943
		4:[mm_kin_spvip<3.47185779] yes=9,no=10,missing=9
			9:[mm_kin_sl3d<6.3133316] yes=19,no=20,missing=19
				19:[mm_iso<0.85482347] yes=39,no=40,missing=39
					39:leaf=-0.00139104901
					40:leaf=0.0128289033
				20:[mm_kin_spvip<2.3086133] yes=41,no=42,missing=41
					41:leaf=0.0180527717
					42:leaf=0.0135185635
			10:[mm_otherVtxMaxProb2<0.426778018] yes=21,no=22,missing=21
				21:[mm_iso<0.914608598] yes=43,no=44,missing=43
					43:leaf=-0.00360909686
					44:leaf=0.0116193984
				22:[mm_kin_spvip<4.9677453] yes=45,no=46,missing=45
					45:leaf=-0.00586989149
					46:leaf=-0.0160378963
	2:[mm_kin_alphaBS<0.111569464] yes=5,no=6,missing=5
		5:[mm_iso<0.839579403] yes=11,no=12,missing=11
			11:[mm_kin_spvip<2.20628357] yes=23,no=24,missing=23
				23:[mm_iso<0.695114315] yes=47,no=48,missing=47
					47:leaf=-0.0140609294
					48:leaf=-0.00125137391
				24:[mm_iso<0.748146296] yes=49,no=50,missing=49
					49:leaf=-0.0181602817
					50:leaf=-0.014188027
			12:[mm_kin_spvip<3.08727765] yes=25,no=26,missing=25
				25:[mm_kin_spvip<2.24100542] yes=51,no=52,missing=51
					51:leaf=0.0119191157
					52:leaf=0.00370464614
				26:[mm_kin_spvip<4.14753962] yes=53,no=54,missing=53
					53:leaf=-0.00455604494
					54:leaf=-0.0161681976
		6:[mm_kin_alphaBS<0.157796144] yes=13,no=14,missing=13
			13:[mm_iso<0.871609211] yes=27,no=28,missing=27
				27:[mm_kin_spvip<2.03388524] yes=55,no=56,missing=55
					55:leaf=-0.0128202317
					56:leaf=-0.0181475952
				28:[mm_kin_spvip<2.61841655] yes=57,no=58,missing=57
					57:leaf=0.00424804399
					58:leaf=-0.0120222671
			14:[mm_kin_alphaBS<0.221017033] yes=29,no=30,missing=29
				29:[mm_iso<0.873643339] yes=59,no=60,missing=59
					59:leaf=-0.0182819981
					60:leaf=-0.0130723082
				30:leaf=-0.0186845511
booster[8]:
0:[mm_kin_alphaBS<0.061026331] yes=1,no=2,missing=1
	1:[mm_iso<0.719470918] yes=3,no=4,missing=3
		3:[mm_kin_spvip<2.03388524] yes=7,no=8,missing=7
			7:[mm_kin_sl3d<9.17286205] yes=15,no=16,missing=15
				15:[mm_iso<0.593230724] yes=29,no=30,missing=29
					29:leaf=-0.0140026463
					30:leaf=-0.00371481618
				16:[mm_kin_sl3d<13.9530268] yes=31,no=32,missing=31
					31:leaf=0.0051386035
					32:leaf=0.016561348
			8:[mm_otherVtxMaxProb2<0.374318957] yes=17,no=18,missing=17
				17:[mm_kin_pvip<0.0119369077] yes=33,no=34,missing=33
					33:leaf=0.0103379888
					34:leaf=-0.0125810094
				18:[mm_kin_spvip<2.75790477] yes=35,no=36,missing=35
					35:leaf=-0.0122152502
					36:leaf=-0.0178590454
		4:[mm_kin_spvip<3.21512413] yes=9,no=10,missing=9
			9:[mm_kin_sl3d<6.38831663] yes=19,no=20,missing=19
				19:[mm_iso<0.85482347] yes=37,no=38,missing=37
					37:leaf=-0.000235061088
					38:leaf=0.0129076652
				20:[mm_kin_sl3d<9.17286205] yes=39,no=40,missing=39
					39:leaf=0.0151498215
					40:leaf=0.0180880725
			10:[mm_otherVtxMaxProb2<0.483945012] yes=21,no=22,missing=21
				21:[mm_iso<0.863544703] yes=41,no=42,missing=41
					41:leaf=-0.00567153702
					42:leaf=0.0114796478
				22:[mm_kin_spvip<4.02907038] yes=43,no=44,missing=43
					43:leaf=-0.0014318981
					44:leaf=-0.013896768
	2:[mm_kin_alphaBS<0.120102912] yes=5,no=6,missing=5
		5:[mm_iso<0.835237145] yes=11,no=12,missing=11
			11:[mm_kin_spvip<2.20628357] yes=23,no=24,missing=23
				23:[mm_iso<0.708476126] yes=45,no=46,missing=45
					45:leaf=-0.0138634853
					46:leaf=-0.000876349164
				24:[mm_kin_spvip<2.95806575] yes=47,no=48,missing=47
					47:leaf=-0.015314837
					48:leaf=-0.018211985
			12:[mm_kin_spvip<3.08727765] yes=25,no=26,missing=25
				25:[mm_kin_spvip<2.13825822] yes=49,no=50,missing=49
					49:leaf=0.0116692847
					50:leaf=0.00410459749
				26:[mm_otherVtxMaxProb2<0.34557265] yes=51,no=52,missing=51
					51:leaf=0.0010503215
					52:leaf=-0.0132142799
		6:[mm_kin_alphaBS<0.177797765] yes=13,no=14,missing=13
			13:[mm_iso<0.850488245] yes=27,no=28,missing=27
				27:[mm_kin_spvip<1.97074878] yes=53,no=54,missing=53
					53:leaf=-0.0138623798
					54:leaf=-0.0181546658
				28:[mm_kin_spvip<2.61841655] yes=55,no=56,missing=55
					55:leaf=0.000717082294
					56:leaf=-0.013749823
			14:leaf=-0.0184854399
booster[9]:
0:[mm_kin_alphaBS<0.061026331] yes=1,no=2,missing=1
	1:[mm_iso<0.728193104] yes=3,no=4,missing=3
		3:[mm_kin_spvip<2.03388524] yes=7,no=8,missing=7
			7:[mm_kin_sl3d<9.10267544] yes=15,no=16,missing=15
				15:[mm_iso<0.593230724] yes=31,no=32,missing=31
					31:leaf=-0.0139256893
					32:leaf=-0.00398574537
				16:[mm_kin_sl3d<14.7089968] yes=33,no=34,missing=33
					33:leaf=0.00648373598
					34:leaf=0.0165686719
			8:[mm_kin_sl3d<18.6678715] yes=17,no=18,missing=17
				17:[mm_kin_spvip<2.72482848] yes=35,no=36,missing=35
					35:leaf=-0.0135249747
					36:leaf=-0.0179241542
				18:[mm_kin_spvip<3.34459043] yes=37,no=38,missing=37
					37:leaf=0.0113941627
					38:leaf=-0.0166482627
		4:[mm_kin_spvip<3.53326392] yes=9,no=10,missing=9
			9:[mm_kin_sl3d<6.14545441] yes=19,no=20,missing=19
				19:[mm_iso<0.871609211] yes=39,no=40,missing=39
					39:leaf=-0.0002270111
					40:leaf=0.0128499549
				20:[mm_kin_spvip<2.34295011] yes=41,no=42,missing=41
					41:leaf=0.0177916531
					42:leaf=0.0136350105
			10:[mm_otherVtxMaxProb2<0.264398307] yes=21,no=22,missing=21
				21:[mm_iso<0.900847495] yes=43,no=44,missing=43
					43:leaf=-0.00160546624
					44:leaf=0.0124440677
				22:[mm_kin_spvip<4.9677453] yes=45,no=46,missing=45
					45:leaf=-0.00463295821
					46:leaf=-0.0155876372
	2:[mm_kin_alphaBS<0.111569464] yes=5,no=6,missing=5
		5:[mm_iso<0.815439403] yes=11,no=12,missing=11
			11:[mm_kin_spvip<2.10527539] yes=23,no=24,missing=23
				23:[mm_iso<0.640774786] yes=47,no=48,missing=47
					47:leaf=-0.014751371
					48:leaf=-0.00356668583
				24:[mm_iso<0.743856251] yes=49,no=50,missing=49
					49:leaf=-0.0178113487
					50:leaf=-0.014066739
			12:[mm_kin_spvip<2.75790477] yes=25,no=26,missing=25
				25:[mm_m1iso<0.840028465] yes=51,no=52,missing=51
					51:leaf=0.00371693401
					52:leaf=0.0117361853
				26:[mm_kin_spvip<4.20754385] yes=53,no=54,missing=53
					53:leaf=-0.00414076354
					54:leaf=-0.0159972049
		6:[mm_kin_alphaBS<0.162697926] yes=13,no=14,missing=13
			13:[mm_iso<0.85482347] yes=27,no=28,missing=27
				27:[mm_kin_spvip<1.87623918] yes=55,no=56,missing=55
					55:leaf=-0.0124263102
					56:leaf=-0.0178076327
				28:[mm_kin_spvip<2.65640235] yes=57,no=58,missing=57
					57:leaf=0.00247356179
					58:leaf=-0.0128666433
			14:[mm_kin_alphaBS<0.221017033] yes=29,no=30,missing=29
				29:[mm_iso<0.920127332] yes=59,no=60,missing=59
					59:leaf=-0.0178660955
					60:leaf=-0.0112061072
				30:leaf=-0.0183677375
booster[10]:
0:[mm_kin_alphaBS<0.0583484992] yes=1,no=2,missing=1
	1:[mm_iso<0.719470918] yes=3,no=4,missing=3
		3:[mm_kin_spvip<2.13825822] yes=7,no=8,missing=7
			7:[mm_kin_sl3d<10.2285824] yes=15,no=16,missing=15
				15:[mm_iso<0.617304862] yes=31,no=32,missing=31
					31:leaf=-0.0125552984
					32:leaf=-0.00186852901
				16:[mm_kin_sl3d<15.3529453] yes=33,no=34,missing=33
					33:leaf=0.00698187714
					34:leaf=0.0165128652
			8:[mm_otherVtxMaxProb2<0.194134638] yes=17,no=18,missing=17
				17:[mm_kin_spvip<3.21512413] yes=35,no=36,missing=35
					35:leaf=0.0114293573
					36:leaf=-0.00950342044
				18:[mm_kin_spvip<2.75790477] yes=37,no=38,missing=37
					37:leaf=-0.011457162
					38:leaf=-0.0174563248
		4:[mm_kin_spvip<3.47185779] yes=9,no=10,missing=9
			9:[mm_kin_sl3d<6.38831663] yes=19,no=20,missing=19
				19:[mm_iso<0.867623568] yes=39,no=40,missing=39
					39:leaf=0.000271629193
					40:leaf=0.0127907377
				20:[mm_kin_spvip<2.65640235] yes=41,no=42,missing=41
					41:leaf=0.0175685659
					42:leaf=0.0124800187
			10:[mm_otherVtxMaxProb2<0.247476265] yes=21,no=22,missing=21
				21:[mm_iso<0.899171054] yes=43,no=44,missing=43
					43:leaf=-0.000407501648
					44:leaf=0.0129040545
				22:[mm_kin_spvip<4.86245728] yes=45,no=46,missing=45
					45:leaf=-0.00407847902
					46:leaf=-0.0148358531
	2:[mm_kin_alphaBS<0.106762871] yes=5,no=6,missing=5
		5:[mm_iso<0.824297667] yes=11,no=12,missing=11
			11:[mm_kin_spvip<2.20628357] yes=23,no=24,missing=23
				23:[mm_iso<0.715072751] yes=47,no=48,missing=47
					47:leaf=-0.0127523346
					48:leaf=-0
				24:[mm_kin_spvip<2.92525077] yes=49,no=50,missing=49
					49:leaf=-0.0146207009
					50:leaf=-0.0178827755
			12:[mm_kin_spvip<3.05593443] yes=25,no=26,missing=25
				25:[mm_kin_spvip<2.10527539] yes=51,no=52,missing=51
					51:leaf=0.0120353997
					52:leaf=0.0041721398
				26:[mm_kin_spvip<4.14753962] yes=53,no=54,missing=53
					53:leaf=-0.00435883645
					54:leaf=-0.0159501433
		6:[mm_kin_alphaBS<0.157796144] yes=13,no=14,missing=13
			13:[mm_iso<0.85482347] yes=27,no=28,missing=27
				27:[mm_kin_spvip<1.9081862] yes=55,no=56,missing=55
					55:leaf=-0.0116666527
					56:leaf=-0.0177019015
				28:[mm_kin_spvip<2.55005264] yes=57,no=58,missing=57
					57:leaf=0.00413709087
					58:leaf=-0.0118567096
			14:[mm_kin_alphaBS<0.221017033] yes=29,no=30,missing=29
				29:[mm_iso<0.873643339] yes=59,no=60,missing=59
					59:leaf=-0.0178635754
					60:leaf=-0.012364286
				30:leaf=-0.0182131771
booster[11]:
0:[mm_kin_alphaBS<0.061026331] yes=1,no=2,missing=1
	1:[mm_iso<0.719470918] yes=3,no=4,missing=3
		3:[mm_kin_spvip<2.03388524] yes=7,no=8,missing=7
			7:[mm_kin_sl3d<9.9599123] yes=15,no=16,missing=15
				15:[mm_iso<0.593230724] yes=31,no=32,missing=31
					31:leaf=-0.0127259623
					32:leaf=-0.00286316802
				16:[mm_kin_sl3d<15.3529453] yes=33,no=34,missing=33
					33:leaf=0.00698464038
					34:leaf=0.0163938832
			8:[mm_otherVtxMaxProb2<0.360298306] yes=17,no=18,missing=17
				17:[mm_kin_pvip<0.0130982893] yes=35,no=36,missing=35
					35:leaf=0.00869177748
					36:leaf=-0.0139301773
				18:[mm_kin_spvip<2.61841655] yes=37,no=38,missing=37
					37:leaf=-0.0110348295
					38:leaf=-0.0172386188
		4:[mm_kin_spvip<3.44026494] yes=9,no=10,missing=9
			9:[mm_kin_sl3d<6.27940178] yes=19,no=20,missing=19
				19:[mm_iso<0.865583837] yes=39,no=40,missing=39
					39:leaf=-0
					40:leaf=0.0125263296
				20:[mm_kin_spvip<2.3086133] yes=41,no=42,missing=41
					41:leaf=0.0174780916
					42:leaf=0.0134729892
			10:[mm_otherVtxMaxProb2<0.505028546] yes=21,no=22,missing=21
				21:[mm_iso<0.914608598] yes=43,no=44,missing=43
					43:leaf=-0.00457074912
					44:leaf=0.0107287802
				22:[mm_kin_spvip<4.32534409] yes=45,no=46,missing=45
					45:leaf=-0.00411858037
					46:leaf=-0.0144906705
	2:[mm_kin_alphaBS<0.111569464] yes=5,no=6,missing=5
		5:[mm_iso<0.835237145] yes=11,no=12,missing=11
			11:[mm_kin_spvip<2.20628357] yes=23,no=24,missing=23
				23:[mm_iso<0.674958706] yes=47,no=48,missing=47
					47:leaf=-0.0140191745
					48:leaf=-0.00212566904
				24:[mm_iso<0.746001482] yes=49,no=50,missing=49
					49:leaf=-0.0175451543
					50:leaf=-0.0136840921
			12:[mm_kin_spvip<3.08727765] yes=25,no=26,missing=25
				25:[mm_kin_spvip<1.97074878] yes=51,no=52,missing=51
					51:leaf=0.0120025156
					52:leaf=0.00481410092
				26:[mm_kin_spvip<4.14753962] yes=53,no=54,missing=53
					53:leaf=-0.00532401027
					54:leaf=-0.0156375039
		6:[mm_kin_alphaBS<0.172753096] yes=13,no=14,missing=13
			13:[mm_iso<0.884992361] yes=27,no=28,missing=27
				27:[mm_kin_spvip<1.87623918] yes=55,no=56,missing=55
					55:leaf=-0.0117394244
					56:leaf=-0.0174917616
				28:[mm_kin_spvip<2.61841655] yes=57,no=58,missing=57
					57:leaf=0.0032724496
					58:leaf=-0.0119761582
			14:[mm_kin_alphaBS<0.237874538] yes=29,no=30,missing=29
				29:[mm_iso<0.962150335] yes=59,no=60,missing=59
					59:leaf=-0.0176170357
					60:leaf=-0.0119162453
				30:leaf=-0.0180729739
booster[12]:
0:[mm_kin_alphaBS<0.061026331] yes=1,no=2,missing=1
	1:[mm_iso<0.715072751] yes=3,no=4,missing=3
		3:[mm_kin_spvip<1.97074878] yes=7,no=8,missing=7
			7:[mm_kin_sl3d<8.95541286] yes=15,no=16,missing=15
				15:[mm_m1iso<0.67996186] yes=31,no=32,missing=31
					31:leaf=-0.0119730029
					32:leaf=-0.000909528346
				16:[mm_kin_sl3d<14.7089968] yes=33,no=34,missing=33
					33:leaf=0.00529362168
					34:leaf=0.0159511324
			8:[mm_kin_sl3d<19.7665138] yes=17,no=18,missing=17
				17:[mm_kin_spvip<2.65640235] yes=35,no=36,missing=35
					35:leaf=-0.0130132241
					36:leaf=-0.0173991527
				18:[mm_kin_spvip<3.24655962] yes=37,no=38,missing=37
					37:leaf=0.0121309282
					38:leaf=-0.0161579996
		4:[mm_kin_spvip<3.18386579] yes=9,no=10,missing=9
			9:[mm_kin_sl3d<6.38831663] yes=19,no=20,missing=19
				19:[mm_iso<0.850488245] yes=39,no=40,missing=39
					39:leaf=-0.00023913839
					40:leaf=0.0124403276
				20:[mm_kin_sl3d<10.0481319] yes=41,no=42,missing=41
					41:leaf=0.0148353716
					42:leaf=0.0175507739
			10:[mm_kin_spvip<4.29560852] yes=21,no=22,missing=21
				21:[mm_nBMTrks<2] yes=43,no=44,missing=43
					43:leaf=0.00852479879
					44:leaf=-0.00809713546
				22:[mm_otherVtxMaxProb2<0.247476265] yes=45,no=46,missing=45
					45:leaf=0.00320404512
					46:leaf=-0.0137467105
	2:[mm_kin_alphaBS<0.106762871] yes=5,no=6,missing=5
		5:[mm_iso<0.833028078] yes=11,no=12,missing=11
			11:[mm_kin_spvip<2.13825822] yes=23,no=24,missing=23
				23:[mm_iso<0.670452952] yes=47,no=48,missing=47
					47:leaf=-0.0135802422
					48:leaf=-0.00156978227
				24:[mm_iso<0.748146296] yes=49,no=50,missing=49
					49:leaf=-0.017375635
					50:leaf=-0.0132325292
			12:[mm_kin_spvip<3.02302146] yes=25,no=26,missing=25
				25:[mm_kin_vtx_chi2dof<1.51420879] yes=51,no=52,missing=51
					51:leaf=0.0117664943
					52:leaf=0.00322738569
				26:[mm_kin_spvip<3.99887252] yes=53,no=54,missing=53
					53:leaf=-0.0038860708
					54:leaf=-0.014821454
		6:[mm_kin_alphaBS<0.162697926] yes=13,no=14,missing=13
			13:[mm_iso<0.881234467] yes=27,no=28,missing=27
				27:[mm_kin_spvip<2.03388524] yes=55,no=56,missing=55
					55:leaf=-0.0118585294
					56:leaf=-0.0173756853
				28:[mm_kin_spvip<3.15116596] yes=57,no=58,missing=57
					57:leaf=0.00249462086
					58:leaf=-0.0136648016
			14:[mm_kin_alphaBS<0.221017033] yes=29,no=30,missing=29
				29:[mm_iso<0.962150335] yes=59,no=60,missing=59
					59:leaf=-0.017380232
					60:leaf=-0.010347981
				30:leaf=-0.0179201104
booster[13]:
0:[mm_kin_alphaBS<0.0583484992] yes=1,no=2,missing=1
	1:[mm_iso<0.719470918] yes=3,no=4,missing=3
		3:[mm_kin_spvip<1.97074878] yes=7,no=8,missing=7
			7:[mm_kin_sl3d<10.931695] yes=15,no=16,missing=15
				15:[mm_iso<0.617304862] yes=29,no=30,missing=29
					29:leaf=-0.0112998504
					30:leaf=-0.000265673298
				16:[mm_kin_sl3d<16.0363388] yes=31,no=32,missing=31
					31:leaf=0.00913967658
					32:leaf=0.0163467284
			8:[mm_kin_sl3d<19.7665138] yes=17,no=18,missing=17
				17:[mm_kin_spvip<2.65640235] yes=33,no=34,missing=33
					33:leaf=-0.0131673496
					34:leaf=-0.0171757247
				18:[mm_kin_spvip<3.24655962] yes=35,no=36,missing=35
					35:leaf=0.0127391014
					36:leaf=-0.0160497632
		4:[mm_kin_spvip<3.47185779] yes=9,no=10,missing=9
			9:[mm_kin_sl3d<6.3133316] yes=19,no=20,missing=19
				19:[mm_iso<0.81970185] yes=37,no=38,missing=37
					37:leaf=-0.00275861612
					38:leaf=0.0113572022
				20:[mm_kin_spvip<2.34295011] yes=39,no=40,missing=39
					39:leaf=0.0172384307
					40:leaf=0.0132299559
			10:[mm_otherVtxMaxProb2<0.247476265] yes=21,no=22,missing=21
				21:[mm_iso<0.899171054] yes=41,no=42,missing=41
					41:leaf=-0.00125806371
					42:leaf=0.0129471831
				22:[mm_kin_spvip<4.66793776] yes=43,no=44,missing=43
					43:leaf=-0.00322147505
					44:leaf=-0.014479829
	2:[mm_kin_alphaBS<0.115831845] yes=5,no=6,missing=5
		5:[mm_iso<0.824297667] yes=11,no=12,missing=11
			11:[mm_kin_spvip<2.20628357] yes=23,no=24,missing=23
				23:[mm_iso<0.708476126] yes=45,no=46,missing=45
					45:leaf=-0.0128625641
					46:leaf=-0.00060000614
				24:[mm_kin_spvip<2.95806575] yes=47,no=48,missing=47
					47:leaf=-0.0146386977
					48:leaf=-0.0174869113
			12:[mm_kin_spvip<3.08727765] yes=25,no=26,missing=25
				25:[mm_kin_spvip<2.2743063] yes=49,no=50,missing=49
					49:leaf=0.011095034
					50:leaf=0.00242537772
				26:[mm_kin_spvip<4.29560852] yes=51,no=52,missing=51
					51:leaf=-0.00572934654
					52:leaf=-0.0157272983
		6:[mm_kin_alphaBS<0.182802856] yes=13,no=14,missing=13
			13:[mm_iso<0.881234467] yes=27,no=28,missing=27
				27:[mm_kin_spvip<2.03388524] yes=53,no=54,missing=53
					53:leaf=-0.0126903588
					54:leaf=-0.0173071604
				28:[mm_kin_spvip<3.02302146] yes=55,no=56,missing=55
					55:leaf=0.000402715465
					56:leaf=-0.0140550453
			14:leaf=-0.0177465752
booster[14]:
0:[mm_kin_alphaBS<0.0639338717] yes=1,no=2,missing=1
	1:[mm_iso<0.719470918] yes=3,no=4,missing=3
		3:[mm_kin_spvip<1.97074878] yes=7,no=8,missing=7
			7:[mm_kin_sl3d<9.47323036] yes=15,no=16,missing=15
				15:[mm_iso<0.610076785] yes=31,no=32,missing=31
					31:leaf=-0.012463457
					32:leaf=-0.00258397823
				16:[mm_kin_sl3d<13.9530268] yes=33,no=34,missing=33
					33:leaf=0.0056456211
					34:leaf=0.0156519022
			8:[mm_kin_sl3d<19.0122089] yes=17,no=18,missing=17
				17:[mm_kin_spvip<2.65640235] yes=35,no=36,missing=35
					35:leaf=-0.0131048998
					36:leaf=-0.0171858724
				18:[mm_kin_spvip<3.12002087] yes=37,no=38,missing=37
					37:leaf=0.0130066471
					38:leaf=-0.01562603
		4:[mm_kin_spvip<3.18386579] yes=9,no=10,missing=9
			9:[mm_kin_sl3d<6.38831663] yes=19,no=20,missing=19
				19:[mm_iso<0.850488245] yes=39,no=40,missing=39
					39:leaf=-0.000155165413
					40:leaf=0.0121504497
				20:[mm_kin_sl3d<9.32106686] yes=41,no=42,missing=41
					41:leaf=0.0143695986
					42:leaf=0.0172250289
			10:[mm_otherVtxMaxProb2<0.374318957] yes=21,no=22,missing=21
				21:[mm_iso<0.899171054] yes=43,no=44,missing=43
					43:leaf=-0.000418760959
					44:leaf=0.012789391
				22:[mm_kin_spvip<4.17819214] yes=45,no=46,missing=45
					45:leaf=-0.00142548943
					46:leaf=-0.0134450924
	2:[mm_kin_alphaBS<0.111569464] yes=5,no=6,missing=5
		5:[mm_iso<0.835237145] yes=11,no=12,missing=11
			11:[mm_kin_spvip<1.81522679] yes=23,no=24,missing=23
				23:[mm_iso<0.645279646] yes=47,no=48,missing=47
					47:leaf=-0.0137127275
					48:leaf=-0.000788772246
				24:[mm_iso<0.741510749] yes=49,no=50,missing=49
					49:leaf=-0.0169989541
					50:leaf=-0.0124435555
			12:[mm_kin_spvip<3.05593443] yes=25,no=26,missing=25
				25:[mm_kin_vtx_chi2dof<1.62743163] yes=51,no=52,missing=51
					51:leaf=0.0107541522
					52:leaf=0.00209044293
				26:[mm_kin_spvip<4.02907038] yes=53,no=54,missing=53
					53:leaf=-0.0046618185
					54:leaf=-0.0149308629
		6:[mm_kin_alphaBS<0.172753096] yes=13,no=14,missing=13
			13:[mm_iso<0.879378617] yes=27,no=28,missing=27
				27:[mm_kin_spvip<2.13825822] yes=55,no=56,missing=55
					55:leaf=-0.0124721332
					56:leaf=-0.0172072332
				28:[mm_kin_spvip<2.61841655] yes=57,no=58,missing=57
					57:leaf=0.00243194378
					58:leaf=-0.0118036158
			14:[mm_kin_alphaBS<0.237874538] yes=29,no=30,missing=29
				29:[mm_iso<0.962150335] yes=59,no=60,missing=59
					59:leaf=-0.0172498785
					60:leaf=-0.0110574793
				30:leaf=-0.0176492147
booster[15]:
0:[mm_kin_alphaBS<0.0557520874] yes=1,no=2,missing=1
	1:[mm_iso<0.701681316] yes=3,no=4,missing=3
		3:[mm_kin_spvip<2.13825822] yes=7,no=8,missing=7
			7:[mm_kin_sl3d<10.6122942] yes=15,no=16,missing=15
				15:[mm_kin_sl3d<7.18887186] yes=31,no=32,missing=31
					31:leaf=-0.0118745957
					32:leaf=-0.0012401538
				16:[mm_kin_sl3d<16.0363388] yes=33,no=34,missing=33
					33:leaf=0.00729377428
					34:leaf=0.0158405751
			8:[mm_otherVtxMaxProb2<0.212112203] yes=17,no=18,missing=17
				17:[mm_kin_pvip<0.0140614705] yes=35,no=36,missing=35
					35:leaf=0.0106761763
					36:leaf=-0.00988862757
				18:[mm_kin_spvip<2.75790477] yes=37,no=38,missing=37
					37:leaf=-0.011584565
					38:leaf=-0.0168791786
		4:[mm_kin_spvip<3.37650061] yes=9,no=10,missing=9
			9:[mm_kin_sl3d<6.84220982] yes=19,no=20,missing=19
				19:[mm_iso<0.811114311] yes=39,no=40,missing=39
					39:leaf=-0.00236639264
					40:leaf=0.0116859097
				20:[mm_kin_spvip<2.3086133] yes=41,no=42,missing=41
					41:leaf=0.0170072746
					42:leaf=0.013512712
			10:[mm_otherVtxMaxProb2<0.38796401] yes=21,no=22,missing=21
				21:[mm_iso<0.850488245] yes=43,no=44,missing=43
					43:leaf=-0.00608218461
					44:leaf=0.010770401
				22:[mm_kin_spvip<4.63590527] yes=45,no=46,missing=45
					45:leaf=-0.00372124906
					46:leaf=-0.0143519649
	2:[mm_kin_alphaBS<0.102623425] yes=5,no=6,missing=5
		5:[mm_iso<0.815439403] yes=11,no=12,missing=11
			11:[mm_kin_spvip<2.10527539] yes=23,no=24,missing=23
				23:[mm_iso<0.677274108] yes=47,no=48,missing=47
					47:leaf=-0.012713884
					48:leaf=-0.000589430856
				24:[mm_kin_spvip<2.92525077] yes=49,no=50,missing=49
					49:leaf=-0.0141232666
					50:leaf=-0.0171481445
			12:[mm_kin_spvip<2.92525077] yes=25,no=26,missing=25
				25:[mm_iso<0.905952334] yes=51,no=52,missing=51
					51:leaf=0.00506259175
					52:leaf=0.0122617669
				26:[mm_kin_spvip<3.99887252] yes=53,no=54,missing=53
					53:leaf=-0.00308461371
					54:leaf=-0.0144864293
		6:[mm_kin_alphaBS<0.152915016] yes=13,no=14,missing=13
			13:[mm_iso<0.850488245] yes=27,no=28,missing=27
				27:[mm_kin_spvip<1.87623918] yes=55,no=56,missing=55
					55:leaf=-0.011478967
					56:leaf=-0.0169417337
				28:[mm_kin_spvip<2.85778856] yes=57,no=58,missing=57
					57:leaf=0.00286278455
					58:leaf=-0.012612897
			14:[mm_kin_alphaBS<0.204527333] yes=29,no=30,missing=29
				29:[mm_iso<0.881234467] yes=59,no=60,missing=59
					59:leaf=-0.0170552768
					60:leaf=-0.0109100984
				30:leaf=-0.0174948517
booster[16]:
0:[mm_kin_alphaBS<0.0583484992] yes=1,no=2,missing=1
	1:[mm_iso<0.701681316] yes=3,no=4,missing=3
		3:[mm_kin_spvip<1.87623918] yes=7,no=8,missing=7
			7:[mm_kin_sl3d<8.95541286] yes=15,no=16,missing=15
				15:[mm_m1iso<0.677502692] yes=31,no=32,missing=31
					31:leaf=-0.0116427299
					32:leaf=-0.00085490552
				16:[mm_kin_sl3d<12.510004] yes=33,no=34,missing=33
					33:leaf=0.00332680601
					34:leaf=0.0146510946
			8:[mm_kin_sl3d<23.6538982] yes=17,no=18,missing=17
				17:[mm_kin_spvip<2.51556039] yes=35,no=36,missing=35
					35:leaf=-0.0114517761
					36:leaf=-0.0167693198
				18:[mm_kin_spvip<3.71766186] yes=37,no=38,missing=37
					37:leaf=0.013328746
					38:leaf=-0.0162097961
		4:[mm_kin_spvip<3.15116596] yes=9,no=10,missing=9
			9:[mm_kin_sl3d<6.96620798] yes=19,no=20,missing=19
				19:[mm_iso<0.837387919] yes=39,no=40,missing=39
					39:leaf=-0.000230138787
					40:leaf=0.0124375289
				20:[mm_nBMTrks<2] yes=41,no=42,missing=41
					41:leaf=0.0170021877
					42:leaf=0.0144032193
			10:[mm_iso<0.873643339] yes=21,no=22,missing=21
				21:[mm_otherVtxMaxProb2<0.139451474] yes=43,no=44,missing=43
					43:leaf=0.000629014045
					44:leaf=-0.0137627693
				22:[mm_kin_spvip<5.32648563] yes=45,no=46,missing=45
					45:leaf=0.00671125017
					46:leaf=-0.0114360834
	2:[mm_kin_alphaBS<0.106762871] yes=5,no=6,missing=5
		5:[mm_iso<0.824297667] yes=11,no=12,missing=11
			11:[mm_kin_spvip<2.20628357] yes=23,no=24,missing=23
				23:[mm_iso<0.684019923] yes=47,no=48,missing=47
					47:leaf=-0.0130466074
					48:leaf=-0.000965686515
				24:[mm_kin_spvip<2.95806575] yes=49,no=50,missing=49
					49:leaf=-0.0140455635
					50:leaf=-0.0170766357
			12:[mm_kin_spvip<2.99090695] yes=25,no=26,missing=25
				25:[mm_kin_vtx_chi2dof<1.53707504] yes=51,no=52,missing=51
					51:leaf=0.0114416974
					52:leaf=0.0032549724
				26:[mm_kin_spvip<3.77910781] yes=53,no=54,missing=53
					53:leaf=-0.00337418425
					54:leaf=-0.0135636125
		6:[mm_kin_alphaBS<0.162697926] yes=13,no=14,missing=13
			13:[mm_iso<0.884992361] yes=27,no=28,missing=27
				27:[mm_kin_spvip<2.07179785] yes=55,no=56,missing=55
					55:leaf=-0.0117414892
					56:leaf=-0.0167711508
				28:[mm_kin_spvip<3.15116596] yes=57,no=58,missing=57
					57:leaf=0.00226924173
					58:leaf=-0.0128265116
			14:[mm_kin_alphaBS<0.221017033] yes=29,no=30,missing=29
				29:[mm_iso<0.875557542] yes=59,no=60,missing=59
					59:leaf=-0.0170118585
					60:leaf=-0.0117922314
				30:leaf=-0.0173705854
booster[17]:
0:[mm_kin_alphaBS<0.0639338717] yes=1,no=2,missing=1
	1:[mm_iso<0.728193104] yes=3,no=4,missing=3
		3:[mm_kin_spvip<1.97074878] yes=7,no=8,missing=7
			7:[mm_kin_sl3d<9.32106686] yes=15,no=16,missing=15
				15:[mm_iso<0.617304862] yes=29,no=30,missing=29
					29:leaf=-0.0121985506
					30:leaf=-0.00218402781
				16:[mm_kin_sl3d<14.3138123] yes=31,no=32,missing=31
					31:leaf=0.00580359902
					32:leaf=0.0153777441
			8:[mm_kin_sl3d<23.0203476] yes=17,no=18,missing=17
				17:[mm_kin_spvip<2.65640235] yes=33,no=34,missing=33
					33:leaf=-0.011775353
					34:leaf=-0.0167090949
				18:[mm_kin_spvip<3.90727901] yes=35,no=36,missing=35
					35:leaf=0.0126042301
					36:leaf=-0.0161479656
		4:[mm_kin_spvip<3.44026494] yes=9,no=10,missing=9
			9:[mm_kin_sl3d<6.0181632] yes=19,no=20,missing=19
				19:[mm_iso<0.869646847] yes=37,no=38,missing=37
					37:leaf=-0.000562868954
					38:leaf=0.0115479995
				20:[mm_kin_sl3d<9.87771893] yes=39,no=40,missing=39
					39:leaf=0.0139594711
					40:leaf=0.016888395
			10:[mm_otherVtxMaxProb2<0.505028546] yes=21,no=22,missing=21
				21:[mm_iso<0.914608598] yes=41,no=42,missing=41
					41:leaf=-0.00488678413
					42:leaf=0.0104371244
				22:[mm_kin_spvip<4.73163891] yes=43,no=44,missing=43
					43:leaf=-0.0052180551
					44:leaf=-0.0143023655
	2:[mm_kin_alphaBS<0.124593996] yes=5,no=6,missing=5
		5:[mm_iso<0.833028078] yes=11,no=12,missing=11
			11:[mm_kin_spvip<1.97074878] yes=23,no=24,missing=23
				23:[mm_iso<0.697287083] yes=45,no=46,missing=45
					45:leaf=-0.0125511037
					46:leaf=-0.000630867609
				24:[mm_kin_spvip<2.95806575] yes=47,no=48,missing=47
					47:leaf=-0.0139919175
					48:leaf=-0.0170205645
			12:[mm_kin_spvip<2.92525077] yes=25,no=26,missing=25
				25:[mm_kin_spvip<2.24100542] yes=49,no=50,missing=49
					49:leaf=0.0102133071
					50:leaf=0.0018684417
				26:[mm_kin_spvip<4.20754385] yes=51,no=52,missing=51
					51:leaf=-0.00508840987
					52:leaf=-0.0153989196
		6:[mm_kin_alphaBS<0.182802856] yes=13,no=14,missing=13
			13:[mm_iso<0.911110938] yes=27,no=28,missing=27
				27:[mm_kin_spvip<2.10527539] yes=53,no=54,missing=53
					53:leaf=-0.0119137187
					54:leaf=-0.0168215316
				28:[mm_kin_spvip<3.37650061] yes=55,no=56,missing=55
					55:leaf=-0
					56:leaf=-0.0149850715
			14:leaf=-0.0172161851
booster[18]:
0:[mm_kin_alphaBS<0.061026331] yes=1,no=2,missing=1
	1:[mm_iso<0.728193104] yes=3,no=4,missing=3
		3:[mm_kin_spvip<1.84527719] yes=7,no=8,missing=7
			7:[mm_kin_sl3d<10.2285824] yes=15,no=16,missing=15
				15:[mm_iso<0.593230724] yes=29,no=30,missing=29
					29:leaf=-0.0119332159
					30:leaf=-0.00136841356
				16:[mm_kin_sl3d<16.0363388] yes=31,no=32,missing=31
					31:leaf=0.00836764742
					32:leaf=0.0159614086
			8:[mm_kin_spvip<2.69040585] yes=17,no=18,missing=17
				17:[mm_kin_sl3d<13.6060095] yes=33,no=34,missing=33
					33:leaf=-0.0131238494
					34:leaf=0.0101880571
				18:[mm_otherVtxMaxProb2<0.0871850625] yes=35,no=36,missing=35
					35:leaf=-0
					36:leaf=-0.0163021442
		4:[mm_kin_spvip<3.47185779] yes=9,no=10,missing=9
			9:[mm_kin_sl3d<6.96620798] yes=19,no=20,missing=19
				19:[mm_iso<0.865583837] yes=37,no=38,missing=37
					37:leaf=0.00114819745
					38:leaf=0.0124173975
				20:[mm_kin_spvip<2.2743063] yes=39,no=40,missing=39
					39:leaf=0.0166764129
					40:leaf=0.0133822775
			10:[mm_otherVtxMaxProb2<0.38796401] yes=21,no=22,missing=21
				21:[mm_iso<0.924087465] yes=41,no=42,missing=41
					41:leaf=-0.000726212573
					42:leaf=0.0111432131
				22:[mm_kin_spvip<4.29560852] yes=43,no=44,missing=43
					43:leaf=-0.00285836402
					44:leaf=-0.0131406672
	2:[mm_kin_alphaBS<0.115831845] yes=5,no=6,missing=5
		5:[mm_iso<0.833028078] yes=11,no=12,missing=11
			11:[mm_kin_spvip<2.20628357] yes=23,no=24,missing=23
				23:[mm_iso<0.708476126] yes=45,no=46,missing=45
					45:leaf=-0.0124932574
					46:leaf=-0.000490391045
				24:[mm_kin_spvip<3.15116596] yes=47,no=48,missing=47
					47:leaf=-0.014298561
					48:leaf=-0.0169279072
			12:[mm_kin_spvip<2.85778856] yes=25,no=26,missing=25
				25:[mm_kin_vtx_chi2dof<1.51420879] yes=49,no=50,missing=49
					49:leaf=0.0106691774
					50:leaf=0.00281838118
				26:[mm_kin_spvip<4.14753962] yes=51,no=52,missing=51
					51:leaf=-0.00365460292
					52:leaf=-0.0148457559
		6:[mm_kin_alphaBS<0.182802856] yes=13,no=14,missing=13
			13:[mm_iso<0.850488245] yes=27,no=28,missing=27
				27:[mm_kin_spvip<2.03388524] yes=53,no=54,missing=53
					53:leaf=-0.0131023405
					54:leaf=-0.0168179348
				28:[mm_kin_spvip<2.89163995] yes=55,no=56,missing=55
					55:leaf=-5.29064237e-05
					56:leaf=-0.0135449059
			14:leaf=-0.0170889068
booster[19]:
0:[mm_kin_alphaBS<0.061026331] yes=1,no=2,missing=1
	1:[mm_iso<0.697287083] yes=3,no=4,missing=3
		3:[mm_kin_spvip<1.75550544] yes=7,no=8,missing=7
			7:[mm_kin_sl3d<11.0351505] yes=15,no=16,missing=15
				15:[mm_kin_sl3d<6.92515469] yes=29,no=30,missing=29
					29:leaf=-0.0111083183
					30:leaf=-0.000225012918
				16:[mm_kin_sl3d<20.1730633] yes=31,no=32,missing=31
					31:leaf=0.0100221252
					32:leaf=0.0162966438
			8:[mm_kin_sl3d<21.9603634] yes=17,no=18,missing=17
				17:[mm_kin_spvip<2.51556039] yes=33,no=34,missing=33
					33:leaf=-0.0113925887
					34:leaf=-0.0164164938
				18:[mm_kin_spvip<3.96871901] yes=35,no=36,missing=35
					35:leaf=0.0123167299
					36:leaf=-0.0160985868
		4:[mm_kin_spvip<3.15116596] yes=9,no=10,missing=9
			9:[mm_kin_sl3d<6.84220982] yes=19,no=20,missing=19
				19:[mm_iso<0.811114311] yes=37,no=38,missing=37
					37:leaf=-0.00261478988
					38:leaf=0.0115708159
				20:[mm_kin_sl3d<10.6122942] yes=39,no=40,missing=39
					39:leaf=0.014296012
					40:leaf=0.0166839659
			10:[mm_iso<0.904247224] yes=21,no=22,missing=21
				21:[mm_kin_spvip<3.84110141] yes=41,no=42,missing=41
					41:leaf=-0.00536570698
					42:leaf=-0.0144453105
				22:[mm_kin_spvip<5.8219552] yes=43,no=44,missing=43
					43:leaf=0.00695302105
					44:leaf=-0.0114146695
	2:[mm_kin_alphaBS<0.115831845] yes=5,no=6,missing=5
		5:[mm_iso<0.830821216] yes=11,no=12,missing=11
			11:[mm_kin_spvip<2.20628357] yes=23,no=24,missing=23
				23:[mm_iso<0.726019502] yes=45,no=46,missing=45
					45:leaf=-0.0119779762
					46:leaf=-0
				24:[mm_m1iso<0.777537048] yes=47,no=48,missing=47
					47:leaf=-0.0165403634
					48:leaf=-0.0129541392
			12:[mm_kin_spvip<3.08727765] yes=25,no=26,missing=25
				25:[mm_kin_spvip<2.00165462] yes=49,no=50,missing=49
					49:leaf=0.0111843226
					50:leaf=0.00354508962
				26:[mm_kin_spvip<4.14753962] yes=51,no=52,missing=51
					51:leaf=-0.00544287777
					52:leaf=-0.0150169367
		6:[mm_kin_alphaBS<0.182802856] yes=13,no=14,missing=13
			13:[mm_iso<0.884992361] yes=27,no=28,missing=27
				27:[mm_kin_spvip<2.03388524] yes=53,no=54,missing=53
					53:leaf=-0.0119643649
					54:leaf=-0.0165439658
				28:[mm_kin_spvip<3.31332254] yes=55,no=56,missing=55
					55:leaf=-5.30676916e-05
					56:leaf=-0.0143280262
			14:leaf=-0.0169654973
booster[20]:
0:[mm_kin_alphaBS<0.0557520874] yes=1,no=2,missing=1
	1:[mm_iso<0.697287083] yes=3,no=4,missing=3
		3:[mm_kin_spvip<2.13825822] yes=7,no=8,missing=7
			7:[mm_kin_sl3d<11.9705105] yes=15,no=16,missing=15
				15:[mm_kin_sl3d<7.18887186] yes=31,no=32,missing=31
					31:leaf=-0.0115477694
					32:leaf=-0.00074070663
				16:[mm_kin_sl3d<20.1730633] yes=33,no=34,missing=33
					33:leaf=0.00950215477
					34:leaf=0.0161010493
			8:[mm_kin_sl3d<23.6538982] yes=17,no=18,missing=17
				17:[mm_kin_spvip<2.65640235] yes=35,no=36,missing=35
					35:leaf=-0.0125289494
					36:leaf=-0.0163823757
				18:[mm_kin_spvip<4.02907038] yes=37,no=38,missing=37
					37:leaf=0.0114633963
					38:leaf=-0.0158927739
		4:[mm_kin_spvip<3.47185779] yes=9,no=10,missing=9
			9:[mm_kin_sl3d<6.96620798] yes=19,no=20,missing=19
				19:[mm_iso<0.821870625] yes=39,no=40,missing=39
					39:leaf=-0.00174687535
					40:leaf=0.0116491318
				20:[mm_kin_spvip<2.72482848] yes=41,no=42,missing=41
					41:leaf=0.0163271539
					42:leaf=0.0113068828
			10:[mm_otherVtxMaxProb2<0.247476265] yes=21,no=22,missing=21
				21:[mm_iso<0.893907726] yes=43,no=44,missing=43
					43:leaf=-0.00166222779
					44:leaf=0.0123471208
				22:[mm_kin_spvip<5.28807116] yes=45,no=46,missing=45
					45:leaf=-0.00517782988
					46:leaf=-0.014804842
	2:[mm_kin_alphaBS<0.102623425] yes=5,no=6,missing=5
		5:[mm_iso<0.800466657] yes=11,no=12,missing=11
			11:[mm_kin_spvip<2.10527539] yes=23,no=24,missing=23
				23:[mm_m1iso<0.744674563] yes=47,no=48,missing=47
					47:leaf=-0.0114596849
					48:leaf=-0
				24:[mm_kin_spvip<2.95806575] yes=49,no=50,missing=49
					49:leaf=-0.0136282584
					50:leaf=-0.0165808313
			12:[mm_kin_spvip<2.95806575] yes=25,no=26,missing=25
				25:[mm_iso<0.905952334] yes=51,no=52,missing=51
					51:leaf=0.00456290692
					52:leaf=0.0118334517
				26:[mm_kin_alpha<0.150801823] yes=53,no=54,missing=53
					53:leaf=-0.0118471663
					54:leaf=-0
		6:[mm_kin_alphaBS<0.147997409] yes=13,no=14,missing=13
			13:[mm_iso<0.884992361] yes=27,no=28,missing=27
				27:[mm_kin_spvip<2.03388524] yes=55,no=56,missing=55
					55:leaf=-0.0104424581
					56:leaf=-0.0162099376
				28:[mm_kin_spvip<2.48190403] yes=57,no=58,missing=57
					57:leaf=0.00580719439
					58:leaf=-0.00871626474
			14:[mm_kin_alphaBS<0.221017033] yes=29,no=30,missing=29
				29:[mm_iso<0.962150335] yes=59,no=60,missing=59
					59:leaf=-0.016281493
					60:leaf=-0.00833124481
				30:leaf=-0.0168819614
booster[21]:
0:[mm_kin_alphaBS<0.0557520874] yes=1,no=2,missing=1
	1:[mm_iso<0.730337739] yes=3,no=4,missing=3
		3:[mm_kin_spvip<1.93907797] yes=7,no=8,missing=7
			7:[mm_kin_sl3d<9.62912369] yes=15,no=16,missing=15
				15:[mm_iso<0.610076785] yes=31,no=32,missing=31
					31:leaf=-0.0118240174
					32:leaf=-0.00165915617
				16:[mm_kin_sl3d<15.3529453] yes=33,no=34,missing=33
					33:leaf=0.00688582286
					34:leaf=0.0152942594
			8:[mm_kin_sl3d<19.3814659] yes=17,no=18,missing=17
				17:[mm_kin_spvip<2.69040585] yes=35,no=36,missing=35
					35:leaf=-0.0116183143
					36:leaf=-0.0162587613
				18:[mm_kin_spvip<3.31332254] yes=37,no=38,missing=37
					37:leaf=0.0116267949
					38:leaf=-0.0148844728
		4:[mm_kin_spvip<3.65593815] yes=9,no=10,missing=9
			9:[mm_kin_sl3d<6.14545441] yes=19,no=20,missing=19
				19:[mm_m1iso<0.830924273] yes=39,no=40,missing=39
					39:leaf=-0.000524907897
					40:leaf=0.0112010557
				20:[mm_kin_spvip<2.65640235] yes=41,no=42,missing=41
					41:leaf=0.016179692
					42:leaf=0.011009221
			10:[mm_otherVtxMaxProb2<0.264398307] yes=21,no=22,missing=21
				21:[mm_m1iso<0.79391098] yes=43,no=44,missing=43
					43:leaf=-0.00647826539
					44:leaf=0.0103807133
				22:[mm_kin_spvip<5.32648563] yes=45,no=46,missing=45
					45:leaf=-0.00497220969
					46:leaf=-0.0142637193
	2:[mm_kin_alphaBS<0.102623425] yes=5,no=6,missing=5
		5:[mm_iso<0.813233912] yes=11,no=12,missing=11
			11:[mm_kin_spvip<2.00165462] yes=23,no=24,missing=23
				23:[mm_iso<0.645279646] yes=47,no=48,missing=47
					47:leaf=-0.0126446197
					48:leaf=-0.00155594246
				24:[mm_kin_spvip<2.92525077] yes=49,no=50,missing=49
					49:leaf=-0.0131714623
					50:leaf=-0.016457364
			12:[mm_kin_spvip<3.12002087] yes=25,no=26,missing=25
				25:[mm_kin_vtx_chi2dof<2.29684019] yes=51,no=52,missing=51
					51:leaf=0.0102935452
					52:leaf=0.000296426675
				26:[mm_kin_spvip<4.26629925] yes=53,no=54,missing=53
					53:leaf=-0.00482750731
					54:leaf=-0.0149489855
		6:[mm_kin_alphaBS<0.147997409] yes=13,no=14,missing=13
			13:[mm_iso<0.884992361] yes=27,no=28,missing=27
				27:[mm_kin_spvip<2.3086133] yes=55,no=56,missing=55
					55:leaf=-0.011205201
					56:leaf=-0.0163305905
				28:[mm_kin_spvip<2.37692475] yes=57,no=58,missing=57
					57:leaf=0.0059010624
					58:leaf=-0.00823193323
			14:[mm_kin_alphaBS<0.193379447] yes=29,no=30,missing=29
				29:[mm_iso<0.916403055] yes=59,no=60,missing=59
					59:leaf=-0.0160697103
					60:leaf=-0.00825792924
				30:leaf=-0.0167431813
booster[22]:
0:[mm_kin_alphaBS<0.0639338717] yes=1,no=2,missing=1
	1:[mm_iso<0.730337739] yes=3,no=4,missing=3
		3:[mm_kin_spvip<2.13825822] yes=7,no=8,missing=7
			7:[mm_kin_sl3d<10.4181271] yes=15,no=16,missing=15
				15:[mm_m1iso<0.582894862] yes=29,no=30,missing=29
					29:leaf=-0.0120113371
					30:leaf=-0.00171938178
				16:[mm_kin_sl3d<16.5774212] yes=31,no=32,missing=31
					31:leaf=0.00740566663
					32:leaf=0.0154161816
			8:[mm_kin_sl3d<23.6538982] yes=17,no=18,missing=17
				17:[mm_kin_spvip<2.75790477] yes=33,no=34,missing=33
					33:leaf=-0.0121589219
					34:leaf=-0.0161830429
				18:[mm_kin_spvip<3.90727901] yes=35,no=36,missing=35
					35:leaf=0.0113061797
					36:leaf=-0.0153346704
		4:[mm_kin_spvip<3.05593443] yes=9,no=10,missing=9
			9:[mm_kin_sl3d<6.38831663] yes=19,no=20,missing=19
				19:[mm_m1iso<0.805303216] yes=37,no=38,missing=37
					37:leaf=-0.000149362488
					38:leaf=0.0113973338
				20:[mm_nBMTrks<2] yes=39,no=40,missing=39
					39:leaf=0.016294403
					40:leaf=0.0135640539
			10:[mm_kin_spvip<4.63590527] yes=21,no=22,missing=21
				21:[mm_nBMTrks<2] yes=41,no=42,missing=41
					41:leaf=0.00828486029
					42:leaf=-0.00723317312
				22:[mm_otherVtxMaxProb2<0.139451474] yes=43,no=44,missing=43
					43:leaf=0.00460210023
					44:leaf=-0.0130255911
	2:[mm_kin_alphaBS<0.124593996] yes=5,no=6,missing=5
		5:[mm_iso<0.835237145] yes=11,no=12,missing=11
			11:[mm_kin_spvip<1.87623918] yes=23,no=24,missing=23
				23:[mm_iso<0.69288075] yes=45,no=46,missing=45
					45:leaf=-0.0122783678
					46:leaf=-8.80380685e-05
				24:[mm_kin_spvip<2.85778856] yes=47,no=48,missing=47
					47:leaf=-0.0132259438
					48:leaf=-0.016354803
			12:[mm_kin_spvip<2.55005264] yes=25,no=26,missing=25
				25:[mm_iso<0.936221898] yes=49,no=50,missing=49
					49:leaf=0.00529375765
					50:leaf=0.0116373068
				26:[mm_kin_spvip<3.77910781] yes=51,no=52,missing=51
					51:leaf=-0.00215762877
					52:leaf=-0.0136808669
		6:[mm_kin_alphaBS<0.182802856] yes=13,no=14,missing=13
			13:[mm_iso<0.904247224] yes=27,no=28,missing=27
				27:[mm_kin_spvip<2.65640235] yes=53,no=54,missing=53
					53:leaf=-0.0129612535
					54:leaf=-0.0164361112
				28:[mm_kin_spvip<3.34459043] yes=55,no=56,missing=55
					55:leaf=-0
					56:leaf=-0.0141257057
			14:leaf=-0.0166167207
booster[23]:
0:[mm_kin_alphaBS<0.061026331] yes=1,no=2,missing=1
	1:[mm_iso<0.728193104] yes=3,no=4,missing=3
		3:[mm_kin_spvip<2.03388524] yes=7,no=8,missing=7
			7:[mm_kin_sl3d<9.39546204] yes=15,no=16,missing=15
				15:[mm_iso<0.610076785] yes=31,no=32,missing=31
					31:leaf=-0.0119010992
					32:leaf=-0.00242314232
				16:[mm_kin_sl3d<14.7089968] yes=33,no=34,missing=33
					33:leaf=0.0060063526
					34:leaf=0.014989092
			8:[mm_kin_sl3d<18.6678715] yes=17,no=18,missing=17
				17:[mm_kin_spvip<2.75790477] yes=35,no=36,missing=35
					35:leaf=-0.0125080692
					36:leaf=-0.0161144249
				18:[mm_kin_spvip<3.15116596] yes=37,no=38,missing=37
					37:leaf=0.0113351811
					38:leaf=-0.0149535351
		4:[mm_kin_spvip<3.05593443] yes=9,no=10,missing=9
			9:[mm_kin_sl3d<6.38831663] yes=19,no=20,missing=19
				19:[mm_m1iso<0.802990615] yes=39,no=40,missing=39
					39:leaf=-0.000392412912
					40:leaf=0.0110894181
				20:[mm_kin_sl3d<10.3202639] yes=41,no=42,missing=41
					41:leaf=0.0139829349
					42:leaf=0.0162602868
			10:[mm_iso<0.881234467] yes=21,no=22,missing=21
				21:[mm_otherVtxMaxProb2<0.401624262] yes=43,no=44,missing=43
					43:leaf=-0.000472407788
					44:leaf=-0.0130285928
				22:[mm_kin_spvip<5.32648563] yes=45,no=46,missing=45
					45:leaf=0.00699998112
					46:leaf=-0.010605745
	2:[mm_kin_alphaBS<0.111569464] yes=5,no=6,missing=5
		5:[mm_iso<0.833028078] yes=11,no=12,missing=11
			11:[mm_kin_spvip<2.20628357] yes=23,no=24,missing=23
				23:[mm_iso<0.708476126] yes=47,no=48,missing=47
					47:leaf=-0.012079481
					48:leaf=-0.000492790656
				24:[mm_iso<0.746001482] yes=49,no=50,missing=49
					49:leaf=-0.0161167216
					50:leaf=-0.0126220006
			12:[mm_kin_spvip<2.75790477] yes=25,no=26,missing=25
				25:[mm_kin_sl3d<5.15273523] yes=51,no=52,missing=51
					51:leaf=0.00371673959
					52:leaf=0.0111335041
				26:[mm_kin_spvip<4.14753962] yes=53,no=54,missing=53
					53:leaf=-0.00260572368
					54:leaf=-0.0143985627
		6:[mm_kin_alphaBS<0.162697926] yes=13,no=14,missing=13
			13:[mm_iso<0.884992361] yes=27,no=28,missing=27
				27:[mm_kin_spvip<2.13825822] yes=55,no=56,missing=55
					55:leaf=-0.01107876
					56:leaf=-0.0161040332
				28:[mm_kin_spvip<3.15116596] yes=57,no=58,missing=57
					57:leaf=0.00212777522
					58:leaf=-0.0126396995
			14:[mm_kin_alphaBS<0.243656814] yes=29,no=30,missing=29
				29:[mm_iso<0.962150335] yes=59,no=60,missing=59
					59:leaf=-0.0160854198
					60:leaf=-0.00986102223
				30:leaf=-0.0165533591
booster[24]:
0:[mm_kin_alphaBS<0.0639338717] yes=1,no=2,missing=1
	1:[mm_iso<0.734780729] yes=3,no=4,missing=3
		3:[mm_kin_spvip<1.9081862] yes=7,no=8,missing=7
			7:[mm_kin_sl3d<10.6122942] yes=15,no=16,missing=15
				15:[mm_iso<0.614920795] yes=29,no=30,missing=29
					29:leaf=-0.0108298212
					30:leaf=-0
				16:[mm_iso<0.527703702] yes=31,no=32,missing=31
					31:leaf=0.00527283084
					32:leaf=0.0145113785
			8:[mm_otherVtxMaxProb2<0.374318957] yes=17,no=18,missing=17
				17:[mm_kin_pvip<0.0140614705] yes=33,no=34,missing=33
					33:leaf=0.00809788704
					34:leaf=-0.0122545371
				18:[mm_kin_spvip<2.51556039] yes=35,no=36,missing=35
					35:leaf=-0.00923881307
					36:leaf=-0.0155574139
		4:[mm_kin_spvip<3.47185779] yes=9,no=10,missing=9
			9:[mm_kin_sl3d<6.3133316] yes=19,no=20,missing=19
				19:[mm_iso<0.867623568] yes=37,no=38,missing=37
					37:leaf=0.000493840431
					38:leaf=0.0111642526
				20:[mm_kin_spvip<2.24100542] yes=39,no=40,missing=39
					39:leaf=0.0159410723
					40:leaf=0.0124679767
			10:[mm_otherVtxMaxProb2<0.264398307] yes=21,no=22,missing=21
				21:[mm_iso<0.895608068] yes=41,no=42,missing=41
					41:leaf=-0.00190252939
					42:leaf=0.0116215302
				22:[mm_kin_spvip<4.20754385] yes=43,no=44,missing=43
					43:leaf=-0.00110601191
					44:leaf=-0.0122223468
	2:[mm_kin_alphaBS<0.124593996] yes=5,no=6,missing=5
		5:[mm_iso<0.833028078] yes=11,no=12,missing=11
			11:[mm_kin_spvip<2.20628357] yes=23,no=24,missing=23
				23:[mm_iso<0.715072751] yes=45,no=46,missing=45
					45:leaf=-0.0122643448
					46:leaf=-0.0013449667
				24:[mm_kin_spvip<3.18386579] yes=47,no=48,missing=47
					47:leaf=-0.0138135655
					48:leaf=-0.0163140297
			12:[mm_kin_spvip<2.51556039] yes=25,no=26,missing=25
				25:[mm_kin_vtx_chi2dof<1.42753148] yes=49,no=50,missing=49
					49:leaf=0.0107064722
					50:leaf=0.00329642463
				26:[mm_kin_spvip<3.68668199] yes=51,no=52,missing=51
					51:leaf=-0.00178914005
					52:leaf=-0.0131034171
		6:[mm_kin_alphaBS<0.182802856] yes=13,no=14,missing=13
			13:[mm_iso<0.904247224] yes=27,no=28,missing=27
				27:[mm_kin_spvip<2.3086133] yes=53,no=54,missing=53
					53:leaf=-0.0119011747
					54:leaf=-0.0161036421
				28:[mm_kin_spvip<3.31332254] yes=55,no=56,missing=55
					55:leaf=-0
					56:leaf=-0.0140112443
			14:leaf=-0.016400395
booster[25]:
0:[mm_kin_alphaBS<0.0583484992] yes=1,no=2,missing=1
	1:[mm_iso<0.734780729] yes=3,no=4,missing=3
		3:[mm_kin_spvip<2.03388524] yes=7,no=8,missing=7
			7:[mm_kin_sl3d<9.62912369] yes=15,no=16,missing=15
				15:[mm_m1iso<0.653358996] yes=31,no=32,missing=31
					31:leaf=-0.0102699306
					32:leaf=-0
				16:[mm_kin_sl3d<14.7089968] yes=33,no=34,missing=33
					33:leaf=0.00604194915
					34:leaf=0.014832247
			8:[mm_kin_sl3d<19.0122089] yes=17,no=18,missing=17
				17:[mm_kin_spvip<2.72482848] yes=35,no=36,missing=35
					35:leaf=-0.0116082765
					36:leaf=-0.0159028973
				18:[mm_kin_spvip<3.34459043] yes=37,no=38,missing=37
					37:leaf=0.0112368232
					38:leaf=-0.0147257419
		4:[mm_kin_spvip<3.15116596] yes=9,no=10,missing=9
			9:[mm_kin_sl3d<6.04915857] yes=19,no=20,missing=19
				19:[mm_iso<0.873643339] yes=39,no=40,missing=39
					39:leaf=0.00107451947
					40:leaf=0.0112532089
				20:[mm_kin_sl3d<9.32106686] yes=41,no=42,missing=41
					41:leaf=0.0133143645
					42:leaf=0.0159855373
			10:[mm_kin_spvip<4.63590527] yes=21,no=22,missing=21
				21:[mm_nBMTrks<2] yes=43,no=44,missing=43
					43:leaf=0.00849200692
					44:leaf=-0.00714832032
				22:[mm_otherVtxMaxProb2<0.247476265] yes=45,no=46,missing=45
					45:leaf=0.0038724842
					46:leaf=-0.012876967
	2:[mm_kin_alphaBS<0.106762871] yes=5,no=6,missing=5
		5:[mm_iso<0.802558959] yes=11,no=12,missing=11
			11:[mm_kin_spvip<2.20628357] yes=23,no=24,missing=23
				23:[mm_iso<0.645279646] yes=47,no=48,missing=47
					47:leaf=-0.0128607005
					48:leaf=-0.00307036447
				24:[mm_kin_spvip<2.95806575] yes=49,no=50,missing=49
					49:leaf=-0.0135075338
					50:leaf=-0.0160810482
			12:[mm_kin_spvip<2.92525077] yes=25,no=26,missing=25
				25:[mm_m1iso<0.865312159] yes=51,no=52,missing=51
					51:leaf=0.00297414255
					52:leaf=0.010695802
				26:[mm_kin_spvip<4.14753962] yes=53,no=54,missing=53
					53:leaf=-0.00451526931
					54:leaf=-0.0142734228
		6:[mm_kin_alphaBS<0.157796144] yes=13,no=14,missing=13
			13:[mm_iso<0.933555901] yes=27,no=28,missing=27
				27:[mm_iso<0.794091046] yes=55,no=56,missing=55
					55:leaf=-0.0156180644
					56:leaf=-0.00990524422
				28:[mm_kin_spvip<3.50181007] yes=57,no=58,missing=57
					57:leaf=0.00398290716
					58:leaf=-0.0115209054
			14:[mm_kin_alphaBS<0.221017033] yes=29,no=30,missing=29
				29:[mm_iso<0.962150335] yes=59,no=60,missing=59
					59:leaf=-0.0157319847
					60:leaf=-0.00833478943
				30:leaf=-0.0163290203
booster[26]:
0:[mm_kin_alphaBS<0.0557520874] yes=1,no=2,missing=1
	1:[mm_iso<0.695114315] yes=3,no=4,missing=3
		3:[mm_kin_spvip<2.13825822] yes=7,no=8,missing=7
			7:[mm_kin_sl3d<12.510004] yes=15,no=16,missing=15
				15:[mm_kin_sl3d<6.92515469] yes=31,no=32,missing=31
					31:leaf=-0.0114104217
					32:leaf=-0.00110617978
				16:[mm_kin_sl3d<20.1730633] yes=33,no=34,missing=33
					33:leaf=0.00919051468
					34:leaf=0.0153899631
			8:[mm_otherVtxMaxProb2<0.212112203] yes=17,no=18,missing=17
				17:[mm_kin_sl3d<17.7055168] yes=35,no=36,missing=35
					35:leaf=-0.00871845055
					36:leaf=0.00918177981
				18:[mm_kin_spvip<2.75790477] yes=37,no=38,missing=37
					37:leaf=-0.0108510265
					38:leaf=-0.0156298857
		4:[mm_kin_spvip<3.05593443] yes=9,no=10,missing=9
			9:[mm_kin_sl3d<6.27940178] yes=19,no=20,missing=19
				19:[mm_iso<0.821870625] yes=39,no=40,missing=39
					39:leaf=-0.00245415489
					40:leaf=0.0107632373
				20:[mm_nBMTrks<2] yes=41,no=42,missing=41
					41:leaf=0.0158509426
					42:leaf=0.0129649993
			10:[mm_iso<0.904247224] yes=21,no=22,missing=21
				21:[mm_kin_spvip<4.02907038] yes=43,no=44,missing=43
					43:leaf=-0.00543358782
					44:leaf=-0.0139992032
				22:[mm_kin_spvip<5.36633396] yes=45,no=46,missing=45
					45:leaf=0.00831828173
					46:leaf=-0.00976816658
	2:[mm_kin_alphaBS<0.111569464] yes=5,no=6,missing=5
		5:[mm_iso<0.81970185] yes=11,no=12,missing=11
			11:[mm_kin_spvip<1.97074878] yes=23,no=24,missing=23
				23:[mm_iso<0.670452952] yes=47,no=48,missing=47
					47:leaf=-0.0118174143
					48:leaf=-0.000862197543
				24:[mm_kin_spvip<2.72482848] yes=49,no=50,missing=49
					49:leaf=-0.0124537786
					50:leaf=-0.0157607086
			12:[mm_kin_spvip<2.92525077] yes=25,no=26,missing=25
				25:[mm_kin_sl3d<5.12818146] yes=51,no=52,missing=51
					51:leaf=0.00296014128
					52:leaf=0.010708129
				26:[mm_kin_spvip<4.29560852] yes=53,no=54,missing=53
					53:leaf=-0.00422065565
					54:leaf=-0.0143787647
		6:[mm_kin_alphaBS<0.167690292] yes=13,no=14,missing=13
			13:[mm_iso<0.871609211] yes=27,no=28,missing=27
				27:[mm_kin_spvip<1.9081862] yes=55,no=56,missing=55
					55:leaf=-0.0105877956
					56:leaf=-0.0157233588
				28:[mm_kin_spvip<2.61841655] yes=57,no=58,missing=57
					57:leaf=0.00306353602
					58:leaf=-0.0103911096
			14:[mm_kin_alphaBS<0.261544049] yes=29,no=30,missing=29
				29:[mm_iso<0.962150335] yes=59,no=60,missing=59
					59:leaf=-0.0158219691
					60:leaf=-0.0106060654
				30:leaf=-0.0162441805
booster[27]:
0:[mm_kin_alphaBS<0.0639338717] yes=1,no=2,missing=1
	1:[mm_iso<0.730337739] yes=3,no=4,missing=3
		3:[mm_kin_spvip<1.93907797] yes=7,no=8,missing=7
			7:[mm_kin_sl3d<9.9599123] yes=15,no=16,missing=15
				15:[mm_m1iso<0.606193602] yes=29,no=30,missing=29
					29:leaf=-0.0106778238
					30:leaf=-0.000341593695
				16:[mm_iso<0.513701558] yes=31,no=32,missing=31
					31:leaf=0.00329834572
					32:leaf=0.0137669966
			8:[mm_kin_sl3d<19.0122089] yes=17,no=18,missing=17
				17:[mm_kin_spvip<2.75790477] yes=33,no=34,missing=33
					33:leaf=-0.0116834044
					34:leaf=-0.0156706683
				18:[mm_kin_spvip<3.24655962] yes=35,no=36,missing=35
					35:leaf=0.0113503169
					36:leaf=-0.0143036228
		4:[mm_kin_spvip<3.15116596] yes=9,no=10,missing=9
			9:[mm_kin_sl3d<5.80169249] yes=19,no=20,missing=19
				19:[mm_iso<0.893907726] yes=37,no=38,missing=37
					37:leaf=0.00106829696
					38:leaf=0.0111774309
				20:[mm_kin_sl3d<9.39546204] yes=39,no=40,missing=39
					39:leaf=0.0128736431
					40:leaf=0.0157658327
			10:[mm_otherVtxMaxProb2<0.560984254] yes=21,no=22,missing=21
				21:[mm_kin_spvip<4.89509726] yes=41,no=42,missing=41
					41:leaf=0.010409453
					42:leaf=-0.00403561303
				22:[mm_kin_spvip<3.87622333] yes=43,no=44,missing=43
					43:leaf=-0.000821632333
					44:leaf=-0.0119099896
	2:[mm_kin_alphaBS<0.124593996] yes=5,no=6,missing=5
		5:[mm_iso<0.839579403] yes=11,no=12,missing=11
			11:[mm_kin_spvip<2.20628357] yes=23,no=24,missing=23
				23:[mm_iso<0.703830898] yes=45,no=46,missing=45
					45:leaf=-0.01241876
					46:leaf=-0.00156846037
				24:[mm_kin_spvip<2.95806575] yes=47,no=48,missing=47
					47:leaf=-0.0130581697
					48:leaf=-0.0158569794
			12:[mm_kin_spvip<2.92525077] yes=25,no=26,missing=25
				25:[mm_kin_spvip<1.75550544] yes=49,no=50,missing=49
					49:leaf=0.0109735522
					50:leaf=0.00403998466
				26:[mm_kin_spvip<4.02907038] yes=51,no=52,missing=51
					51:leaf=-0.0038506554
					52:leaf=-0.0141301509
		6:[mm_kin_alphaBS<0.182802856] yes=13,no=14,missing=13
			13:[mm_iso<0.936221898] yes=27,no=28,missing=27
				27:[mm_kin_spvip<2.69040585] yes=53,no=54,missing=53
					53:leaf=-0.0120847225
					54:leaf=-0.0159023385
				28:[mm_kin_spvip<3.50181007] yes=55,no=56,missing=55
					55:leaf=0.00105157646
					56:leaf=-0.0136006782
			14:leaf=-0.0160911418
booster[28]:
0:[mm_kin_alphaBS<0.0557520874] yes=1,no=2,missing=1
	1:[mm_iso<0.695114315] yes=3,no=4,missing=3
		3:[mm_kin_spvip<1.7850951] yes=7,no=8,missing=7
			7:[mm_kin_sl3d<8.95541286] yes=15,no=16,missing=15
				15:[mm_m1iso<0.590557873] yes=31,no=32,missing=31
					31:leaf=-0.0113925915
					32:leaf=-0.0022885052
				16:[mm_kin_sl3d<14.9182892] yes=33,no=34,missing=33
					33:leaf=0.00542125572
					34:leaf=0.0142778028
			8:[mm_kin_sl3d<18.6678715] yes=17,no=18,missing=17
				17:[mm_kin_spvip<2.37692475] yes=35,no=36,missing=35
					35:leaf=-0.0110245449
					36:leaf=-0.0154051883
				18:[mm_kin_spvip<3.59366798] yes=37,no=38,missing=37
					37:leaf=0.0100463638
					38:leaf=-0.014727666
		4:[mm_kin_spvip<3.05593443] yes=9,no=10,missing=9
			9:[mm_kin_sl3d<6.80214119] yes=19,no=20,missing=19
				19:[mm_iso<0.865583837] yes=39,no=40,missing=39
					39:leaf=0.000817280845
					40:leaf=0.0121550653
				20:[mm_kin_sl3d<10.7221851] yes=41,no=42,missing=41
					41:leaf=0.0134176034
					42:leaf=0.0157493167
			10:[mm_iso<0.856914341] yes=21,no=22,missing=21
				21:[mm_kin_sl3d<16.5774212] yes=43,no=44,missing=43
					43:leaf=-0.0142719289
					44:leaf=-0.00547160441
				22:[mm_kin_spvip<4.86245728] yes=45,no=46,missing=45
					45:leaf=0.00681503816
					46:leaf=-0.0091478182
	2:[mm_kin_alphaBS<0.0985341594] yes=5,no=6,missing=5
		5:[mm_iso<0.796190858] yes=11,no=12,missing=11
			11:[mm_kin_spvip<2.00165462] yes=23,no=24,missing=23
				23:[mm_m1iso<0.670275509] yes=47,no=48,missing=47
					47:leaf=-0.0113077313
					48:leaf=-0.000131678215
				24:[mm_kin_spvip<2.95806575] yes=49,no=50,missing=49
					49:leaf=-0.0126921125
					50:leaf=-0.0158035997
			12:[mm_kin_spvip<3.02302146] yes=25,no=26,missing=25
				25:[mm_iso<0.899171054] yes=51,no=52,missing=51
					51:leaf=0.00371655496
					52:leaf=0.011000176
				26:[mm_kin_spvip<3.77910781] yes=53,no=54,missing=53
					53:leaf=-0.0025972547
					54:leaf=-0.0127840899
		6:[mm_kin_alphaBS<0.147997409] yes=13,no=14,missing=13
			13:[mm_iso<0.830821216] yes=27,no=28,missing=27
				27:[mm_kin_spvip<1.97074878] yes=55,no=56,missing=55
					55:leaf=-0.0109336386
					56:leaf=-0.0155761521
				28:[mm_kin_spvip<2.48190403] yes=57,no=58,missing=57
					57:leaf=0.00403778441
					58:leaf=-0.00978768989
			14:[mm_kin_alphaBS<0.204527333] yes=29,no=30,missing=29
				29:[mm_iso<0.920127332] yes=59,no=60,missing=59
					59:leaf=-0.015363236
					60:leaf=-0.00796600152
				30:leaf=-0.0160135273
booster[29]:
0:[mm_kin_alphaBS<0.0583484992] yes=1,no=2,missing=1
	1:[mm_iso<0.730337739] yes=3,no=4,missing=3
		3:[mm_kin_spvip<1.84527719] yes=7,no=8,missing=7
			7:[mm_kin_sl3d<10.5129251] yes=15,no=16,missing=15
				15:[mm_iso<0.610076785] yes=31,no=32,missing=31
					31:leaf=-0.0103488108
					32:leaf=0.000191910352
				16:[mm_kin_sl3d<14.9182892] yes=33,no=34,missing=33
					33:leaf=0.00717459386
					34:leaf=0.0146140484
			8:[mm_kin_sl3d<19.0122089] yes=17,no=18,missing=17
				17:[mm_kin_spvip<2.65640235] yes=35,no=36,missing=35
					35:leaf=-0.0108474512
					36:leaf=-0.0154672861
				18:[mm_kin_spvip<3.31332254] yes=37,no=38,missing=37
					37:leaf=0.0116006238
					38:leaf=-0.0140334135
		4:[mm_kin_spvip<3.47185779] yes=9,no=10,missing=9
			9:[mm_kin_sl3d<6.14545441] yes=19,no=20,missing=19
				19:[mm_iso<0.871609211] yes=39,no=40,missing=39
					39:leaf=-0
					40:leaf=0.0107096815
				20:[mm_kin_spvip<2.34295011] yes=41,no=42,missing=41
					41:leaf=0.0154232336
					42:leaf=0.0115914065
			10:[mm_otherVtxMaxProb2<0.264398307] yes=21,no=22,missing=21
				21:[mm_iso<0.893907726] yes=43,no=44,missing=43
					43:leaf=-0.00192557438
					44:leaf=0.011502658
				22:[mm_kin_spvip<4.6043582] yes=45,no=46,missing=45
					45:leaf=-0.002559277
					46:leaf=-0.0127346022
	2:[mm_kin_alphaBS<0.115831845] yes=5,no=6,missing=5
		5:[mm_iso<0.859116435] yes=11,no=12,missing=11
			11:[mm_kin_spvip<2.13825822] yes=23,no=24,missing=23
				23:[mm_m1iso<0.682700396] yes=47,no=48,missing=47
					47:leaf=-0.0117247254
					48:leaf=-0
				24:[mm_kin_spvip<2.95806575] yes=49,no=50,missing=49
					49:leaf=-0.0123720402
					50:leaf=-0.0156141445
			12:[mm_kin_spvip<3.28220081] yes=25,no=26,missing=25
				25:[mm_kin_vtx_chi2dof<2.08659005] yes=51,no=52,missing=51
					51:leaf=0.0100109167
					52:leaf=0.00141553232
				26:[mm_kin_spvip<4.14753962] yes=53,no=54,missing=53
					53:leaf=-0.00327025889
					54:leaf=-0.0134806009
		6:[mm_kin_alphaBS<0.177797765] yes=13,no=14,missing=13
			13:[mm_iso<0.881234467] yes=27,no=28,missing=27
				27:[mm_kin_spvip<2.3086133] yes=55,no=56,missing=55
					55:leaf=-0.0120255472
					56:leaf=-0.0156065244
				28:[mm_kin_spvip<2.85778856] yes=57,no=58,missing=57
					57:leaf=0.00157486123
					58:leaf=-0.0116081238
			14:[mm_kin_alphaBS<0.261544049] yes=29,no=30,missing=29
				29:[mm_iso<0.962150335] yes=59,no=60,missing=59
					59:leaf=-0.0155875916
					60:leaf=-0.0107856188
				30:leaf=-0.0159463398
booster[30]:
0:[mm_kin_alphaBS<0.0557520874] yes=1,no=2,missing=1
	1:[mm_kin_spvip<2.85778856] yes=3,no=4,missing=3
		3:[mm_iso<0.649774015] yes=7,no=8,missing=7
			7:[mm_kin_sl3d<12.510004] yes=15,no=16,missing=15
				15:[mm_m1iso<0.655804396] yes=31,no=32,missing=31
					31:leaf=-0.0118449461
					32:leaf=-0.00215557101
				16:[mm_kin_alphaBS<0.0254297014] yes=33,no=34,missing=33
					33:leaf=0.0125021525
					34:leaf=0.000669846719
			8:[mm_kin_sl3d<6.96620798] yes=17,no=18,missing=17
				17:[mm_iso<0.802558959] yes=35,no=36,missing=35
					35:leaf=-0.00347860786
					36:leaf=0.0111520812
				18:[mm_nBMTrks<2] yes=37,no=38,missing=37
					37:leaf=0.0154851852
					38:leaf=0.012771165
		4:[mm_iso<0.85482347] yes=9,no=10,missing=9
			9:[mm_otherVtxMaxProb2<0.229621217] yes=19,no=20,missing=19
				19:[mm_kin_sl3d<21.0335159] yes=39,no=40,missing=39
					39:leaf=-0.00690914551
					40:leaf=0.00826650485
				20:[mm_iso<0.774280488] yes=41,no=42,missing=41
					41:leaf=-0.0151462574
					42:leaf=-0.0103097353
			10:[mm_kin_spvip<5.32648563] yes=21,no=22,missing=21
				21:[mm_nBMTrks<3] yes=43,no=44,missing=43
					43:leaf=0.0101824161
					44:leaf=-0.00491275592
				22:[mm_otherVtxMaxProb2<0.139451474] yes=45,no=46,missing=45
					45:leaf=0.007045398
					46:leaf=-0.012099172
	2:[mm_kin_alphaBS<0.106762871] yes=5,no=6,missing=5
		5:[mm_iso<0.815439403] yes=11,no=12,missing=11
			11:[mm_kin_spvip<2.10527539] yes=23,no=24,missing=23
				23:[mm_iso<0.645279646] yes=47,no=48,missing=47
					47:leaf=-0.0120174671
					48:leaf=-0.00168211618
				24:[mm_iso<0.748146296] yes=49,no=50,missing=49
					49:leaf=-0.0152903553
					50:leaf=-0.011152464
			12:[mm_kin_spvip<3.21512413] yes=25,no=26,missing=25
				25:[mm_kin_spvip<1.84527719] yes=51,no=52,missing=51
					51:leaf=0.0109126056
					52:leaf=0.00398527365
				26:[mm_kin_spvip<4.29560852] yes=53,no=54,missing=53
					53:leaf=-0.00544398418
					54:leaf=-0.0141494591
		6:[mm_kin_alphaBS<0.157796144] yes=13,no=14,missing=13
			13:[mm_iso<0.881234467] yes=27,no=28,missing=27
				27:[mm_kin_spvip<1.87623918] yes=55,no=56,missing=55
					55:leaf=-0.00984111987
					56:leaf=-0.0151921296
				28:[mm_kin_spvip<3.15116596] yes=57,no=58,missing=57
					57:leaf=0.00225275126
					58:leaf=-0.0119158151
			14:[mm_kin_alphaBS<0.221017033] yes=29,no=30,missing=29
				29:[mm_iso<0.884992361] yes=59,no=60,missing=59
					59:leaf=-0.0154242869
					60:leaf=-0.0100093884
				30:leaf=-0.0158318728
booster[31]:
0:[mm_kin_alphaBS<0.0639338717] yes=1,no=2,missing=1
	1:[mm_iso<0.734780729] yes=3,no=4,missing=3
		3:[mm_kin_spvip<2.03388524] yes=7,no=8,missing=7
			7:[mm_kin_sl3d<10.6122942] yes=15,no=16,missing=15
				15:[mm_iso<0.593230724] yes=29,no=30,missing=29
					29:leaf=-0.0111685516
					30:leaf=-0.00120167853
				16:[mm_iso<0.54434073] yes=31,no=32,missing=31
					31:leaf=0.00487772003
					32:leaf=0.0138656506
			8:[mm_kin_sl3d<23.6538982] yes=17,no=18,missing=17
				17:[mm_kin_spvip<2.69040585] yes=33,no=34,missing=33
					33:leaf=-0.0106136072
					34:leaf=-0.015224833
				18:[mm_kin_spvip<3.9382205] yes=35,no=36,missing=35
					35:leaf=0.0119780498
					36:leaf=-0.0146104367
		4:[mm_kin_spvip<3.05593443] yes=9,no=10,missing=9
			9:[mm_kin_sl3d<6.38831663] yes=19,no=20,missing=19
				19:[mm_m1iso<0.833269119] yes=37,no=38,missing=37
					37:leaf=0.00105421455
					38:leaf=0.0111266561
				20:[mm_kin_sl3d<10.0481319] yes=39,no=40,missing=39
					39:leaf=0.0130454525
					40:leaf=0.0154471649
			10:[mm_iso<0.916403055] yes=21,no=22,missing=21
				21:[mm_kin_spvip<3.99887252] yes=41,no=42,missing=41
					41:leaf=-0.00416178117
					42:leaf=-0.0134645719
				22:[mm_kin_pvip<0.0406553522] yes=43,no=44,missing=43
					43:leaf=0.00726501644
					44:leaf=-0.0111623034
	2:[mm_kin_alphaBS<0.124593996] yes=5,no=6,missing=5
		5:[mm_iso<0.859116435] yes=11,no=12,missing=11
			11:[mm_kin_spvip<2.2743063] yes=23,no=24,missing=23
				23:[mm_iso<0.715072751] yes=45,no=46,missing=45
					45:leaf=-0.0116411839
					46:leaf=-0.000314755685
				24:[mm_kin_spvip<3.15116596] yes=47,no=48,missing=47
					47:leaf=-0.0128567824
					48:leaf=-0.0155670485
			12:[mm_kin_spvip<2.51556039] yes=25,no=26,missing=25
				25:[mm_kin_vtx_chi2dof<1.38536716] yes=49,no=50,missing=49
					49:leaf=0.0107381316
					50:leaf=0.00373038976
				26:[mm_kin_spvip<3.68668199] yes=51,no=52,missing=51
					51:leaf=-0.000829902943
					52:leaf=-0.0116124963
		6:[mm_kin_alphaBS<0.182802856] yes=13,no=14,missing=13
			13:[mm_iso<0.850488245] yes=27,no=28,missing=27
				27:[mm_kin_spvip<1.93907797] yes=53,no=54,missing=53
					53:leaf=-0.0116600292
					54:leaf=-0.0154138915
				28:[mm_kin_spvip<3.02302146] yes=55,no=56,missing=55
					55:leaf=-0.000582137785
					56:leaf=-0.0129881017
			14:leaf=-0.0157095101
booster[32]:
0:[mm_kin_alphaBS<0.061026331] yes=1,no=2,missing=1
	1:[mm_iso<0.734780729] yes=3,no=4,missing=3
		3:[mm_kin_spvip<2.13825822] yes=7,no=8,missing=7
			7:[mm_kin_sl3d<8.95541286] yes=15,no=16,missing=15
				15:[mm_m1iso<0.655804396] yes=29,no=30,missing=29
					29:leaf=-0.0106249042
					30:leaf=-0.00103865343
				16:[mm_kin_sl3d<15.3529453] yes=31,no=32,missing=31
					31:leaf=0.00515768677
					32:leaf=0.0143729337
			8:[mm_kin_sl3d<23.6538982] yes=17,no=18,missing=17
				17:[mm_kin_spvip<2.92525077] yes=33,no=34,missing=33
					33:leaf=-0.0113658942
					34:leaf=-0.0152761526
				18:[mm_kin_spvip<4.05784988] yes=35,no=36,missing=35
					35:leaf=0.0116467224
					36:leaf=-0.0143960984
		4:[mm_kin_spvip<3.21512413] yes=9,no=10,missing=9
			9:[mm_kin_sl3d<5.86215925] yes=19,no=20,missing=19
				19:[mm_iso<0.893907726] yes=37,no=38,missing=37
					37:leaf=0.000879473169
					38:leaf=0.0108451983
				20:[mm_kin_sl3d<9.32106686] yes=39,no=40,missing=39
					39:leaf=0.0124554895
					40:leaf=0.0152947316
			10:[mm_otherVtxMaxProb2<0.534830272] yes=21,no=22,missing=21
				21:[mm_iso<0.877524614] yes=41,no=42,missing=41
					41:leaf=-0.00370917749
					42:leaf=0.00992556103
				22:[mm_kin_spvip<3.99887252] yes=43,no=44,missing=43
					43:leaf=-0.000731186301
					44:leaf=-0.0114212036
	2:[mm_kin_alphaBS<0.120102912] yes=5,no=6,missing=5
		5:[mm_iso<0.833028078] yes=11,no=12,missing=11
			11:[mm_kin_spvip<1.9081862] yes=23,no=24,missing=23
				23:[mm_iso<0.695114315] yes=45,no=46,missing=45
					45:leaf=-0.0109869251
					46:leaf=-0
				24:[mm_m1iso<0.744674563] yes=47,no=48,missing=47
					47:leaf=-0.0150570087
					48:leaf=-0.0111635095
			12:[mm_kin_spvip<3.12002087] yes=25,no=26,missing=25
				25:[mm_otherVtxMaxProb2<0.639686823] yes=49,no=50,missing=49
					49:leaf=0.0117304921
					50:leaf=0.00434597442
				26:[mm_kin_alpha<0.159723923] yes=51,no=52,missing=51
					51:leaf=-0.0116263162
					52:leaf=-0.000440594536
		6:[mm_kin_alphaBS<0.188091755] yes=13,no=14,missing=13
			13:[mm_iso<0.850488245] yes=27,no=28,missing=27
				27:[mm_kin_spvip<2.03388524] yes=53,no=54,missing=53
					53:leaf=-0.0117587997
					54:leaf=-0.0153575884
				28:[mm_kin_spvip<2.61841655] yes=55,no=56,missing=55
					55:leaf=0.00100080343
					56:leaf=-0.0116469795
			14:leaf=-0.0156253651
booster[33]:
0:[mm_kin_alphaBS<0.0557520874] yes=1,no=2,missing=1
	1:[mm_iso<0.703830898] yes=3,no=4,missing=3
		3:[mm_kin_spvip<1.84527719] yes=7,no=8,missing=7
			7:[mm_kin_sl3d<10.7221851] yes=15,no=16,missing=15
				15:[mm_kin_sl3d<6.92515469] yes=31,no=32,missing=31
					31:leaf=-0.00993209798
					32:leaf=-0
				16:[mm_m2iso<0.367957354] yes=33,no=34,missing=33
					33:leaf=0.0038662958
					34:leaf=0.0134872068
			8:[mm_kin_sl3d<18.6678715] yes=17,no=18,missing=17
				17:[mm_kin_spvip<2.51556039] yes=35,no=36,missing=35
					35:leaf=-0.0109586949
					36:leaf=-0.0150466664
				18:[mm_kin_spvip<3.44026494] yes=37,no=38,missing=37
					37:leaf=0.00934475567
					38:leaf=-0.0142213535
		4:[mm_kin_spvip<3.21512413] yes=9,no=10,missing=9
			9:[mm_kin_sl3d<6.96620798] yes=19,no=20,missing=19
				19:[mm_iso<0.85482347] yes=39,no=40,missing=39
					39:leaf=0.000243770992
					40:leaf=0.0111745559
				20:[mm_nBMTrks<2] yes=41,no=42,missing=41
					41:leaf=0.0151930209
					42:leaf=0.0126238139
			10:[mm_iso<0.911110938] yes=21,no=22,missing=21
				21:[mm_otherVtxMaxProb2<0.283283949] yes=43,no=44,missing=43
					43:leaf=0.00087937701
					44:leaf=-0.0117289526
				22:[mm_kin_pvip<0.0355518237] yes=45,no=46,missing=45
					45:leaf=0.00669476623
					46:leaf=-0.0102114137
	2:[mm_kin_alphaBS<0.102623425] yes=5,no=6,missing=5
		5:[mm_iso<0.815439403] yes=11,no=12,missing=11
			11:[mm_kin_spvip<2.20628357] yes=23,no=24,missing=23
				23:[mm_iso<0.697287083] yes=47,no=48,missing=47
					47:leaf=-0.0110942852
					48:leaf=-0.000116286283
				24:[mm_kin_spvip<3.15116596] yes=49,no=50,missing=49
					49:leaf=-0.0126002822
					50:leaf=-0.0153168617
			12:[mm_kin_spvip<2.75790477] yes=25,no=26,missing=25
				25:[mm_kin_sl3d<5.65201139] yes=51,no=52,missing=51
					51:leaf=0.00450802548
					52:leaf=0.0111357784
				26:[mm_iso<0.928417325] yes=53,no=54,missing=53
					53:leaf=-0.0112776738
					54:leaf=-0.000442023185
		6:[mm_kin_alphaBS<0.157796144] yes=13,no=14,missing=13
			13:[mm_iso<0.909353614] yes=27,no=28,missing=27
				27:[mm_kin_spvip<2.13825822] yes=55,no=56,missing=55
					55:leaf=-0.00933197979
					56:leaf=-0.0149280857
				28:[mm_kin_spvip<3.31332254] yes=57,no=58,missing=57
					57:leaf=0.00356153632
					58:leaf=-0.0113587305
			14:[mm_kin_alphaBS<0.221017033] yes=29,no=30,missing=29
				29:[mm_iso<0.873643339] yes=59,no=60,missing=59
					59:leaf=-0.0151979523
					60:leaf=-0.0102095995
				30:leaf=-0.015561807
booster[34]:
0:[mm_kin_alphaBS<0.0639338717] yes=1,no=2,missing=1
	1:[mm_iso<0.739174724] yes=3,no=4,missing=3
		3:[mm_kin_spvip<1.97074878] yes=7,no=8,missing=7
			7:[mm_kin_sl3d<8.95541286] yes=15,no=16,missing=15
				15:[mm_iso<0.610076785] yes=31,no=32,missing=31
					31:leaf=-0.0112842591
					32:leaf=-0.00201275875
				16:[mm_kin_sl3d<15.3529453] yes=33,no=34,missing=33
					33:leaf=0.00569971837
					34:leaf=0.0141393049
			8:[mm_kin_sl3d<19.3814659] yes=17,no=18,missing=17
				17:[mm_kin_spvip<2.75790477] yes=35,no=36,missing=35
					35:leaf=-0.0109766219
					36:leaf=-0.0151113672
				18:[mm_kin_spvip<3.84110141] yes=37,no=38,missing=37
					37:leaf=0.00911915582
					38:leaf=-0.0144339558
		4:[mm_kin_spvip<3.37650061] yes=9,no=10,missing=9
			9:[mm_kin_sl3d<6.96620798] yes=19,no=20,missing=19
				19:[mm_m1iso<0.837720335] yes=39,no=40,missing=39
					39:leaf=0.00130420807
					40:leaf=0.0110193724
				20:[mm_kin_pvip<0.0355518237] yes=41,no=42,missing=41
					41:leaf=0.0148552833
					42:leaf=-0.00358192623
			10:[mm_otherVtxMaxProb2<0.525515258] yes=21,no=22,missing=21
				21:[mm_m1iso<0.789315581] yes=43,no=44,missing=43
					43:leaf=-0.00726792309
					44:leaf=0.00843197666
				22:[mm_kin_spvip<4.20754385] yes=45,no=46,missing=45
					45:leaf=-0.00234529888
					46:leaf=-0.0121048829
	2:[mm_kin_alphaBS<0.120102912] yes=5,no=6,missing=5
		5:[mm_iso<0.824297667] yes=11,no=12,missing=11
			11:[mm_kin_spvip<1.63820231] yes=23,no=24,missing=23
				23:[mm_iso<0.674958706] yes=47,no=48,missing=47
					47:leaf=-0.0109701091
					48:leaf=0.000616544159
				24:[mm_m1iso<0.716049433] yes=49,no=50,missing=49
					49:leaf=-0.0149337025
					50:leaf=-0.0111954641
			12:[mm_kin_spvip<2.92525077] yes=25,no=26,missing=25
				25:[mm_m1iso<0.858626902] yes=51,no=52,missing=51
					51:leaf=0.00170669507
					52:leaf=0.00925863814
				26:[mm_kin_spvip<3.77910781] yes=53,no=54,missing=53
					53:leaf=-0.00270006293
					54:leaf=-0.0128679983
		6:[mm_kin_alphaBS<0.177797765] yes=13,no=14,missing=13
			13:[mm_iso<0.850488245] yes=27,no=28,missing=27
				27:[mm_kin_spvip<2.69040585] yes=55,no=56,missing=55
					55:leaf=-0.0126644373
					56:leaf=-0.0153928036
				28:[mm_kin_spvip<2.58365965] yes=57,no=58,missing=57
					57:leaf=0.00170156837
					58:leaf=-0.0113581261
			14:[mm_kin_alphaBS<0.261544049] yes=29,no=30,missing=29
				29:[mm_iso<0.962150335] yes=59,no=60,missing=59
					59:leaf=-0.0151287578
					60:leaf=-0.0103854286
				30:leaf=-0.0154931294
booster[35]:
0:[mm_kin_alphaBS<0.0639338717] yes=1,no=2,missing=1
	1:[mm_iso<0.715072751] yes=3,no=4,missing=3
		3:[mm_kin_spvip<1.72599256] yes=7,no=8,missing=7
			7:[mm_kin_sl3d<8.75446701] yes=15,no=16,missing=15
				15:[mm_iso<0.593230724] yes=29,no=30,missing=29
					29:leaf=-0.0114284502
					30:leaf=-0.00167458667
				16:[mm_kin_sl3d<12.8165359] yes=31,no=32,missing=31
					31:leaf=0.00386029598
					32:leaf=0.0134725757
			8:[mm_kin_sl3d<19.7665138] yes=17,no=18,missing=17
				17:[mm_kin_spvip<2.51556039] yes=33,no=34,missing=33
					33:leaf=-0.0099975029
					34:leaf=-0.0148149226
				18:[mm_kin_spvip<3.44026494] yes=35,no=36,missing=35
					35:leaf=0.0115871411
					36:leaf=-0.0139767081
		4:[mm_kin_spvip<3.05593443] yes=9,no=10,missing=9
			9:[mm_kin_sl3d<6.96620798] yes=19,no=20,missing=19
				19:[mm_iso<0.867623568] yes=37,no=38,missing=37
					37:leaf=0.00125480734
					38:leaf=0.011446612
				20:[mm_kin_sl3d<10.6122942] yes=39,no=40,missing=39
					39:leaf=0.0129569089
					40:leaf=0.0151123358
			10:[mm_iso<0.90764159] yes=21,no=22,missing=21
				21:[mm_otherVtxMaxProb2<0.450784355] yes=41,no=42,missing=41
					41:leaf=-0
					42:leaf=-0.0114515657
				22:[mm_kin_pvip<0.0355518237] yes=43,no=44,missing=43
					43:leaf=0.00706279604
					44:leaf=-0.0100498404
	2:[mm_kin_alphaBS<0.124593996] yes=5,no=6,missing=5
		5:[mm_iso<0.869646847] yes=11,no=12,missing=11
			11:[mm_kin_spvip<2.20628357] yes=23,no=24,missing=23
				23:[mm_iso<0.708476126] yes=45,no=46,missing=45
					45:leaf=-0.0115612978
					46:leaf=-0
				24:[mm_iso<0.746001482] yes=47,no=48,missing=47
					47:leaf=-0.0150279747
					48:leaf=-0.0115966722
			12:[mm_kin_spvip<2.51556039] yes=25,no=26,missing=25
				25:[mm_kin_vtx_chi2dof<1.62743163] yes=49,no=50,missing=49
					49:leaf=0.010583465
					50:leaf=0.00327034411
				26:[mm_kin_spvip<4.1172905] yes=51,no=52,missing=51
					51:leaf=-0.00100187957
					52:leaf=-0.0127394563
		6:[mm_kin_alphaBS<0.182802856] yes=13,no=14,missing=13
			13:[mm_iso<0.962150335] yes=27,no=28,missing=27
				27:[mm_iso<0.789718866] yes=53,no=54,missing=53
					53:leaf=-0.0150006507
					54:leaf=-0.0107760234
				28:[mm_kin_spvip<3.34459043] yes=55,no=56,missing=55
					55:leaf=0.00149380008
					56:leaf=-0.0120583875
			14:leaf=-0.0153566906
booster[36]:
0:[mm_kin_alphaBS<0.0557520874] yes=1,no=2,missing=1
	1:[mm_iso<0.69288075] yes=3,no=4,missing=3
		3:[mm_kin_spvip<1.87623918] yes=7,no=8,missing=7
			7:[mm_kin_sl3d<10.4181271] yes=15,no=16,missing=15
				15:[mm_m1iso<0.585437059] yes=31,no=32,missing=31
					31:leaf=-0.0103998864
					32:leaf=-0.00115056138
				16:[mm_kin_sl3d<17.7055168] yes=33,no=34,missing=33
					33:leaf=0.00663486775
					34:leaf=0.0141666913
			8:[mm_otherVtxMaxProb2<0.212112203] yes=17,no=18,missing=17
				17:[mm_kin_pvip<0.0130982893] yes=35,no=36,missing=35
					35:leaf=0.0118563026
					36:leaf=-0.00715971086
				18:[mm_kin_spvip<2.75790477] yes=37,no=38,missing=37
					37:leaf=-0.0095605161
					38:leaf=-0.014719544
		4:[mm_kin_spvip<3.15116596] yes=9,no=10,missing=9
			9:[mm_kin_sl3d<6.80214119] yes=19,no=20,missing=19
				19:[mm_iso<0.82641238] yes=39,no=40,missing=39
					39:leaf=-0.0016775222
					40:leaf=0.0104808277
				20:[mm_nBMTrks<2] yes=41,no=42,missing=41
					41:leaf=0.0149391275
					42:leaf=0.0121424766
			10:[mm_iso<0.899171054] yes=21,no=22,missing=21
				21:[mm_otherVtxMaxProb2<0.315159708] yes=43,no=44,missing=43
					43:leaf=-0
					44:leaf=-0.0118276458
				22:[mm_kin_pvip<0.0310726259] yes=45,no=46,missing=45
					45:leaf=0.00684988685
					46:leaf=-0.008754001
	2:[mm_kin_alphaBS<0.102623425] yes=5,no=6,missing=5
		5:[mm_iso<0.846117139] yes=11,no=12,missing=11
			11:[mm_kin_spvip<1.93907797] yes=23,no=24,missing=23
				23:[mm_m1iso<0.746995509] yes=47,no=48,missing=47
					47:leaf=-0.00893347617
					48:leaf=0.00324661122
				24:[mm_iso<0.741510749] yes=49,no=50,missing=49
					49:leaf=-0.0145985363
					50:leaf=-0.010008377
			12:[mm_kin_spvip<2.99090695] yes=25,no=26,missing=25
				25:[mm_kin_vtx_chi2dof<1.53707504] yes=51,no=52,missing=51
					51:leaf=0.010666945
					52:leaf=0.00360422581
				26:[mm_kin_spvip<4.29560852] yes=53,no=54,missing=53
					53:leaf=-0.00257934444
					54:leaf=-0.0128643112
		6:[mm_kin_alphaBS<0.157796144] yes=13,no=14,missing=13
			13:[mm_iso<0.933555901] yes=27,no=28,missing=27
				27:[mm_kin_spvip<2.3086133] yes=55,no=56,missing=55
					55:leaf=-0.00910939742
					56:leaf=-0.0147313345
				28:[mm_kin_spvip<2.61841655] yes=57,no=58,missing=57
					57:leaf=0.00641451683
					58:leaf=-0.00653877528
			14:[mm_kin_alphaBS<0.221017033] yes=29,no=30,missing=29
				29:[mm_iso<0.962150335] yes=59,no=60,missing=59
					59:leaf=-0.0147634847
					60:leaf=-0.00783402566
				30:leaf=-0.0153069068
booster[37]:
0:[mm_kin_alphaBS<0.061026331] yes=1,no=2,missing=1
	1:[mm_iso<0.690592945] yes=3,no=4,missing=3
		3:[mm_kin_spvip<1.69639313] yes=7,no=8,missing=7
			7:[mm_kin_sl3d<10.7221851] yes=15,no=16,missing=15
				15:[mm_kin_sl3d<6.17871952] yes=29,no=30,missing=29
					29:leaf=-0.0107473191
					30:leaf=-0.000912409043
				16:[mm_kin_alphaBS<0.0291079972] yes=31,no=32,missing=31
					31:leaf=0.0127417678
					32:leaf=0.00235516857
			8:[mm_kin_sl3d<23.6538982] yes=17,no=18,missing=17
				17:[mm_kin_spvip<2.37692475] yes=33,no=34,missing=33
					33:leaf=-0.00977325439
					34:leaf=-0.0144965909
				18:[mm_kin_spvip<3.87622333] yes=35,no=36,missing=35
					35:leaf=0.0120558627
					36:leaf=-0.0139379483
		4:[mm_kin_spvip<2.92525077] yes=9,no=10,missing=9
			9:[mm_kin_sl3d<6.17871952] yes=19,no=20,missing=19
				19:[mm_iso<0.802558959] yes=37,no=38,missing=37
					37:leaf=-0.00401360262
					38:leaf=0.00938855112
				20:[mm_kin_sl3d<9.39546204] yes=39,no=40,missing=39
					39:leaf=0.0119678639
					40:leaf=0.0148831503
			10:[mm_iso<0.884992361] yes=21,no=22,missing=21
				21:[mm_kin_spvip<3.74890685] yes=41,no=42,missing=41
					41:leaf=-0.00557669764
					42:leaf=-0.0134614492
				22:[mm_kin_spvip<4.92889786] yes=43,no=44,missing=43
					43:leaf=0.00764460443
					44:leaf=-0.00841619447
	2:[mm_kin_alphaBS<0.124593996] yes=5,no=6,missing=5
		5:[mm_iso<0.830821216] yes=11,no=12,missing=11
			11:[mm_kin_spvip<2.20628357] yes=23,no=24,missing=23
				23:[mm_iso<0.68621552] yes=45,no=46,missing=45
					45:leaf=-0.0115517946
					46:leaf=-0.00120355387
				24:[mm_kin_spvip<2.95806575] yes=47,no=48,missing=47
					47:leaf=-0.0122126425
					48:leaf=-0.0149967503
			12:[mm_kin_spvip<2.95806575] yes=25,no=26,missing=25
				25:[mm_kin_vtx_chi2dof<1.60437417] yes=49,no=50,missing=49
					49:leaf=0.00894979015
					50:leaf=0.000963109778
				26:[mm_otherVtxMaxProb2<0.283283949] yes=51,no=52,missing=51
					51:leaf=0.00344558223
					52:leaf=-0.00980121922
		6:[mm_kin_alphaBS<0.188091755] yes=13,no=14,missing=13
			13:[mm_iso<0.883147895] yes=27,no=28,missing=27
				27:[mm_kin_spvip<2.69040585] yes=53,no=54,missing=53
					53:leaf=-0.0121639045
					54:leaf=-0.0150917238
				28:[mm_kin_spvip<2.61841655] yes=55,no=56,missing=55
					55:leaf=0.0010772621
					56:leaf=-0.0109216357
			14:leaf=-0.0151955811
booster[38]:
0:[mm_kin_alphaBS<0.0557520874] yes=1,no=2,missing=1
	1:[mm_iso<0.69288075] yes=3,no=4,missing=3
		3:[mm_kin_spvip<1.7850951] yes=7,no=8,missing=7
			7:[mm_kin_sl3d<10.7221851] yes=15,no=16,missing=15
				15:[mm_iso<0.598056078] yes=31,no=32,missing=31
					31:leaf=-0.00995257404
					32:leaf=-0.000247533288
				16:[mm_m2iso<0.367957354] yes=33,no=34,missing=33
					33:leaf=0.00298764138
					34:leaf=0.0128299277
			8:[mm_kin_sl3d<18.6678715] yes=17,no=18,missing=17
				17:[mm_kin_spvip<2.65640235] yes=35,no=36,missing=35
					35:leaf=-0.0110101625
					36:leaf=-0.014767725
				18:[mm_kin_spvip<3.56336713] yes=37,no=38,missing=37
					37:leaf=0.00960028917
					38:leaf=-0.0138811721
		4:[mm_kin_spvip<3.15116596] yes=9,no=10,missing=9
			9:[mm_kin_sl3d<6.11281252] yes=19,no=20,missing=19
				19:[mm_iso<0.869646847] yes=39,no=40,missing=39
					39:leaf=-0.00100682257
					40:leaf=0.0103853652
				20:[mm_kin_sl3d<9.39546204] yes=41,no=42,missing=41
					41:leaf=0.0116833365
					42:leaf=0.0147740925
			10:[mm_iso<0.865583837] yes=21,no=22,missing=21
				21:[mm_otherVtxMaxProb2<0.121125706] yes=43,no=44,missing=43
					43:leaf=-0
					44:leaf=-0.012244584
				22:[mm_kin_spvip<5.32648563] yes=45,no=46,missing=45
					45:leaf=0.00576097611
					46:leaf=-0.0095797088
	2:[mm_kin_alphaBS<0.111569464] yes=5,no=6,missing=5
		5:[mm_iso<0.800466657] yes=11,no=12,missing=11
			11:[mm_kin_spvip<1.75550544] yes=23,no=24,missing=23
				23:[mm_iso<0.649774015] yes=47,no=48,missing=47
					47:leaf=-0.0108611975
					48:leaf=-0.000428500352
				24:[mm_kin_spvip<2.65640235] yes=49,no=50,missing=49
					49:leaf=-0.0114627713
					50:leaf=-0.0147875892
			12:[mm_kin_spvip<2.92525077] yes=25,no=26,missing=25
				25:[mm_m1iso<0.869785726] yes=51,no=52,missing=51
					51:leaf=0.00226699328
					52:leaf=0.00993672106
				26:[mm_kin_spvip<3.99887252] yes=53,no=54,missing=53
					53:leaf=-0.0035321319
					54:leaf=-0.0130573139
		6:[mm_kin_alphaBS<0.177797765] yes=13,no=14,missing=13
			13:[mm_iso<0.852704823] yes=27,no=28,missing=27
				27:[mm_kin_spvip<2.03388524] yes=55,no=56,missing=55
					55:leaf=-0.0106443223
					56:leaf=-0.01476664
				28:[mm_kin_spvip<2.89163995] yes=57,no=58,missing=57
					57:leaf=0.000948755653
					58:leaf=-0.0115736397
			14:[mm_kin_alphaBS<0.26737535] yes=29,no=30,missing=29
				29:[mm_iso<0.962150335] yes=59,no=60,missing=59
					59:leaf=-0.0148002589
					60:leaf=-0.00999828521
				30:leaf=-0.0151661085
booster[39]:
0:[mm_kin_alphaBS<0.0557520874] yes=1,no=2,missing=1
	1:[mm_iso<0.701681316] yes=3,no=4,missing=3
		3:[mm_kin_spvip<1.75550544] yes=7,no=8,missing=7
			7:[mm_kin_sl3d<11.4808321] yes=15,no=16,missing=15
				15:[mm_m1iso<0.582894862] yes=31,no=32,missing=31
					31:leaf=-0.00935737882
					32:leaf=0.000295558653
				16:[mm_iso<0.391918361] yes=33,no=34,missing=33
					33:leaf=-0
					34:leaf=0.0127006639
			8:[mm_kin_sl3d<23.6538982] yes=17,no=18,missing=17
				17:[mm_kin_spvip<2.65640235] yes=35,no=36,missing=35
					35:leaf=-0.00982756075
					36:leaf=-0.0145053677
				18:[mm_kin_spvip<3.87622333] yes=37,no=38,missing=37
					37:leaf=0.0123518109
					38:leaf=-0.0139335198
		4:[mm_kin_spvip<3.05593443] yes=9,no=10,missing=9
			9:[mm_kin_sl3d<5.83126068] yes=19,no=20,missing=19
				19:[mm_iso<0.837387919] yes=39,no=40,missing=39
					39:leaf=-0.00257688132
					40:leaf=0.00938355178
				20:[mm_nBMTrks<2] yes=41,no=42,missing=41
					41:leaf=0.0146574033
					42:leaf=0.0115676746
			10:[mm_iso<0.904247224] yes=21,no=22,missing=21
				21:[mm_kin_spvip<3.99887252] yes=43,no=44,missing=43
					43:leaf=-0.00446348172
					44:leaf=-0.0128887901
				22:[mm_kin_pvip<0.0355518237] yes=45,no=46,missing=45
					45:leaf=0.00695131114
					46:leaf=-0.0102434205
	2:[mm_kin_alphaBS<0.106762871] yes=5,no=6,missing=5
		5:[mm_iso<0.800466657] yes=11,no=12,missing=11
			11:[mm_kin_spvip<2.34295011] yes=23,no=24,missing=23
				23:[mm_iso<0.640774786] yes=47,no=48,missing=47
					47:leaf=-0.0121986317
					48:leaf=-0.0025556325
				24:[mm_otherVtxMaxProb2<0.00653665466] yes=49,no=50,missing=49
					49:leaf=-0
					50:leaf=-0.0144411372
			12:[mm_kin_spvip<2.92525077] yes=25,no=26,missing=25
				25:[mm_m1iso<0.858626902] yes=51,no=52,missing=51
					51:leaf=0.00250463397
					52:leaf=0.00977129582
				26:[mm_iso<0.933555901] yes=53,no=54,missing=53
					53:leaf=-0.0119167715
					54:leaf=-0.00203910866
		6:[mm_kin_alphaBS<0.167690292] yes=13,no=14,missing=13
			13:[mm_iso<0.850488245] yes=27,no=28,missing=27
				27:[mm_kin_spvip<2.13825822] yes=55,no=56,missing=55
					55:leaf=-0.0106986128
					56:leaf=-0.0147077357
				28:[mm_kin_spvip<3.15116596] yes=57,no=58,missing=57
					57:leaf=0.00140922016
					58:leaf=-0.0120178014
			14:[mm_kin_alphaBS<0.243656814] yes=29,no=30,missing=29
				29:[mm_iso<0.962150335] yes=59,no=60,missing=59
					59:leaf=-0.0146363014
					60:leaf=-0.00840875786
				30:leaf=-0.0150813861
booster[40]:
0:[mm_kin_alphaBS<0.0639338717] yes=1,no=2,missing=1
	1:[mm_iso<0.730337739] yes=3,no=4,missing=3
		3:[mm_kin_spvip<2.03388524] yes=7,no=8,missing=7
			7:[mm_kin_sl3d<9.47323036] yes=15,no=16,missing=15
				15:[mm_m1iso<0.660680413] yes=29,no=30,missing=29
					29:leaf=-0.00972262491
					30:leaf=1.92440693e-05
				16:[mm_kin_sl3d<16.0363388] yes=31,no=32,missing=31
					31:leaf=0.00542001054
					32:leaf=0.0137731107
			8:[mm_otherVtxMaxProb2<0.374318957] yes=17,no=18,missing=17
				17:[mm_kin_pvip<0.0128877712] yes=33,no=34,missing=33
					33:leaf=0.0076840804
					34:leaf=-0.0102943182
				18:[mm_kin_spvip<2.69040585] yes=35,no=36,missing=35
					35:leaf=-0.00947064348
					36:leaf=-0.01430922
		4:[mm_kin_spvip<2.92525077] yes=9,no=10,missing=9
			9:[mm_kin_sl3d<5.83126068] yes=19,no=20,missing=19
				19:[mm_m1iso<0.830924273] yes=37,no=38,missing=37
					37:leaf=-0.000502753537
					38:leaf=0.00956532732
				20:[mm_kin_sl3d<9.10267544] yes=39,no=40,missing=39
					39:leaf=0.0119452132
					40:leaf=0.0146286106
			10:[mm_kin_spvip<4.63590527] yes=21,no=22,missing=21
				21:[mm_nBMTrks<2] yes=41,no=42,missing=41
					41:leaf=0.00840630196
					42:leaf=-0.00624842523
				22:[mm_otherVtxMaxProb2<0.139451474] yes=43,no=44,missing=43
					43:leaf=0.00423340732
					44:leaf=-0.0119112385
	2:[mm_kin_alphaBS<0.133804426] yes=5,no=6,missing=5
		5:[mm_iso<0.833028078] yes=11,no=12,missing=11
			11:[mm_kin_spvip<1.87623918] yes=23,no=24,missing=23
				23:[mm_iso<0.728193104] yes=45,no=46,missing=45
					45:leaf=-0.0102833062
					46:leaf=0.000990743516
				24:[mm_kin_spvip<2.95806575] yes=47,no=48,missing=47
					47:leaf=-0.0118428087
					48:leaf=-0.0147774266
			12:[mm_kin_spvip<2.65640235] yes=25,no=26,missing=25
				25:[mm_otherVtxMaxProb2<0.633552015] yes=49,no=50,missing=49
					49:leaf=0.0111991214
					50:leaf=0.00455182791
				26:[mm_kin_spvip<4.02907038] yes=51,no=52,missing=51
					51:leaf=-0.00298624393
					52:leaf=-0.0130602093
		6:[mm_kin_alphaBS<0.193379447] yes=13,no=14,missing=13
			13:[mm_iso<0.856914341] yes=27,no=28,missing=27
				27:[mm_kin_spvip<2.13825822] yes=53,no=54,missing=53
					53:leaf=-0.0117016537
					54:leaf=-0.0147728408
				28:[mm_kin_spvip<2.79135776] yes=55,no=56,missing=55
					55:leaf=-0.00101265823
					56:leaf=-0.0122523028
			14:leaf=-0.0149694383
booster[41]:
0:[mm_kin_alphaBS<0.0557520874] yes=1,no=2,missing=1
	1:[mm_iso<0.697287083] yes=3,no=4,missing=3
		3:[mm_kin_spvip<2.03388524] yes=7,no=8,missing=7
			7:[mm_kin_sl3d<12.3698339] yes=15,no=16,missing=15
				15:[mm_kin_sl3d<6.92515469] yes=31,no=32,missing=31
					31:leaf=-0.0102550015
					32:leaf=-0
				16:[mm_m2iso<0.367957354] yes=33,no=34,missing=33
					33:leaf=0.00517194811
					34:leaf=0.0133164069
			8:[mm_otherVtxMaxProb2<0.374318957] yes=17,no=18,missing=17
				17:[mm_kin_pvip<0.0130982893] yes=35,no=36,missing=35
					35:leaf=0.00762748718
					36:leaf=-0.0097185513
