booster[0]:
0:[mm_kin_alphaBS<0.0581234992] yes=1,no=2,missing=1
	1:[mm_iso<0.719798982] yes=3,no=4,missing=3
		3:[mm_kin_spvip<1.87594986] yes=7,no=8,missing=7
			7:[mm_kin_sl3d<9.63208199] yes=15,no=16,missing=15
				15:[mm_iso<0.593720853] yes=31,no=32,missing=31
					31:leaf=-0.0140364096
					32:leaf=-0.0027999999
				16:[mm_kin_sl3d<13.7799349] yes=33,no=34,missing=33
					33:leaf=0.00736842072
					34:leaf=0.0177563
			8:[mm_kin_spvip<2.65183473] yes=17,no=18,missing=17
				17:[mm_kin_sl3d<13.2767467] yes=35,no=36,missing=35
					35:leaf=-0.0153656332
					36:leaf=0.0101937987
				18:[mm_otherVtxMaxProb2<0.0553657115] yes=37,no=38,missing=37
					37:leaf=-0
					38:leaf=-0.0187792927
		4:[mm_kin_spvip<3.5015173] yes=9,no=10,missing=9
			9:[mm_kin_sl3d<6.72263241] yes=19,no=20,missing=19
				19:[mm_iso<0.841775239] yes=39,no=40,missing=39
					39:leaf=-0.00040991421
					40:leaf=0.0139881689
				20:[mm_kin_spvip<2.5833261] yes=41,no=42,missing=41
					41:leaf=0.0193463266
					42:leaf=0.0138791418
			10:[mm_otherVtxMaxProb2<0.281022996] yes=21,no=22,missing=21
				21:[mm_iso<0.861148953] yes=43,no=44,missing=43
					43:leaf=-0.00606741523
					44:leaf=0.0135092353
				22:[mm_kin_spvip<4.29505634] yes=45,no=46,missing=45
					45:leaf=-0.00241850689
					46:leaf=-0.0154303759
	2:[mm_kin_alphaBS<0.106203608] yes=5,no=6,missing=5
		5:[mm_iso<0.815590501] yes=11,no=12,missing=11
			11:[mm_kin_spvip<2.20553255] yes=23,no=24,missing=23
				23:[mm_iso<0.673037171] yes=47,no=48,missing=47
					47:leaf=-0.0152193476
					48:leaf=-0.00223107566
				24:[mm_kin_spvip<3.1504643] yes=49,no=50,missing=49
					49:leaf=-0.0170394592
					50:leaf=-0.0196783543
			12:[mm_kin_spvip<2.92410874] yes=25,no=26,missing=25
				25:[mm_iso<0.892185032] yes=51,no=52,missing=51
					51:leaf=0.00442340784
					52:leaf=0.0131076528
				26:[mm_kin_spvip<4.05740547] yes=53,no=54,missing=53
					53:leaf=-0.00398009969
					54:leaf=-0.0170079879
		6:[mm_kin_alphaBS<0.161639944] yes=13,no=14,missing=13
			13:[mm_iso<0.873667896] yes=27,no=28,missing=27
				27:[mm_kin_spvip<2.30772829] yes=55,no=56,missing=55
					55:leaf=-0.0146702677
					56:leaf=-0.0194590352
				28:[mm_kin_spvip<2.69011426] yes=57,no=58,missing=57
					57:leaf=0.00366029702
					58:leaf=-0.0131733809
			14:[mm_kin_alphaBS<0.220252693] yes=29,no=30,missing=29
				29:[mm_iso<0.96246469] yes=59,no=60,missing=59
					59:leaf=-0.0193362068
					60:leaf=-0.0116102835
				30:leaf=-0.0199500918
booster[1]:
0:[mm_kin_alphaBS<0.060822919] yes=1,no=2,missing=1
	1:[mm_iso<0.721947193] yes=3,no=4,missing=3
		3:[mm_kin_spvip<2.03967834] yes=7,no=8,missing=7
			7:[mm_kin_sl3d<10.7295294] yes=15,no=16,missing=15
				15:[mm_iso<0.631626904] yes=31,no=32,missing=31
					31:leaf=-0.0124705983
					32:leaf=-0.000518153131
				16:[mm_kin_sl3d<16.0427761] yes=33,no=34,missing=33
					33:leaf=0.00940895174
					34:leaf=0.0181425847
			8:[mm_otherVtxMaxProb2<0.314650178] yes=17,no=18,missing=17
				17:[mm_kin_spvip<3.24509501] yes=35,no=36,missing=35
					35:leaf=0.00938975997
					36:leaf=-0.0125602335
				18:[mm_kin_spvip<2.89142156] yes=37,no=38,missing=37
					37:leaf=-0.0131714027
					38:leaf=-0.019139722
		4:[mm_kin_spvip<3.43865108] yes=9,no=10,missing=9
			9:[mm_kin_sl3d<6.53347158] yes=19,no=20,missing=19
				19:[mm_iso<0.841775239] yes=39,no=40,missing=39
					39:leaf=-0.000961527519
					40:leaf=0.013760278
				20:[mm_kin_spvip<2.5833261] yes=41,no=42,missing=41
					41:leaf=0.0191030707
					42:leaf=0.01348502
			10:[mm_otherVtxMaxProb2<0.483650327] yes=21,no=22,missing=21
				21:[mm_iso<0.904363036] yes=43,no=44,missing=43
					43:leaf=-0.00465975655
					44:leaf=0.0118400119
				22:[mm_kin_spvip<4.29505634] yes=45,no=46,missing=45
					45:leaf=-0.00377021404
					46:leaf=-0.0155754201
	2:[mm_kin_alphaBS<0.115157545] yes=5,no=6,missing=5
		5:[mm_iso<0.839544594] yes=11,no=12,missing=11
			11:[mm_kin_spvip<2.10541868] yes=23,no=24,missing=23
				23:[mm_iso<0.710980833] yes=47,no=48,missing=47
					47:leaf=-0.0144768711
					48:leaf=-0.000161679985
				24:[mm_iso<0.750410855] yes=49,no=50,missing=49
					49:leaf=-0.0191381481
					50:leaf=-0.0150583694
			12:[mm_kin_spvip<2.92410874] yes=25,no=26,missing=25
				25:[mm_iso<0.936167777] yes=51,no=52,missing=51
					51:leaf=0.00647785049
					52:leaf=0.0137411579
				26:[mm_kin_spvip<3.99689126] yes=53,no=54,missing=53
					53:leaf=-0.00349840359
					54:leaf=-0.0167349558
		6:[mm_kin_alphaBS<0.161639944] yes=13,no=14,missing=13
			13:[mm_iso<0.873667896] yes=27,no=28,missing=27
				27:[mm_kin_spvip<2.51462126] yes=55,no=56,missing=55
					55:leaf=-0.0151856719
					56:leaf=-0.0194123257
				28:[mm_kin_spvip<2.69011426] yes=57,no=58,missing=57
					57:leaf=0.0028077336
					58:leaf=-0.0134540331
			14:[mm_kin_alphaBS<0.236895189] yes=29,no=30,missing=29
				29:[mm_iso<0.96246469] yes=59,no=60,missing=59
					59:leaf=-0.01921257
					60:leaf=-0.0124675091
				30:leaf=-0.0197635163
booster[2]:
0:[mm_kin_alphaBS<0.060822919] yes=1,no=2,missing=1
	1:[mm_iso<0.717590868] yes=3,no=4,missing=3
		3:[mm_kin_spvip<2.03967834] yes=7,no=8,missing=7
			7:[mm_kin_sl3d<10.5168056] yes=15,no=16,missing=15
				15:[mm_iso<0.612876415] yes=31,no=32,missing=31
					31:leaf=-0.0130706746
					32:leaf=-0.00202667713
				16:[mm_kin_sl3d<15.3527088] yes=33,no=34,missing=33
					33:leaf=0.00827240106
					34:leaf=0.0177084915
			8:[mm_otherVtxMaxProb2<0.359561056] yes=17,no=18,missing=17
				17:[mm_kin_pvip<0.0127794966] yes=35,no=36,missing=35
					35:leaf=0.00893190317
					36:leaf=-0.0131797474
				18:[mm_kin_spvip<2.89142156] yes=37,no=38,missing=37
					37:leaf=-0.0131860133
					38:leaf=-0.018971229
		4:[mm_kin_spvip<3.43865108] yes=9,no=10,missing=9
			9:[mm_kin_sl3d<6.38842058] yes=19,no=20,missing=19
				19:[mm_iso<0.835205436] yes=39,no=40,missing=39
					39:leaf=-0.00186974497
					40:leaf=0.0130643733
				20:[mm_kin_spvip<2.5833261] yes=41,no=42,missing=41
					41:leaf=0.0188797824
					42:leaf=0.0135389073
			10:[mm_otherVtxMaxProb2<0.281022996] yes=21,no=22,missing=21
				21:[mm_iso<0.893931687] yes=43,no=44,missing=43
					43:leaf=-0.00225164532
					44:leaf=0.0140876686
				22:[mm_kin_spvip<4.08820772] yes=45,no=46,missing=45
					45:leaf=-0.00156035705
					46:leaf=-0.0144553157
	2:[mm_kin_alphaBS<0.115157545] yes=5,no=6,missing=5
		5:[mm_iso<0.815590501] yes=11,no=12,missing=11
			11:[mm_kin_spvip<2.17231464] yes=23,no=24,missing=23
				23:[mm_iso<0.682002842] yes=47,no=48,missing=47
					47:leaf=-0.015047743
					48:leaf=-0.00281890202
				24:[mm_kin_spvip<3.1504643] yes=49,no=50,missing=49
					49:leaf=-0.0167146083
					50:leaf=-0.0193111524
			12:[mm_kin_spvip<2.92410874] yes=25,no=26,missing=25
				25:[mm_iso<0.911117077] yes=51,no=52,missing=51
					51:leaf=0.00439488934
					52:leaf=0.0128550278
				26:[mm_kin_spvip<4.02733517] yes=53,no=54,missing=53
					53:leaf=-0.00525321392
					54:leaf=-0.0171968024
		6:[mm_kin_alphaBS<0.166594446] yes=13,no=14,missing=13
			13:[mm_iso<0.884994924] yes=27,no=28,missing=27
				27:[mm_kin_spvip<2.13837886] yes=55,no=56,missing=55
					55:leaf=-0.0142496256
					56:leaf=-0.0190539826
				28:[mm_kin_spvip<3.05416679] yes=57,no=58,missing=57
					57:leaf=0.00132099586
					58:leaf=-0.0149229914
			14:[mm_kin_alphaBS<0.220252693] yes=29,no=30,missing=29
				29:[mm_iso<0.96246469] yes=59,no=60,missing=59
					59:leaf=-0.0190187506
					60:leaf=-0.011502238
				30:leaf=-0.0195616428
booster[3]:
0:[mm_kin_alphaBS<0.060822919] yes=1,no=2,missing=1
	1:[mm_iso<0.717590868] yes=3,no=4,missing=3
		3:[mm_kin_spvip<2.03967834] yes=7,no=8,missing=7
			7:[mm_kin_sl3d<9.63208199] yes=15,no=16,missing=15
				15:[mm_iso<0.629347861] yes=31,no=32,missing=31
					31:leaf=-0.0131964227
					32:leaf=-0.00212970539
				16:[mm_kin_sl3d<15.3527088] yes=33,no=34,missing=33
					33:leaf=0.00695542339
					34:leaf=0.0176618025
			8:[mm_otherVtxMaxProb2<0.211312965] yes=17,no=18,missing=17
				17:[mm_kin_pvip<0.0130984327] yes=35,no=36,missing=35
					35:leaf=0.0122773731
					36:leaf=-0.00953745842
				18:[mm_kin_spvip<2.92410874] yes=37,no=38,missing=37
					37:leaf=-0.0127832051
					38:leaf=-0.0188592542
		4:[mm_kin_spvip<3.43865108] yes=9,no=10,missing=9
			9:[mm_kin_sl3d<6.38842058] yes=19,no=20,missing=19
				19:[mm_iso<0.86328727] yes=39,no=40,missing=39
					39:leaf=-0.000311379583
					40:leaf=0.0136645008
				20:[mm_kin_spvip<2.5833261] yes=41,no=42,missing=41
					41:leaf=0.0186984316
					42:leaf=0.0133680552
			10:[mm_otherVtxMaxProb2<0.281022996] yes=21,no=22,missing=21
				21:[mm_iso<0.906071246] yes=43,no=44,missing=43
					43:leaf=-0.000771709834
					44:leaf=0.0143215414
				22:[mm_kin_spvip<4.7024951] yes=45,no=46,missing=45
					45:leaf=-0.0039121774
					46:leaf=-0.0158870853
	2:[mm_kin_alphaBS<0.110866815] yes=5,no=6,missing=5
		5:[mm_iso<0.839544594] yes=11,no=12,missing=11
			11:[mm_kin_spvip<2.20553255] yes=23,no=24,missing=23
				23:[mm_iso<0.695311427] yes=47,no=48,missing=47
					47:leaf=-0.0144665428
					48:leaf=-0.00093111
				24:[mm_iso<0.759079516] yes=49,no=50,missing=49
					49:leaf=-0.0187702291
					50:leaf=-0.01453273
			12:[mm_kin_spvip<2.85782909] yes=25,no=26,missing=25
				25:[mm_kin_spvip<2.03967834] yes=51,no=52,missing=51
					51:leaf=0.0131943421
					52:leaf=0.00544887269
				26:[mm_kin_spvip<3.99689126] yes=53,no=54,missing=53
					53:leaf=-0.00263322773
					54:leaf=-0.0166241042
		6:[mm_kin_alphaBS<0.161639944] yes=13,no=14,missing=13
			13:[mm_iso<0.884994924] yes=27,no=28,missing=27
				27:[mm_kin_spvip<2.30772829] yes=55,no=56,missing=55
					55:leaf=-0.0144122606
					56:leaf=-0.0189116076
				28:[mm_kin_spvip<3.18166542] yes=57,no=58,missing=57
					57:leaf=0.00187043694
					58:leaf=-0.0150541626
			14:[mm_kin_alphaBS<0.260159969] yes=29,no=30,missing=29
				29:[mm_iso<0.96246469] yes=59,no=60,missing=59
					59:leaf=-0.0189411324
					60:leaf=-0.0128686558
				30:leaf=-0.0193949956
booster[4]:
0:[mm_kin_alphaBS<0.0555440448] yes=1,no=2,missing=1
	1:[mm_iso<0.699750721] yes=3,no=4,missing=3
		3:[mm_kin_spvip<2.07276392] yes=7,no=8,missing=7
			7:[mm_kin_sl3d<10.5168056] yes=15,no=16,missing=15
				15:[mm_m1iso<0.653697133] yes=31,no=32,missing=31
					31:leaf=-0.0122836828
					32:leaf=-0.00108856149
				16:[mm_kin_sl3d<14.9226294] yes=33,no=34,missing=33
					33:leaf=0.00749153784
					34:leaf=0.0170450844
			8:[mm_otherVtxMaxProb2<0.314650178] yes=17,no=18,missing=17
				17:[mm_kin_sl3d<16.3157043] yes=35,no=36,missing=35
					35:leaf=-0.0118502127
					36:leaf=0.00812646002
				18:[mm_kin_spvip<2.72527075] yes=37,no=38,missing=37
					37:leaf=-0.0125886928
					38:leaf=-0.0184231885
		4:[mm_kin_spvip<3.43865108] yes=9,no=10,missing=9
			9:[mm_kin_sl3d<6.38842058] yes=19,no=20,missing=19
				19:[mm_iso<0.841775239] yes=39,no=40,missing=39
					39:leaf=-0.00198094291
					40:leaf=0.0130605698
				20:[mm_kin_spvip<2.5833261] yes=41,no=42,missing=41
					41:leaf=0.0185125675
					42:leaf=0.0132245002
			10:[mm_otherVtxMaxProb2<0.504873693] yes=21,no=22,missing=21
				21:[mm_iso<0.900945961] yes=43,no=44,missing=43
					43:leaf=-0.00636183843
					44:leaf=0.0114078969
				22:[mm_kin_spvip<4.29505634] yes=45,no=46,missing=45
					45:leaf=-0.00401743781
					46:leaf=-0.015837932
	2:[mm_kin_alphaBS<0.106203608] yes=5,no=6,missing=5
		5:[mm_iso<0.815590501] yes=11,no=12,missing=11
			11:[mm_kin_spvip<2.10541868] yes=23,no=24,missing=23
				23:[mm_iso<0.675267398] yes=47,no=48,missing=47
					47:leaf=-0.0140891671
					48:leaf=-0.00164666888
				24:[mm_kin_spvip<3.1504643] yes=49,no=50,missing=49
					49:leaf=-0.0161119979
					50:leaf=-0.0189362075
			12:[mm_kin_spvip<2.85782909] yes=25,no=26,missing=25
				25:[mm_iso<0.909475565] yes=51,no=52,missing=51
					51:leaf=0.00609771162
					52:leaf=0.0134458635
				26:[mm_kin_spvip<4.02733517] yes=53,no=54,missing=53
					53:leaf=-0.00287856604
					54:leaf=-0.0160343889
		6:[mm_kin_alphaBS<0.156739682] yes=13,no=14,missing=13
			13:[mm_iso<0.873667896] yes=27,no=28,missing=27
				27:[mm_kin_spvip<2.30772829] yes=55,no=56,missing=55
					55:leaf=-0.0136634037
					56:leaf=-0.0187101811
				28:[mm_kin_spvip<2.69011426] yes=57,no=58,missing=57
					57:leaf=0.00406320347
					58:leaf=-0.012801568
			14:[mm_kin_alphaBS<0.220252693] yes=29,no=30,missing=29
				29:[mm_iso<0.912816823] yes=59,no=60,missing=59
					59:leaf=-0.0186642855
					60:leaf=-0.0115173636
				30:leaf=-0.0191957131
booster[5]:
0:[mm_kin_alphaBS<0.0581234992] yes=1,no=2,missing=1
	1:[mm_iso<0.695311427] yes=3,no=4,missing=3
		3:[mm_kin_spvip<1.90635908] yes=7,no=8,missing=7
			7:[mm_kin_sl3d<10.5168056] yes=15,no=16,missing=15
				15:[mm_kin_sl3d<7.18959284] yes=31,no=32,missing=31
					31:leaf=-0.012296726
					32:leaf=-0.00133910554
				16:[mm_kin_sl3d<13.7799349] yes=33,no=34,missing=33
					33:leaf=0.0066662035
					34:leaf=0.0166278984
			8:[mm_kin_sl3d<20.1477814] yes=17,no=18,missing=17
				17:[mm_kin_spvip<2.54900789] yes=35,no=36,missing=35
					35:leaf=-0.0134671312
					36:leaf=-0.0183737315
				18:[mm_kin_spvip<3.40654969] yes=37,no=38,missing=37
					37:leaf=0.0123896822
					38:leaf=-0.0173526667
		4:[mm_kin_spvip<3.43865108] yes=9,no=10,missing=9
			9:[mm_kin_sl3d<6.8421874] yes=19,no=20,missing=19
				19:[mm_iso<0.822275221] yes=39,no=40,missing=39
					39:leaf=-0.00279372954
					40:leaf=0.0129741216
				20:[mm_kin_spvip<2.61695862] yes=41,no=42,missing=41
					41:leaf=0.018404169
					42:leaf=0.013055684
			10:[mm_iso<0.902678132] yes=21,no=22,missing=21
				21:[mm_otherVtxMaxProb2<0.07036677] yes=43,no=44,missing=43
					43:leaf=-0
					44:leaf=-0.0153233903
				22:[mm_kin_spvip<5.36797142] yes=45,no=46,missing=45
					45:leaf=0.0067893737
					46:leaf=-0.0119676171
	2:[mm_kin_alphaBS<0.106203608] yes=5,no=6,missing=5
		5:[mm_iso<0.817735851] yes=11,no=12,missing=11
			11:[mm_kin_spvip<2.10541868] yes=23,no=24,missing=23
				23:[mm_iso<0.693169236] yes=47,no=48,missing=47
					47:leaf=-0.013918208
					48:leaf=-0.00138309877
				24:[mm_kin_spvip<3.1504643] yes=49,no=50,missing=49
					49:leaf=-0.0157598387
					50:leaf=-0.0187152568
			12:[mm_kin_spvip<2.75842667] yes=25,no=26,missing=25
				25:[mm_iso<0.911117077] yes=51,no=52,missing=51
					51:leaf=0.00623901002
					52:leaf=0.0134072937
				26:[mm_kin_spvip<3.77747035] yes=53,no=54,missing=53
					53:leaf=-0.00225101085
					54:leaf=-0.0152333947
		6:[mm_kin_alphaBS<0.161639944] yes=13,no=14,missing=13
			13:[mm_iso<0.883134604] yes=27,no=28,missing=27
				27:[mm_kin_spvip<2.03967834] yes=55,no=56,missing=55
					55:leaf=-0.0128891133
					56:leaf=-0.0184167195
				28:[mm_kin_spvip<2.7926259] yes=57,no=58,missing=57
					57:leaf=0.00394205935
					58:leaf=-0.0129216677
			14:[mm_kin_alphaBS<0.225676328] yes=29,no=30,missing=29
				29:[mm_iso<0.893931687] yes=59,no=60,missing=59
					59:leaf=-0.0186053403
					60:leaf=-0.0131362807
				30:leaf=-0.0190218333
booster[6]:
0:[mm_kin_alphaBS<0.060822919] yes=1,no=2,missing=1
	1:[mm_iso<0.719798982] yes=3,no=4,missing=3
		3:[mm_kin_spvip<2.13837886] yes=7,no=8,missing=7
			7:[mm_kin_sl3d<10.5168056] yes=15,no=16,missing=15
				15:[mm_m1iso<0.656128526] yes=31,no=32,missing=31
					31:leaf=-0.0117760263
					32:leaf=-9.05634442e-05
				16:[mm_kin_sl3d<16.0427761] yes=33,no=34,missing=33
					33:leaf=0.00836637896
					34:leaf=0.0171376541
			8:[mm_otherVtxMaxProb2<0.359561056] yes=17,no=18,missing=17
				17:[mm_kin_sl3d<20.5790081] yes=35,no=36,missing=35
					35:leaf=-0.0119010098
					36:leaf=0.00892890897
				18:[mm_kin_spvip<3.11888194] yes=37,no=38,missing=37
					37:leaf=-0.0137376897
					38:leaf=-0.0184622519
		4:[mm_kin_spvip<3.43865108] yes=9,no=10,missing=9
			9:[mm_kin_sl3d<6.53347158] yes=19,no=20,missing=19
				19:[mm_iso<0.841775239] yes=39,no=40,missing=39
					39:leaf=-0.000908876245
					40:leaf=0.0129254553
				20:[mm_kin_spvip<2.34286451] yes=41,no=42,missing=41
					41:leaf=0.0182955731
					42:leaf=0.0140478881
			10:[mm_otherVtxMaxProb2<0.514255345] yes=21,no=22,missing=21
				21:[mm_iso<0.893931687] yes=43,no=44,missing=43
					43:leaf=-0.00523686502
					44:leaf=0.0104382737
				22:[mm_kin_spvip<4.29505634] yes=45,no=46,missing=45
					45:leaf=-0.00329734618
					46:leaf=-0.01514812
	2:[mm_kin_alphaBS<0.106203608] yes=5,no=6,missing=5
		5:[mm_iso<0.839544594] yes=11,no=12,missing=11
			11:[mm_kin_spvip<2.27288985] yes=23,no=24,missing=23
				23:[mm_iso<0.695311427] yes=47,no=48,missing=47
					47:leaf=-0.0140625192
					48:leaf=-0.000844859227
				24:[mm_iso<0.759079516] yes=49,no=50,missing=49
					49:leaf=-0.0182449147
					50:leaf=-0.0141851604
			12:[mm_kin_spvip<2.85782909] yes=25,no=26,missing=25
				25:[mm_kin_sl3d<5.54123259] yes=51,no=52,missing=51
					51:leaf=0.00660502352
					52:leaf=0.0135342823
				26:[mm_kin_spvip<4.05740547] yes=53,no=54,missing=53
					53:leaf=-0.00306160096
					54:leaf=-0.0162869785
		6:[mm_kin_alphaBS<0.166594446] yes=13,no=14,missing=13
			13:[mm_iso<0.884994924] yes=27,no=28,missing=27
				27:[mm_kin_spvip<2.30772829] yes=55,no=56,missing=55
					55:leaf=-0.0137374504
					56:leaf=-0.0183873121
				28:[mm_kin_spvip<2.72527075] yes=57,no=58,missing=57
					57:leaf=0.00389410369
					58:leaf=-0.0126684736
			14:[mm_kin_alphaBS<0.209001645] yes=29,no=30,missing=29
				29:[mm_iso<0.96246469] yes=59,no=60,missing=59
					59:leaf=-0.0182617903
					60:leaf=-0.0104716588
				30:leaf=-0.0188436788
booster[7]:
0:[mm_kin_alphaBS<0.0581234992] yes=1,no=2,missing=1
	1:[mm_iso<0.719798982] yes=3,no=4,missing=3
		3:[mm_kin_spvip<1.96999252] yes=7,no=8,missing=7
			7:[mm_kin_sl3d<10.5168056] yes=15,no=16,missing=15
				15:[mm_m1iso<0.588526785] yes=31,no=32,missing=31
					31:leaf=-0.012591322
					32:leaf=-0.0014858183
				16:[mm_kin_sl3d<14.3286152] yes=33,no=34,missing=33
					33:leaf=0.00731487712
					34:leaf=0.0167878103
			8:[mm_kin_sl3d<24.2433872] yes=17,no=18,missing=17
				17:[mm_kin_spvip<2.72527075] yes=35,no=36,missing=35
					35:leaf=-0.0127726113
					36:leaf=-0.0180653054
				18:[mm_kin_spvip<3.5015173] yes=37,no=38,missing=37
					37:leaf=0.0150457816
					38:leaf=-0.016929375
		4:[mm_kin_spvip<3.43865108] yes=9,no=10,missing=9
			9:[mm_kin_sl3d<6.38842058] yes=19,no=20,missing=19
				19:[mm_iso<0.86328727] yes=39,no=40,missing=39
					39:leaf=-0.000417707808
					40:leaf=0.013104694
				20:[mm_kin_spvip<2.65183473] yes=41,no=42,missing=41
					41:leaf=0.0180524997
					42:leaf=0.0128909396
			10:[mm_otherVtxMaxProb2<0.514255345] yes=21,no=22,missing=21
				21:[mm_iso<0.91454953] yes=43,no=44,missing=43
					43:leaf=-0.00455795741
					44:leaf=0.011375986
				22:[mm_kin_spvip<4.29505634] yes=45,no=46,missing=45
					45:leaf=-0.00333219394
					46:leaf=-0.014928381
	2:[mm_kin_alphaBS<0.115157545] yes=5,no=6,missing=5
		5:[mm_iso<0.839544594] yes=11,no=12,missing=11
			11:[mm_kin_spvip<2.20553255] yes=23,no=24,missing=23
				23:[mm_iso<0.721947193] yes=47,no=48,missing=47
					47:leaf=-0.0131283887
					48:leaf=-0
				24:[mm_iso<0.759079516] yes=49,no=50,missing=49
					49:leaf=-0.0181277972
					50:leaf=-0.0140759684
			12:[mm_kin_spvip<2.95733476] yes=25,no=26,missing=25
				25:[mm_kin_spvip<1.96999252] yes=51,no=52,missing=51
					51:leaf=0.0128070368
					52:leaf=0.0054369974
				26:[mm_kin_spvip<4.05740547] yes=53,no=54,missing=53
					53:leaf=-0.00335982023
					54:leaf=-0.015779376
		6:[mm_kin_alphaBS<0.166594446] yes=13,no=14,missing=13
			13:[mm_iso<0.884994924] yes=27,no=28,missing=27
				27:[mm_kin_spvip<2.23934078] yes=55,no=56,missing=55
					55:leaf=-0.0136437118
					56:leaf=-0.0181911588
				28:[mm_kin_spvip<2.69011426] yes=57,no=58,missing=57
					57:leaf=0.00249947724
					58:leaf=-0.012574438
			14:[mm_kin_alphaBS<0.236895189] yes=29,no=30,missing=29
				29:[mm_iso<0.96246469] yes=59,no=60,missing=59
					59:leaf=-0.0182272978
					60:leaf=-0.0122562321
				30:leaf=-0.0186931305
booster[8]:
0:[mm_kin_alphaBS<0.060822919] yes=1,no=2,missing=1
	1:[mm_iso<0.728415549] yes=3,no=4,missing=3
		3:[mm_kin_spvip<2.03967834] yes=7,no=8,missing=7
			7:[mm_kin_sl3d<9.55433559] yes=15,no=16,missing=15
				15:[mm_iso<0.629347861] yes=31,no=32,missing=31
					31:leaf=-0.0126035921
					32:leaf=-0.00208525872
				16:[mm_kin_sl3d<13.9600496] yes=33,no=34,missing=33
					33:leaf=0.00654250197
					34:leaf=0.0166071896
			8:[mm_kin_sl3d<23.6314335] yes=17,no=18,missing=17
				17:[mm_kin_spvip<2.65183473] yes=35,no=36,missing=35
					35:leaf=-0.0126885287
					36:leaf=-0.0177607052
				18:[mm_kin_spvip<3.5015173] yes=37,no=38,missing=37
					37:leaf=0.0144595383
					38:leaf=-0.0168996975
		4:[mm_kin_spvip<3.43865108] yes=9,no=10,missing=9
			9:[mm_kin_sl3d<6.64605474] yes=19,no=20,missing=19
				19:[mm_iso<0.86328727] yes=39,no=40,missing=39
					39:leaf=0.000643393316
					40:leaf=0.0133486949
				20:[mm_kin_spvip<2.65183473] yes=41,no=42,missing=41
					41:leaf=0.0179459695
					42:leaf=0.0127443653
			10:[mm_otherVtxMaxProb2<0.524900913] yes=21,no=22,missing=21
				21:[mm_iso<0.883134604] yes=43,no=44,missing=43
					43:leaf=-0.00741599314
					44:leaf=0.010598598
				22:[mm_kin_spvip<5.1786952] yes=45,no=46,missing=45
					45:leaf=-0.0057559656
					46:leaf=-0.0160515681
	2:[mm_kin_alphaBS<0.115157545] yes=5,no=6,missing=5
		5:[mm_iso<0.824163854] yes=11,no=12,missing=11
			11:[mm_kin_spvip<1.87594986] yes=23,no=24,missing=23
				23:[mm_iso<0.682002842] yes=47,no=48,missing=47
					47:leaf=-0.0137252184
					48:leaf=-0.000457448245
				24:[mm_iso<0.739339113] yes=49,no=50,missing=49
					49:leaf=-0.0178292263
					50:leaf=-0.0134826833
			12:[mm_kin_spvip<2.85782909] yes=25,no=26,missing=25
				25:[mm_kin_spvip<2.03967834] yes=51,no=52,missing=51
					51:leaf=0.0122112054
					52:leaf=0.00445504393
				26:[mm_kin_spvip<4.02733517] yes=53,no=54,missing=53
					53:leaf=-0.00386141986
					54:leaf=-0.0162133407
		6:[mm_kin_alphaBS<0.166594446] yes=13,no=14,missing=13
			13:[mm_iso<0.884994924] yes=27,no=28,missing=27
				27:[mm_kin_spvip<2.69011426] yes=55,no=56,missing=55
					55:leaf=-0.0147671876
					56:leaf=-0.0182930361
				28:[mm_kin_spvip<2.51462126] yes=57,no=58,missing=57
					57:leaf=0.00369805051
					58:leaf=-0.0115022296
			14:[mm_kin_alphaBS<0.248304889] yes=29,no=30,missing=29
				29:[mm_iso<0.96246469] yes=59,no=60,missing=59
					59:leaf=-0.0180888567
					60:leaf=-0.0120001305
				30:leaf=-0.0185350925
booster[9]:
0:[mm_kin_alphaBS<0.0581234992] yes=1,no=2,missing=1
	1:[mm_iso<0.717590868] yes=3,no=4,missing=3
		3:[mm_kin_spvip<2.03967834] yes=7,no=8,missing=7
			7:[mm_kin_sl3d<10.5168056] yes=15,no=16,missing=15
				15:[mm_iso<0.629347861] yes=31,no=32,missing=31
					31:leaf=-0.0119757019
					32:leaf=-0.000984000042
				16:[mm_kin_sl3d<16.5799236] yes=33,no=34,missing=33
					33:leaf=0.00844232459
					34:leaf=0.0169183072
			8:[mm_otherVtxMaxProb2<0.359561056] yes=17,no=18,missing=17
				17:[mm_kin_sl3d<19.0012455] yes=35,no=36,missing=35
					35:leaf=-0.0104131866
					36:leaf=0.0101602003
				18:[mm_kin_spvip<2.82497382] yes=37,no=38,missing=37
					37:leaf=-0.0121629303
					38:leaf=-0.0177458283
		4:[mm_kin_spvip<3.27996802] yes=9,no=10,missing=9
			9:[mm_kin_sl3d<6.38842058] yes=19,no=20,missing=19
				19:[mm_iso<0.86328727] yes=39,no=40,missing=39
					39:leaf=0.000333620963
					40:leaf=0.0133681521
				20:[mm_kin_sl3d<10.1427269] yes=41,no=42,missing=41
					41:leaf=0.0154225789
					42:leaf=0.0179966222
			10:[mm_iso<0.902678132] yes=21,no=22,missing=21
				21:[mm_kin_spvip<3.77747035] yes=43,no=44,missing=43
					43:leaf=-0.00460983813
					44:leaf=-0.015280351
				22:[mm_kin_spvip<5.56551647] yes=45,no=46,missing=45
					45:leaf=0.00723844161
					46:leaf=-0.0115551744
	2:[mm_kin_alphaBS<0.115157545] yes=5,no=6,missing=5
		5:[mm_iso<0.839544594] yes=11,no=12,missing=11
			11:[mm_kin_spvip<2.20553255] yes=23,no=24,missing=23
				23:[mm_iso<0.693169236] yes=47,no=48,missing=47
					47:leaf=-0.0139102833
					48:leaf=-0.00117333117
				24:[mm_kin_spvip<3.1504643] yes=49,no=50,missing=49
					49:leaf=-0.0152940797
					50:leaf=-0.0181134474
			12:[mm_kin_spvip<3.1504643] yes=25,no=26,missing=25
				25:[mm_kin_spvip<2.17231464] yes=51,no=52,missing=51
					51:leaf=0.0121438596
					52:leaf=0.00375744933
				26:[mm_kin_spvip<4.05740547] yes=53,no=54,missing=53
					53:leaf=-0.00412260834
					54:leaf=-0.0156252086
		6:[mm_kin_alphaBS<0.161639944] yes=13,no=14,missing=13
			13:[mm_iso<0.911117077] yes=27,no=28,missing=27
				27:[mm_kin_spvip<2.54900789] yes=55,no=56,missing=55
					55:leaf=-0.0134346848
					56:leaf=-0.0179824643
				28:[mm_kin_spvip<3.37439609] yes=57,no=58,missing=57
					57:leaf=0.00234182109
					58:leaf=-0.014582715
			14:[mm_kin_alphaBS<0.231334314] yes=29,no=30,missing=29
				29:[mm_iso<0.96246469] yes=59,no=60,missing=59
					59:leaf=-0.0178493857
					60:leaf=-0.0109480955
				30:leaf=-0.01837085
booster[10]:
0:[mm_kin_alphaBS<0.060822919] yes=1,no=2,missing=1
	1:[mm_iso<0.724146485] yes=3,no=4,missing=3
		3:[mm_kin_spvip<1.96999252] yes=7,no=8,missing=7
			7:[mm_kin_sl3d<9.63208199] yes=15,no=16,missing=15
				15:[mm_iso<0.629347861] yes=29,no=30,missing=29
					29:leaf=-0.0122752022
					30:leaf=-0.000991017791
				16:[mm_kin_sl3d<13.9600496] yes=31,no=32,missing=31
					31:leaf=0.00620069122
					32:leaf=0.0162219424
			8:[mm_kin_sl3d<18.3259029] yes=17,no=18,missing=17
				17:[mm_kin_spvip<2.51462126] yes=33,no=34,missing=33
					33:leaf=-0.0127158165
					34:leaf=-0.0175387394
				18:[mm_kin_spvip<3.46993804] yes=35,no=36,missing=35
					35:leaf=0.0112626059
					36:leaf=-0.0170292873
		4:[mm_kin_spvip<3.5015173] yes=9,no=10,missing=9
			9:[mm_kin_sl3d<6.53347158] yes=19,no=20,missing=19
				19:[mm_iso<0.86328727] yes=37,no=38,missing=37
					37:leaf=4.67039645e-05
					38:leaf=0.0129552875
				20:[mm_kin_spvip<2.65183473] yes=39,no=40,missing=39
					39:leaf=0.0176214781
					40:leaf=0.0121462131
			10:[mm_iso<0.902678132] yes=21,no=22,missing=21
				21:[mm_otherVtxMaxProb2<0.156591147] yes=41,no=42,missing=41
					41:leaf=-0
					42:leaf=-0.0146019822
				22:[mm_kin_spvip<5.64775801] yes=43,no=44,missing=43
					43:leaf=0.0057991324
					44:leaf=-0.0115175266
	2:[mm_kin_alphaBS<0.110866815] yes=5,no=6,missing=5
		5:[mm_iso<0.815590501] yes=11,no=12,missing=11
			11:[mm_kin_spvip<2.17231464] yes=23,no=24,missing=23
				23:[mm_iso<0.693169236] yes=45,no=46,missing=45
					45:leaf=-0.0137883443
					46:leaf=-0.00206959806
				24:[mm_kin_spvip<2.82497382] yes=47,no=48,missing=47
					47:leaf=-0.0148637844
					48:leaf=-0.0178308543
			12:[mm_kin_spvip<2.85782909] yes=25,no=26,missing=25
				25:[mm_iso<0.890437961] yes=49,no=50,missing=49
					49:leaf=0.00333257811
					50:leaf=0.0116463862
				26:[mm_kin_spvip<4.05740547] yes=51,no=52,missing=51
					51:leaf=-0.00355325802
					52:leaf=-0.0158188771
		6:[mm_kin_alphaBS<0.17677559] yes=13,no=14,missing=13
			13:[mm_iso<0.873667896] yes=27,no=28,missing=27
				27:[mm_kin_spvip<2.30772829] yes=53,no=54,missing=53
					53:leaf=-0.0138552207
					54:leaf=-0.0178688504
				28:[mm_kin_spvip<2.95733476] yes=55,no=56,missing=55
					55:leaf=0.000875902129
					56:leaf=-0.0139946574
			14:leaf=-0.0181697309
booster[11]:
0:[mm_kin_alphaBS<0.0581234992] yes=1,no=2,missing=1
	1:[mm_iso<0.719798982] yes=3,no=4,missing=3
		3:[mm_kin_spvip<1.78403831] yes=7,no=8,missing=7
			7:[mm_kin_sl3d<9.17615032] yes=15,no=16,missing=15
				15:[mm_m1iso<0.653697133] yes=31,no=32,missing=31
					31:leaf=-0.0113402409
					32:leaf=0.000224993491
				16:[mm_kin_sl3d<13.7799349] yes=33,no=34,missing=33
					33:leaf=0.00628788676
					34:leaf=0.0163464323
			8:[mm_kin_sl3d<18.3259029] yes=17,no=18,missing=17
				17:[mm_kin_spvip<2.54900789] yes=35,no=36,missing=35
					35:leaf=-0.0120487139
					36:leaf=-0.0174714047
				18:[mm_kin_spvip<3.1504643] yes=37,no=38,missing=37
					37:leaf=0.0130517315
					38:leaf=-0.01608878
		4:[mm_kin_spvip<3.43865108] yes=9,no=10,missing=9
			9:[mm_kin_sl3d<6.60767078] yes=19,no=20,missing=19
				19:[mm_iso<0.833044112] yes=39,no=40,missing=39
					39:leaf=-0.00100862433
					40:leaf=0.0123956287
				20:[mm_kin_spvip<2.34286451] yes=41,no=42,missing=41
					41:leaf=0.0175485015
					42:leaf=0.0137547068
			10:[mm_otherVtxMaxProb2<0.359561056] yes=21,no=22,missing=21
				21:[mm_iso<0.900945961] yes=43,no=44,missing=43
					43:leaf=-0.00280362158
					44:leaf=0.0127066802
				22:[mm_kin_spvip<4.08820772] yes=45,no=46,missing=45
					45:leaf=-0.00101781508
					46:leaf=-0.0134178018
	2:[mm_kin_alphaBS<0.106203608] yes=5,no=6,missing=5
		5:[mm_iso<0.828769803] yes=11,no=12,missing=11
			11:[mm_kin_spvip<2.10541868] yes=23,no=24,missing=23
				23:[mm_iso<0.682002842] yes=47,no=48,missing=47
					47:leaf=-0.0132474788
					48:leaf=-0.000826003845
				24:[mm_kin_spvip<3.1504643] yes=49,no=50,missing=49
					49:leaf=-0.0147934649
					50:leaf=-0.0178600159
			12:[mm_kin_spvip<2.92410874] yes=25,no=26,missing=25
				25:[mm_kin_vtx_chi2dof<2.32067585] yes=51,no=52,missing=51
					51:leaf=0.0114800055
					52:leaf=0.00190487818
				26:[mm_kin_spvip<3.99689126] yes=53,no=54,missing=53
					53:leaf=-0.00317604328
					54:leaf=-0.0149279647
		6:[mm_kin_alphaBS<0.151735857] yes=13,no=14,missing=13
			13:[mm_iso<0.873667896] yes=27,no=28,missing=27
				27:[mm_kin_spvip<2.13837886] yes=55,no=56,missing=55
					55:leaf=-0.0123520624
					56:leaf=-0.0175331142
				28:[mm_kin_spvip<3.08669972] yes=57,no=58,missing=57
					57:leaf=0.00284233829
					58:leaf=-0.0135035487
			14:[mm_kin_alphaBS<0.220252693] yes=29,no=30,missing=29
				29:[mm_iso<0.892185032] yes=59,no=60,missing=59
					59:leaf=-0.0176184084
					60:leaf=-0.0117559712
				30:leaf=-0.0180613454
booster[12]:
0:[mm_kin_alphaBS<0.0581234992] yes=1,no=2,missing=1
	1:[mm_iso<0.695311427] yes=3,no=4,missing=3
		3:[mm_kin_spvip<1.93819356] yes=7,no=8,missing=7
			7:[mm_kin_sl3d<9.71575832] yes=15,no=16,missing=15
				15:[mm_iso<0.581344068] yes=31,no=32,missing=31
					31:leaf=-0.0133527825
					32:leaf=-0.00363488076
				16:[mm_kin_sl3d<14.3286152] yes=33,no=34,missing=33
					33:leaf=0.00534424372
					34:leaf=0.0156538952
			8:[mm_kin_sl3d<19.7533016] yes=17,no=18,missing=17
				17:[mm_kin_spvip<2.48098469] yes=35,no=36,missing=35
					35:leaf=-0.013033933
					36:leaf=-0.0173355155
				18:[mm_kin_spvip<3.18166542] yes=37,no=38,missing=37
					37:leaf=0.0126910703
					38:leaf=-0.016022006
		4:[mm_kin_spvip<3.1504643] yes=9,no=10,missing=9
			9:[mm_kin_sl3d<6.35359669] yes=19,no=20,missing=19
				19:[mm_iso<0.833044112] yes=39,no=40,missing=39
					39:leaf=-0.00222392124
					40:leaf=0.0123333549
				20:[mm_kin_sl3d<10.5168056] yes=41,no=42,missing=41
					41:leaf=0.0148971844
					42:leaf=0.0175946839
			10:[mm_iso<0.902678132] yes=21,no=22,missing=21
				21:[mm_kin_spvip<3.90479231] yes=43,no=44,missing=43
					43:leaf=-0.00574754411
					44:leaf=-0.0155172013
				22:[mm_kin_spvip<5.25173569] yes=45,no=46,missing=45
					45:leaf=0.00837470032
					46:leaf=-0.0106266197
	2:[mm_kin_alphaBS<0.115157545] yes=5,no=6,missing=5
		5:[mm_iso<0.843963385] yes=11,no=12,missing=11
			11:[mm_kin_spvip<2.10541868] yes=23,no=24,missing=23
				23:[mm_iso<0.695311427] yes=47,no=48,missing=47
					47:leaf=-0.012971337
					48:leaf=-0
				24:[mm_iso<0.76777339] yes=49,no=50,missing=49
					49:leaf=-0.0172832739
					50:leaf=-0.0128799435
			12:[mm_kin_spvip<2.92410874] yes=25,no=26,missing=25
				25:[mm_kin_spvip<2.00251913] yes=51,no=52,missing=51
					51:leaf=0.0123551255
					52:leaf=0.00489301886
				26:[mm_kin_spvip<4.02733517] yes=53,no=54,missing=53
					53:leaf=-0.00300266943
					54:leaf=-0.0150755243
		6:[mm_kin_alphaBS<0.166594446] yes=13,no=14,missing=13
			13:[mm_iso<0.91634655] yes=27,no=28,missing=27
				27:[mm_kin_spvip<2.34286451] yes=55,no=56,missing=55
					55:leaf=-0.0125851855
					56:leaf=-0.017439317
				28:[mm_kin_spvip<3.40654969] yes=57,no=58,missing=57
					57:leaf=0.00218842807
					58:leaf=-0.013921544
			14:[mm_kin_alphaBS<0.231334314] yes=29,no=30,missing=29
				29:[mm_iso<0.96246469] yes=59,no=60,missing=59
					59:leaf=-0.0174755733
					60:leaf=-0.0109000811
				30:leaf=-0.0179254971
booster[13]:
0:[mm_kin_alphaBS<0.060822919] yes=1,no=2,missing=1
	1:[mm_iso<0.704293191] yes=3,no=4,missing=3
		3:[mm_kin_spvip<1.87594986] yes=7,no=8,missing=7
			7:[mm_kin_sl3d<10.2329855] yes=15,no=16,missing=15
				15:[mm_m1iso<0.663255572] yes=31,no=32,missing=31
					31:leaf=-0.0111767109
					32:leaf=-0
				16:[mm_kin_sl3d<14.3286152] yes=33,no=34,missing=33
					33:leaf=0.00640355982
					34:leaf=0.0156404413
			8:[mm_kin_sl3d<23.6314335] yes=17,no=18,missing=17
				17:[mm_kin_spvip<2.54900789] yes=35,no=36,missing=35
					35:leaf=-0.0117529556
					36:leaf=-0.0171001535
				18:[mm_kin_spvip<3.80848956] yes=37,no=38,missing=37
					37:leaf=0.0136161037
					38:leaf=-0.0164333489
		4:[mm_kin_spvip<3.27996802] yes=9,no=10,missing=9
			9:[mm_kin_sl3d<6.53347158] yes=19,no=20,missing=19
				19:[mm_iso<0.830861151] yes=39,no=40,missing=39
					39:leaf=-0.00171368441
					40:leaf=0.0121789714
				20:[mm_kin_sl3d<10.1427269] yes=41,no=42,missing=41
					41:leaf=0.0146720903
					42:leaf=0.0174155235
			10:[mm_iso<0.902678132] yes=21,no=22,missing=21
				21:[mm_otherVtxMaxProb2<0.281022996] yes=43,no=44,missing=43
					43:leaf=-0
					44:leaf=-0.0141882729
				22:[mm_kin_spvip<5.56551647] yes=45,no=46,missing=45
					45:leaf=0.00698610209
					46:leaf=-0.011191858
	2:[mm_kin_alphaBS<0.115157545] yes=5,no=6,missing=5
		5:[mm_iso<0.815590501] yes=11,no=12,missing=11
			11:[mm_kin_spvip<2.10541868] yes=23,no=24,missing=23
				23:[mm_iso<0.643325806] yes=47,no=48,missing=47
					47:leaf=-0.0143309245
					48:leaf=-0.00348954066
				24:[mm_kin_spvip<2.89142156] yes=49,no=50,missing=49
					49:leaf=-0.0147761516
					50:leaf=-0.0174490474
			12:[mm_kin_spvip<2.75842667] yes=25,no=26,missing=25
				25:[mm_iso<0.911117077] yes=51,no=52,missing=51
					51:leaf=0.00424491707
					52:leaf=0.0118768318
				26:[mm_kin_spvip<3.77747035] yes=53,no=54,missing=53
					53:leaf=-0.00318558444
					54:leaf=-0.0146912523
		6:[mm_kin_alphaBS<0.166594446] yes=13,no=14,missing=13
			13:[mm_iso<0.884994924] yes=27,no=28,missing=27
				27:[mm_kin_spvip<2.54900789] yes=55,no=56,missing=55
					55:leaf=-0.013790587
					56:leaf=-0.0174983237
				28:[mm_kin_spvip<2.51462126] yes=57,no=58,missing=57
					57:leaf=0.00362815242
					58:leaf=-0.011413536
			14:[mm_kin_alphaBS<0.231334314] yes=29,no=30,missing=29
				29:[mm_iso<0.86963439] yes=59,no=60,missing=59
					59:leaf=-0.017514931
					60:leaf=-0.0131231798
				30:leaf=-0.0177808516
booster[14]:
0:[mm_kin_alphaBS<0.0581234992] yes=1,no=2,missing=1
	1:[mm_iso<0.699750721] yes=3,no=4,missing=3
		3:[mm_kin_spvip<1.87594986] yes=7,no=8,missing=7
			7:[mm_kin_sl3d<9.63208199] yes=15,no=16,missing=15
				15:[mm_m1iso<0.585902214] yes=31,no=32,missing=31
					31:leaf=-0.0125794541
					32:leaf=-0.00329221389
				16:[mm_kin_sl3d<13.7799349] yes=33,no=34,missing=33
					33:leaf=0.00502955168
					34:leaf=0.0153926993
			8:[mm_otherVtxMaxProb2<0.414095372] yes=17,no=18,missing=17
				17:[mm_kin_spvip<3.24509501] yes=35,no=36,missing=35
					35:leaf=0.00762173533
					36:leaf=-0.0125420149
				18:[mm_kin_spvip<2.48098469] yes=37,no=38,missing=37
					37:leaf=-0.0105096996
					38:leaf=-0.0167705808
		4:[mm_kin_spvip<3.27996802] yes=9,no=10,missing=9
			9:[mm_kin_sl3d<6.27885771] yes=19,no=20,missing=19
				19:[mm_iso<0.841775239] yes=39,no=40,missing=39
					39:leaf=-0.0017990924
					40:leaf=0.0121327108
				20:[mm_kin_sl3d<9.96562672] yes=41,no=42,missing=41
					41:leaf=0.0143627711
					42:leaf=0.0172663964
			10:[mm_iso<0.900945961] yes=21,no=22,missing=21
				21:[mm_kin_spvip<3.83845544] yes=43,no=44,missing=43
					43:leaf=-0.00581950648
					44:leaf=-0.0149229039
				22:[mm_kin_spvip<4.89914274] yes=45,no=46,missing=45
					45:leaf=0.00818914454
					46:leaf=-0.00920505542
	2:[mm_kin_alphaBS<0.110866815] yes=5,no=6,missing=5
		5:[mm_iso<0.839544594] yes=11,no=12,missing=11
			11:[mm_kin_spvip<2.10541868] yes=23,no=24,missing=23
				23:[mm_iso<0.693169236] yes=47,no=48,missing=47
					47:leaf=-0.0129171191
					48:leaf=-0.000429444888
				24:[mm_iso<0.750410855] yes=49,no=50,missing=49
					49:leaf=-0.017079642
					50:leaf=-0.0129996715
			12:[mm_kin_spvip<2.75842667] yes=25,no=26,missing=25
				25:[mm_kin_sl3d<5.67990065] yes=51,no=52,missing=51
					51:leaf=0.00628530979
					52:leaf=0.0126842242
				26:[mm_kin_spvip<4.05740547] yes=53,no=54,missing=53
					53:leaf=-0.00186971948
					54:leaf=-0.0148346024
		6:[mm_kin_alphaBS<0.166594446] yes=13,no=14,missing=13
			13:[mm_iso<0.867636859] yes=27,no=28,missing=27
				27:[mm_kin_spvip<2.17231464] yes=55,no=56,missing=55
					55:leaf=-0.012982592
					56:leaf=-0.017179111
				28:[mm_kin_spvip<2.69011426] yes=57,no=58,missing=57
					57:leaf=0.00286189187
					58:leaf=-0.0121874195
			14:[mm_kin_alphaBS<0.248304889] yes=29,no=30,missing=29
				29:[mm_iso<0.96246469] yes=59,no=60,missing=59
					59:leaf=-0.0172397923
					60:leaf=-0.0115783475
				30:leaf=-0.0176493209
booster[15]:
0:[mm_kin_alphaBS<0.0555440448] yes=1,no=2,missing=1
	1:[mm_iso<0.699750721] yes=3,no=4,missing=3
		3:[mm_kin_spvip<2.13837886] yes=7,no=8,missing=7
			7:[mm_kin_sl3d<10.6172667] yes=15,no=16,missing=15
				15:[mm_kin_sl3d<7.61152458] yes=31,no=32,missing=31
					31:leaf=-0.0115156295
					32:leaf=-0.00068255316
				16:[mm_kin_sl3d<16.5799236] yes=33,no=34,missing=33
					33:leaf=0.00721337134
					34:leaf=0.0159130599
			8:[mm_otherVtxMaxProb2<0.246544361] yes=17,no=18,missing=17
				17:[mm_kin_spvip<3.31153059] yes=35,no=36,missing=35
					35:leaf=0.00912401639
					36:leaf=-0.0100969179
				18:[mm_kin_spvip<2.92410874] yes=37,no=38,missing=37
					37:leaf=-0.0120710796
					38:leaf=-0.016978763
		4:[mm_kin_spvip<3.53224063] yes=9,no=10,missing=9
			9:[mm_kin_sl3d<6.96736526] yes=19,no=20,missing=19
				19:[mm_iso<0.86328727] yes=39,no=40,missing=39
					39:leaf=0.000335887627
					40:leaf=0.0128876334
				20:[mm_kin_spvip<2.5833261] yes=41,no=42,missing=41
					41:leaf=0.0169671606
					42:leaf=0.0122012803
			10:[mm_otherVtxMaxProb2<0.263909519] yes=21,no=22,missing=21
				21:[mm_m1iso<0.793573618] yes=43,no=44,missing=43
					43:leaf=-0.00610135728
					44:leaf=0.0122768404
				22:[mm_iso<0.902678132] yes=45,no=46,missing=45
					45:leaf=-0.0147443796
					46:leaf=-0.00447770953
	2:[mm_kin_alphaBS<0.115157545] yes=5,no=6,missing=5
		5:[mm_iso<0.839544594] yes=11,no=12,missing=11
			11:[mm_kin_spvip<2.10541868] yes=23,no=24,missing=23
				23:[mm_iso<0.682002842] yes=47,no=48,missing=47
					47:leaf=-0.0129286451
					48:leaf=-0.000605401816
				24:[mm_iso<0.750410855] yes=49,no=50,missing=49
					49:leaf=-0.0169523917
					50:leaf=-0.0131919514
			12:[mm_kin_spvip<2.82497382] yes=25,no=26,missing=25
				25:[mm_kin_spvip<1.96999252] yes=51,no=52,missing=51
					51:leaf=0.0123337433
					52:leaf=0.00536979502
				26:[mm_kin_spvip<3.99689126] yes=53,no=54,missing=53
					53:leaf=-0.00261003291
					54:leaf=-0.014802184
		6:[mm_kin_alphaBS<0.171580881] yes=13,no=14,missing=13
			13:[mm_iso<0.873667896] yes=27,no=28,missing=27
				27:[mm_kin_spvip<2.37669373] yes=55,no=56,missing=55
					55:leaf=-0.013600599
					56:leaf=-0.0171704795
				28:[mm_kin_spvip<3.08669972] yes=57,no=58,missing=57
					57:leaf=0.000558722182
					58:leaf=-0.014073763
			14:[mm_kin_alphaBS<0.248304889] yes=29,no=30,missing=29
				29:[mm_iso<0.96246469] yes=59,no=60,missing=59
					59:leaf=-0.0171029922
					60:leaf=-0.0113506466
				30:leaf=-0.0175205022
booster[16]:
0:[mm_kin_alphaBS<0.0581234992] yes=1,no=2,missing=1
	1:[mm_iso<0.699750721] yes=3,no=4,missing=3
		3:[mm_kin_spvip<1.87594986] yes=7,no=8,missing=7
			7:[mm_kin_sl3d<11.9777069] yes=15,no=16,missing=15
				15:[mm_kin_sl3d<7.46351337] yes=31,no=32,missing=31
					31:leaf=-0.0109574506
					32:leaf=0.0005188426
				16:[mm_nBMTrks<2] yes=33,no=34,missing=33
					33:leaf=0.0154954763
					34:leaf=0.00640351465
			8:[mm_kin_sl3d<19.7533016] yes=17,no=18,missing=17
				17:[mm_kin_spvip<2.51462126] yes=35,no=36,missing=35
					35:leaf=-0.011883867
					36:leaf=-0.0167726018
				18:[mm_kin_spvip<3.27996802] yes=37,no=38,missing=37
					37:leaf=0.0122959055
					38:leaf=-0.0156247867
		4:[mm_kin_spvip<3.5015173] yes=9,no=10,missing=9
			9:[mm_kin_sl3d<6.8421874] yes=19,no=20,missing=19
				19:[mm_iso<0.841775239] yes=39,no=40,missing=39
					39:leaf=-0.00133050524
					40:leaf=0.0121868188
				20:[mm_kin_spvip<2.5833261] yes=41,no=42,missing=41
					41:leaf=0.0168219972
					42:leaf=0.0119152712
			10:[mm_otherVtxMaxProb2<0.314650178] yes=21,no=22,missing=21
				21:[mm_iso<0.91634655] yes=43,no=44,missing=43
					43:leaf=-0.00244691875
					44:leaf=0.0129918586
				22:[mm_kin_spvip<4.29505634] yes=45,no=46,missing=45
					45:leaf=-0.00349821523
					46:leaf=-0.0136924526
	2:[mm_kin_alphaBS<0.110866815] yes=5,no=6,missing=5
		5:[mm_iso<0.848219514] yes=11,no=12,missing=11
			11:[mm_kin_spvip<2.10541868] yes=23,no=24,missing=23
				23:[mm_iso<0.710980833] yes=47,no=48,missing=47
					47:leaf=-0.01212076
					48:leaf=0.000612122007
				24:[mm_iso<0.750410855] yes=49,no=50,missing=49
					49:leaf=-0.0168132
					50:leaf=-0.0128076756
			12:[mm_kin_spvip<2.95733476] yes=25,no=26,missing=25
				25:[mm_kin_spvip<2.03967834] yes=51,no=52,missing=51
					51:leaf=0.0122059509
					52:leaf=0.00499601243
				26:[mm_kin_spvip<4.02733517] yes=53,no=54,missing=53
					53:leaf=-0.00305790873
					54:leaf=-0.0146650076
		6:[mm_kin_alphaBS<0.161639944] yes=13,no=14,missing=13
			13:[mm_iso<0.883134604] yes=27,no=28,missing=27
				27:[mm_kin_spvip<1.8452009] yes=55,no=56,missing=55
					55:leaf=-0.0110969068
					56:leaf=-0.0167342257
				28:[mm_kin_spvip<3.18166542] yes=57,no=58,missing=57
					57:leaf=0.00176628015
					58:leaf=-0.0138862152
			14:[mm_kin_alphaBS<0.220252693] yes=29,no=30,missing=29
				29:[mm_iso<0.871638477] yes=59,no=60,missing=59
					59:leaf=-0.0170431621
					60:leaf=-0.0120269759
				30:leaf=-0.0173711907
booster[17]:
0:[mm_kin_alphaBS<0.0637381896] yes=1,no=2,missing=1
	1:[mm_iso<0.719798982] yes=3,no=4,missing=3
		3:[mm_kin_spvip<2.13837886] yes=7,no=8,missing=7
			7:[mm_kin_sl3d<10.5168056] yes=15,no=16,missing=15
				15:[mm_m1iso<0.651223481] yes=31,no=32,missing=31
					31:leaf=-0.0108671291
					32:leaf=-0
				16:[mm_kin_sl3d<15.3527088] yes=33,no=34,missing=33
					33:leaf=0.0070622135
					34:leaf=0.0157685336
			8:[mm_otherVtxMaxProb2<0.314650178] yes=17,no=18,missing=17
				17:[mm_kin_pvip<0.0109684924] yes=35,no=36,missing=35
					35:leaf=0.0106133027
					36:leaf=-0.00900041591
				18:[mm_kin_spvip<2.75842667] yes=37,no=38,missing=37
					37:leaf=-0.0116890352
					38:leaf=-0.0166260488
		4:[mm_kin_spvip<3.27996802] yes=9,no=10,missing=9
			9:[mm_kin_sl3d<6.92494392] yes=19,no=20,missing=19
				19:[mm_iso<0.86328727] yes=39,no=40,missing=39
					39:leaf=0.000729083316
					40:leaf=0.0126154982
				20:[mm_kin_spvip<2.34286451] yes=41,no=42,missing=41
					41:leaf=0.0167647842
					42:leaf=0.0133263171
			10:[mm_otherVtxMaxProb2<0.401264101] yes=21,no=22,missing=21
				21:[mm_iso<0.91454953] yes=43,no=44,missing=43
					43:leaf=-0.000523026101
					44:leaf=0.0127057629
				22:[mm_kin_spvip<4.54358482] yes=45,no=46,missing=45
					45:leaf=-0.00279903971
					46:leaf=-0.0141991638
	2:[mm_kin_alphaBS<0.119500004] yes=5,no=6,missing=5
		5:[mm_iso<0.852702022] yes=11,no=12,missing=11
			11:[mm_kin_spvip<2.10541868] yes=23,no=24,missing=23
				23:[mm_iso<0.710980833] yes=47,no=48,missing=47
					47:leaf=-0.0127110574
					48:leaf=-0.000101818783
				24:[mm_kin_spvip<3.08669972] yes=49,no=50,missing=49
					49:leaf=-0.0138512179
					50:leaf=-0.016993016
			12:[mm_kin_spvip<2.75842667] yes=25,no=26,missing=25
				25:[mm_kin_vtx_chi2dof<2.1116519] yes=51,no=52,missing=51
					51:leaf=0.0109533556
					52:leaf=0.00202016556
				26:[mm_kin_spvip<4.11769247] yes=53,no=54,missing=53
					53:leaf=-0.00262469379
					54:leaf=-0.014371152
		6:[mm_kin_alphaBS<0.166594446] yes=13,no=14,missing=13
			13:[mm_iso<0.911117077] yes=27,no=28,missing=27
				27:[mm_iso<0.798294246] yes=55,no=56,missing=55
					55:leaf=-0.0167164747
					56:leaf=-0.0118980389
				28:[mm_kin_spvip<3.40654969] yes=57,no=58,missing=57
					57:leaf=0.00164643954
					58:leaf=-0.0140289925
			14:[mm_kin_alphaBS<0.236895189] yes=29,no=30,missing=29
				29:[mm_iso<0.86963439] yes=59,no=60,missing=59
					59:leaf=-0.016991578
					60:leaf=-0.0126470691
				30:leaf=-0.0172552578
booster[18]:
0:[mm_kin_alphaBS<0.0581234992] yes=1,no=2,missing=1
	1:[mm_iso<0.688568771] yes=3,no=4,missing=3
		3:[mm_kin_spvip<1.93819356] yes=7,no=8,missing=7
			7:[mm_kin_sl3d<11.3752232] yes=15,no=16,missing=15
				15:[mm_kin_sl3d<7.09917927] yes=31,no=32,missing=31
					31:leaf=-0.0115617225
					32:leaf=-0.00111695344
				16:[mm_kin_sl3d<15.8072681] yes=33,no=34,missing=33
					33:leaf=0.00763728656
					34:leaf=0.0154651636
			8:[mm_kin_sl3d<21.0210094] yes=17,no=18,missing=17
				17:[mm_kin_spvip<2.51462126] yes=35,no=36,missing=35
					35:leaf=-0.0121322693
					36:leaf=-0.0165319145
				18:[mm_kin_spvip<3.5015173] yes=37,no=38,missing=37
					37:leaf=0.011855796
					38:leaf=-0.0158956032
		4:[mm_kin_spvip<3.18166542] yes=9,no=10,missing=9
			9:[mm_kin_sl3d<6.60767078] yes=19,no=20,missing=19
				19:[mm_iso<0.809006751] yes=39,no=40,missing=39
					39:leaf=-0.00341090467
					40:leaf=0.0113155842
				20:[mm_kin_sl3d<9.25235653] yes=41,no=42,missing=41
					41:leaf=0.0137188798
					42:leaf=0.0167121831
			10:[mm_iso<0.854801714] yes=21,no=22,missing=21
				21:[mm_kin_spvip<3.77747035] yes=43,no=44,missing=43
					43:leaf=-0.00775006833
					44:leaf=-0.0153591344
				22:[mm_kin_spvip<5.36797142] yes=45,no=46,missing=45
					45:leaf=0.00587924477
					46:leaf=-0.0111426236
	2:[mm_kin_alphaBS<0.106203608] yes=5,no=6,missing=5
		5:[mm_iso<0.819850564] yes=11,no=12,missing=11
			11:[mm_kin_spvip<1.78403831] yes=23,no=24,missing=23
				23:[mm_iso<0.659086168] yes=47,no=48,missing=47
					47:leaf=-0.0125638256
					48:leaf=-0
				24:[mm_m1iso<0.782047689] yes=49,no=50,missing=49
					49:leaf=-0.0162930917
					50:leaf=-0.0110824471
			12:[mm_kin_spvip<2.89142156] yes=25,no=26,missing=25
				25:[mm_kin_sl3d<5.62354851] yes=51,no=52,missing=51
					51:leaf=0.00441697845
					52:leaf=0.0119060148
				26:[mm_kin_spvip<4.05740547] yes=53,no=54,missing=53
					53:leaf=-0.00333195878
					54:leaf=-0.0145655982
		6:[mm_kin_alphaBS<0.156739682] yes=13,no=14,missing=13
			13:[mm_iso<0.883134604] yes=27,no=28,missing=27
				27:[mm_kin_spvip<2.30772829] yes=55,no=56,missing=55
					55:leaf=-0.0119037069
					56:leaf=-0.0166587532
				28:[mm_kin_spvip<2.95733476] yes=57,no=58,missing=57
					57:leaf=0.00297198235
					58:leaf=-0.0120745348
			14:[mm_kin_alphaBS<0.220252693] yes=29,no=30,missing=29
				29:[mm_iso<0.873667896] yes=59,no=60,missing=59
					59:leaf=-0.0167573746
					60:leaf=-0.0112606846
				30:leaf=-0.0171199031
booster[19]:
0:[mm_kin_alphaBS<0.0581234992] yes=1,no=2,missing=1
	1:[mm_iso<0.717590868] yes=3,no=4,missing=3
		3:[mm_kin_spvip<2.13837886] yes=7,no=8,missing=7
			7:[mm_kin_sl3d<10.7295294] yes=15,no=16,missing=15
				15:[mm_iso<0.612876415] yes=31,no=32,missing=31
					31:leaf=-0.0115216672
					32:leaf=-0.00114958012
				16:[mm_kin_sl3d<15.3527088] yes=33,no=34,missing=33
					33:leaf=0.00724084489
					34:leaf=0.0153891621
			8:[mm_otherVtxMaxProb2<0.314650178] yes=17,no=18,missing=17
				17:[mm_kin_sl3d<18.6628685] yes=35,no=36,missing=35
					35:leaf=-0.00923349615
					36:leaf=0.00969912112
				18:[mm_kin_spvip<2.82497382] yes=37,no=38,missing=37
					37:leaf=-0.0115291793
					38:leaf=-0.0164680723
		4:[mm_kin_spvip<3.43865108] yes=9,no=10,missing=9
			9:[mm_kin_sl3d<6.24500418] yes=19,no=20,missing=19
				19:[mm_iso<0.86328727] yes=39,no=40,missing=39
					39:leaf=-0.00055287726
					40:leaf=0.0119024087
				20:[mm_kin_spvip<2.30772829] yes=41,no=42,missing=41
					41:leaf=0.0164762437
					42:leaf=0.0126818474
			10:[mm_otherVtxMaxProb2<0.299372733] yes=21,no=22,missing=21
				21:[mm_iso<0.893931687] yes=43,no=44,missing=43
					43:leaf=-0.00164552138
					44:leaf=0.0132164583
				22:[mm_kin_spvip<4.29505634] yes=45,no=46,missing=45
					45:leaf=-0.00215322128
					46:leaf=-0.0132764149
	2:[mm_kin_alphaBS<0.106203608] yes=5,no=6,missing=5
		5:[mm_iso<0.815590501] yes=11,no=12,missing=11
			11:[mm_kin_spvip<1.87594986] yes=23,no=24,missing=23
				23:[mm_iso<0.629347861] yes=47,no=48,missing=47
					47:leaf=-0.0131587125
					48:leaf=-0.00179269654
				24:[mm_m1iso<0.770379066] yes=49,no=50,missing=49
					49:leaf=-0.0162789822
					50:leaf=-0.0118007753
			12:[mm_kin_spvip<2.85782909] yes=25,no=26,missing=25
				25:[mm_iso<0.907746375] yes=51,no=52,missing=51
					51:leaf=0.00431207335
					52:leaf=0.0117732594
				26:[mm_kin_spvip<3.83845544] yes=53,no=54,missing=53
					53:leaf=-0.00254706317
					54:leaf=-0.0137861734
		6:[mm_kin_alphaBS<0.156739682] yes=13,no=14,missing=13
			13:[mm_iso<0.871638477] yes=27,no=28,missing=27
				27:[mm_kin_spvip<1.87594986] yes=55,no=56,missing=55
					55:leaf=-0.0107393228
					56:leaf=-0.0163653549
				28:[mm_kin_spvip<3.37439609] yes=57,no=58,missing=57
					57:leaf=0.00155802234
					58:leaf=-0.0141787296
			14:[mm_kin_alphaBS<0.236895189] yes=29,no=30,missing=29
				29:[mm_iso<0.96246469] yes=59,no=60,missing=59
					59:leaf=-0.0165019501
					60:leaf=-0.00953621883
				30:leaf=-0.0170063339
booster[20]:
0:[mm_kin_alphaBS<0.0555440448] yes=1,no=2,missing=1
	1:[mm_iso<0.713200331] yes=3,no=4,missing=3
		3:[mm_kin_spvip<1.93819356] yes=7,no=8,missing=7
			7:[mm_kin_sl3d<9.63208199] yes=15,no=16,missing=15
				15:[mm_m1iso<0.653697133] yes=31,no=32,missing=31
					31:leaf=-0.010668667
					32:leaf=0.00028669255
				16:[mm_kin_sl3d<13.7799349] yes=33,no=34,missing=33
					33:leaf=0.0057944851
					34:leaf=0.0148963556
			8:[mm_kin_sl3d<19.0012455] yes=17,no=18,missing=17
				17:[mm_kin_spvip<2.65183473] yes=35,no=36,missing=35
					35:leaf=-0.0118938172
					36:leaf=-0.0164003726
				18:[mm_kin_spvip<3.5015173] yes=37,no=38,missing=37
					37:leaf=0.0112322671
					38:leaf=-0.0155011686
		4:[mm_kin_spvip<3.40654969] yes=9,no=10,missing=9
			9:[mm_kin_sl3d<6.60767078] yes=19,no=20,missing=19
				19:[mm_iso<0.86328727] yes=39,no=40,missing=39
					39:leaf=0.000343137595
					40:leaf=0.0121870479
				20:[mm_kin_spvip<2.5833261] yes=41,no=42,missing=41
					41:leaf=0.0163481403
					42:leaf=0.0118195238
			10:[mm_otherVtxMaxProb2<0.281022996] yes=21,no=22,missing=21
				21:[mm_m1iso<0.862793744] yes=43,no=44,missing=43
					43:leaf=-0.000683607941
					44:leaf=0.0132372715
				22:[mm_kin_spvip<4.7024951] yes=45,no=46,missing=45
					45:leaf=-0.00261141034
					46:leaf=-0.0139289303
	2:[mm_kin_alphaBS<0.106203608] yes=5,no=6,missing=5
		5:[mm_iso<0.839544594] yes=11,no=12,missing=11
			11:[mm_kin_spvip<2.20553255] yes=23,no=24,missing=23
				23:[mm_iso<0.675267398] yes=47,no=48,missing=47
					47:leaf=-0.0127055543
					48:leaf=-0.000366236374
				24:[mm_kin_spvip<3.1504643] yes=49,no=50,missing=49
					49:leaf=-0.0136390878
					50:leaf=-0.0166796613
			12:[mm_kin_spvip<3.24509501] yes=25,no=26,missing=25
				25:[mm_kin_spvip<2.13837886] yes=51,no=52,missing=51
					51:leaf=0.0116995638
					52:leaf=0.00398216071
				26:[mm_kin_spvip<4.05740547] yes=53,no=54,missing=53
					53:leaf=-0.00387698016
					54:leaf=-0.0143485749
		6:[mm_kin_alphaBS<0.166594446] yes=13,no=14,missing=13
			13:[mm_iso<0.884994924] yes=27,no=28,missing=27
				27:[mm_kin_spvip<2.30772829] yes=55,no=56,missing=55
					55:leaf=-0.0120372325
					56:leaf=-0.0164711475
				28:[mm_kin_spvip<3.08669972] yes=57,no=58,missing=57
					57:leaf=0.00269738515
					58:leaf=-0.0124842823
			14:[mm_kin_alphaBS<0.231334314] yes=29,no=30,missing=29
				29:[mm_iso<0.96246469] yes=59,no=60,missing=59
					59:leaf=-0.0164107177
					60:leaf=-0.0102963271
				30:leaf=-0.0168842878
booster[21]:
0:[mm_kin_alphaBS<0.0555440448] yes=1,no=2,missing=1
	1:[mm_iso<0.699750721] yes=3,no=4,missing=3
		3:[mm_kin_spvip<1.78403831] yes=7,no=8,missing=7
			7:[mm_kin_sl3d<8.56166172] yes=15,no=16,missing=15
				15:[mm_m1iso<0.653697133] yes=31,no=32,missing=31
					31:leaf=-0.0113990968
					32:leaf=-0.000616689096
				16:[mm_kin_sl3d<13.6063385] yes=33,no=34,missing=33
					33:leaf=0.00442608725
					34:leaf=0.0146406246
			8:[mm_kin_sl3d<20.5790081] yes=17,no=18,missing=17
				17:[mm_kin_spvip<2.65183473] yes=35,no=36,missing=35
					35:leaf=-0.0115260733
					36:leaf=-0.0162992179
				18:[mm_kin_spvip<3.27996802] yes=37,no=38,missing=37
					37:leaf=0.012739813
					38:leaf=-0.0149138747
		4:[mm_kin_spvip<3.11888194] yes=9,no=10,missing=9
			9:[mm_kin_sl3d<6.24500418] yes=19,no=20,missing=19
				19:[mm_iso<0.833044112] yes=39,no=40,missing=39
					39:leaf=-0.00210689171
					40:leaf=0.0113172783
				20:[mm_kin_sl3d<9.63208199] yes=41,no=42,missing=41
					41:leaf=0.0136348139
					42:leaf=0.0164129678
			10:[mm_iso<0.854801714] yes=21,no=22,missing=21
				21:[mm_otherVtxMaxProb2<0.156591147] yes=43,no=44,missing=43
					43:leaf=0.000531026511
					44:leaf=-0.0136761758
				22:[mm_kin_spvip<4.89914274] yes=45,no=46,missing=45
					45:leaf=0.00736260414
					46:leaf=-0.00960061327
	2:[mm_kin_alphaBS<0.115157545] yes=5,no=6,missing=5
		5:[mm_iso<0.815590501] yes=11,no=12,missing=11
			11:[mm_kin_spvip<1.93819356] yes=23,no=24,missing=23
				23:[mm_m1iso<0.643873513] yes=47,no=48,missing=47
					47:leaf=-0.0128678428
					48:leaf=-0.00126328855
				24:[mm_kin_spvip<2.85782909] yes=49,no=50,missing=49
					49:leaf=-0.0132178497
					50:leaf=-0.0164594911
			12:[mm_kin_spvip<2.85782909] yes=25,no=26,missing=25
				25:[mm_iso<0.907746375] yes=51,no=52,missing=51
					51:leaf=0.00413861964
					52:leaf=0.0111654541
				26:[mm_kin_spvip<4.02733517] yes=53,no=54,missing=53
					53:leaf=-0.00371819059
					54:leaf=-0.0143951066
		6:[mm_kin_alphaBS<0.166594446] yes=13,no=14,missing=13
			13:[mm_iso<0.96246469] yes=27,no=28,missing=27
				27:[mm_iso<0.817735851] yes=55,no=56,missing=55
					55:leaf=-0.0160740521
					56:leaf=-0.0104216617
				28:[mm_kin_spvip<2.69011426] yes=57,no=58,missing=57
					57:leaf=0.00514445035
					58:leaf=-0.00873665977
			14:[mm_kin_spvip<2.72527075] yes=29,no=30,missing=29
				29:[mm_kin_alphaBS<0.317298889] yes=59,no=60,missing=59
					59:leaf=-0.0137934256
					60:leaf=-0.0167553537
				30:leaf=-0.0167770609
booster[22]:
0:[mm_kin_alphaBS<0.0581234992] yes=1,no=2,missing=1
	1:[mm_iso<0.719798982] yes=3,no=4,missing=3
		3:[mm_kin_spvip<1.78403831] yes=7,no=8,missing=7
			7:[mm_kin_sl3d<8.75712681] yes=15,no=16,missing=15
				15:[mm_iso<0.591316342] yes=31,no=32,missing=31
					31:leaf=-0.0123743387
					32:leaf=-0.00273832283
				16:[mm_kin_sl3d<15.3527088] yes=33,no=34,missing=33
					33:leaf=0.00616211537
					34:leaf=0.0153806387
			8:[mm_kin_sl3d<19.0012455] yes=17,no=18,missing=17
				17:[mm_kin_spvip<2.54900789] yes=35,no=36,missing=35
					35:leaf=-0.0111737093
					36:leaf=-0.0160486605
				18:[mm_kin_spvip<3.5015173] yes=37,no=38,missing=37
					37:leaf=0.012390499
					38:leaf=-0.015353593
		4:[mm_kin_spvip<3.40654969] yes=9,no=10,missing=9
			9:[mm_kin_sl3d<6.60767078] yes=19,no=20,missing=19
				19:[mm_iso<0.86328727] yes=39,no=40,missing=39
					39:leaf=0.000159461109
					40:leaf=0.0119408788
				20:[mm_kin_spvip<2.30772829] yes=41,no=42,missing=41
					41:leaf=0.0161860064
					42:leaf=0.012519368
			10:[mm_otherVtxMaxProb2<0.524900913] yes=21,no=22,missing=21
				21:[mm_iso<0.848219514] yes=43,no=44,missing=43
					43:leaf=-0.00794473942
					44:leaf=0.0095579382
				22:[mm_kin_spvip<4.32493401] yes=45,no=46,missing=45
					45:leaf=-0.00299217924
					46:leaf=-0.0134852892
	2:[mm_kin_alphaBS<0.102013767] yes=5,no=6,missing=5
		5:[mm_iso<0.815590501] yes=11,no=12,missing=11
			11:[mm_kin_spvip<1.78403831] yes=23,no=24,missing=23
				23:[mm_iso<0.647861004] yes=47,no=48,missing=47
					47:leaf=-0.0121755619
					48:leaf=-0.000406552572
				24:[mm_kin_spvip<2.72527075] yes=49,no=50,missing=49
					49:leaf=-0.0123462258
					50:leaf=-0.0161519703
			12:[mm_kin_spvip<3.27996802] yes=25,no=26,missing=25
				25:[mm_kin_spvip<2.03967834] yes=51,no=52,missing=51
					51:leaf=0.0114160413
					52:leaf=0.00336167868
				26:[mm_kin_spvip<4.08820772] yes=53,no=54,missing=53
					53:leaf=-0.00459809368
					54:leaf=-0.0144132329
		6:[mm_kin_alphaBS<0.161639944] yes=13,no=14,missing=13
			13:[mm_iso<0.884994924] yes=27,no=28,missing=27
				27:[mm_kin_spvip<2.30772829] yes=55,no=56,missing=55
					55:leaf=-0.0117128501
					56:leaf=-0.0161448531
				28:[mm_kin_spvip<2.95733476] yes=57,no=58,missing=57
					57:leaf=0.00315833744
					58:leaf=-0.0117817093
			14:[mm_kin_alphaBS<0.220252693] yes=29,no=30,missing=29
				29:[mm_iso<0.890437961] yes=59,no=60,missing=59
					59:leaf=-0.0162305944
					60:leaf=-0.010698108
				30:leaf=-0.0166492593
booster[23]:
0:[mm_kin_alphaBS<0.0637381896] yes=1,no=2,missing=1
	1:[mm_iso<0.719798982] yes=3,no=4,missing=3
		3:[mm_kin_spvip<1.78403831] yes=7,no=8,missing=7
			7:[mm_kin_sl3d<8.56166172] yes=15,no=16,missing=15
				15:[mm_iso<0.593720853] yes=29,no=30,missing=29
					29:leaf=-0.0124152554
					30:leaf=-0.00327311805
				16:[mm_kin_sl3d<13.9600496] yes=31,no=32,missing=31
					31:leaf=0.00541894324
					32:leaf=0.0148110669
			8:[mm_otherVtxMaxProb2<0.42644757] yes=17,no=18,missing=17
				17:[mm_kin_pvip<0.0128844148] yes=33,no=34,missing=33
					33:leaf=0.00863826927
					34:leaf=-0.012032846
				18:[mm_kin_spvip<2.75842667] yes=35,no=36,missing=35
					35:leaf=-0.0102042938
					36:leaf=-0.0159625206
		4:[mm_kin_spvip<3.27996802] yes=9,no=10,missing=9
			9:[mm_kin_sl3d<6.80159473] yes=19,no=20,missing=19
				19:[mm_iso<0.867636859] yes=37,no=38,missing=37
					37:leaf=0.000699138269
					38:leaf=0.0119347693
				20:[mm_kin_spvip<2.61695862] yes=39,no=40,missing=39
					39:leaf=0.0159900282
					40:leaf=0.0111879446
			10:[mm_iso<0.900945961] yes=21,no=22,missing=21
				21:[mm_otherVtxMaxProb2<0.281022996] yes=41,no=42,missing=41
					41:leaf=-0
					42:leaf=-0.0130509315
				22:[mm_kin_spvip<5.73730326] yes=43,no=44,missing=43
					43:leaf=0.00617328379
					44:leaf=-0.0106877703
	2:[mm_kin_alphaBS<0.123877332] yes=5,no=6,missing=5
		5:[mm_iso<0.856952012] yes=11,no=12,missing=11
			11:[mm_kin_spvip<2.20553255] yes=23,no=24,missing=23
				23:[mm_iso<0.719798982] yes=45,no=46,missing=45
					45:leaf=-0.0121010374
					46:leaf=-0.000118220778
				24:[mm_kin_spvip<3.18166542] yes=47,no=48,missing=47
					47:leaf=-0.0135501111
					48:leaf=-0.0163556039
			12:[mm_kin_spvip<2.5833261] yes=25,no=26,missing=25
				25:[mm_kin_vtx_chi2dof<1.55674195] yes=49,no=50,missing=49
					49:leaf=0.0113826618
					50:leaf=0.00374591257
				26:[mm_kin_spvip<3.74675441] yes=51,no=52,missing=51
					51:leaf=-0.000670701615
					52:leaf=-0.0131390663
		6:[mm_kin_alphaBS<0.187176868] yes=13,no=14,missing=13
			13:[mm_iso<0.911117077] yes=27,no=28,missing=27
				27:[mm_iso<0.798294246] yes=53,no=54,missing=53
					53:leaf=-0.016167637
					54:leaf=-0.0122849345
				28:[mm_kin_spvip<3.37439609] yes=55,no=56,missing=55
					55:leaf=-2.66870502e-05
					56:leaf=-0.0140394103
			14:leaf=-0.0165130533
booster[24]:
0:[mm_kin_alphaBS<0.0555440448] yes=1,no=2,missing=1
	1:[mm_iso<0.688568771] yes=3,no=4,missing=3
		3:[mm_kin_spvip<2.13837886] yes=7,no=8,missing=7
			7:[mm_kin_sl3d<11.0412874] yes=15,no=16,missing=15
				15:[mm_m1iso<0.651223481] yes=31,no=32,missing=31
					31:leaf=-0.0109415529
					32:leaf=-0
				16:[mm_m2iso<0.379612982] yes=33,no=34,missing=33
					33:leaf=0.00430683885
					34:leaf=0.0140265422
			8:[mm_otherVtxMaxProb2<0.193539619] yes=17,no=18,missing=17
				17:[mm_kin_sl3d<18.0029087] yes=35,no=36,missing=35
					35:leaf=-0.0092748031
					36:leaf=0.00989236683
				18:[mm_kin_spvip<2.89142156] yes=37,no=38,missing=37
					37:leaf=-0.0114096832
					38:leaf=-0.0159399193
		4:[mm_kin_spvip<3.1504643] yes=9,no=10,missing=9
			9:[mm_kin_sl3d<6.60767078] yes=19,no=20,missing=19
				19:[mm_iso<0.822275221] yes=39,no=40,missing=39
					39:leaf=-0.00231725653
					40:leaf=0.0111611085
				20:[mm_kin_sl3d<11.3752232] yes=41,no=42,missing=41
					41:leaf=0.0139569305
					42:leaf=0.0161903836
			10:[mm_iso<0.906071246] yes=21,no=22,missing=21
				21:[mm_kin_spvip<3.87244964] yes=43,no=44,missing=43
					43:leaf=-0.00496195722
					44:leaf=-0.014218485
				22:[mm_kin_pvip<0.0406785049] yes=45,no=46,missing=45
					45:leaf=0.0067702732
					46:leaf=-0.012162907
	2:[mm_kin_alphaBS<0.110866815] yes=5,no=6,missing=5
		5:[mm_iso<0.815590501] yes=11,no=12,missing=11
			11:[mm_kin_spvip<2.20553255] yes=23,no=24,missing=23
				23:[mm_m1iso<0.699544311] yes=47,no=48,missing=47
					47:leaf=-0.011971131
					48:leaf=-0.000980815967
				24:[mm_kin_spvip<2.89142156] yes=49,no=50,missing=49
					49:leaf=-0.0133688301
					50:leaf=-0.0161298588
			12:[mm_kin_spvip<2.92410874] yes=25,no=26,missing=25
				25:[mm_kin_sl3d<5.59623337] yes=51,no=52,missing=51
					51:leaf=0.003976712
					52:leaf=0.0111746788
				26:[mm_kin_spvip<4.05740547] yes=53,no=54,missing=53
					53:leaf=-0.00365117518
					54:leaf=-0.0140732406
		6:[mm_kin_alphaBS<0.166594446] yes=13,no=14,missing=13
			13:[mm_iso<0.883134604] yes=27,no=28,missing=27
				27:[mm_kin_spvip<2.00251913] yes=55,no=56,missing=55
					55:leaf=-0.0112108011
					56:leaf=-0.0158898309
				28:[mm_kin_spvip<2.69011426] yes=57,no=58,missing=57
					57:leaf=0.0035722726
					58:leaf=-0.0108414721
			14:[mm_kin_alphaBS<0.260159969] yes=29,no=30,missing=29
				29:[mm_iso<0.942173421] yes=59,no=60,missing=59
					59:leaf=-0.0160656143
					60:leaf=-0.0110711874
				30:leaf=-0.0164504554
booster[25]:
0:[mm_kin_alphaBS<0.0555440448] yes=1,no=2,missing=1
	1:[mm_iso<0.704293191] yes=3,no=4,missing=3
		3:[mm_kin_spvip<1.87594986] yes=7,no=8,missing=7
			7:[mm_kin_sl3d<9.63208199] yes=15,no=16,missing=15
				15:[mm_iso<0.612876415] yes=31,no=32,missing=31
					31:leaf=-0.0110711027
					32:leaf=-0.00177345762
				16:[mm_kin_sl3d<13.1173038] yes=33,no=34,missing=33
					33:leaf=0.00457962882
					34:leaf=0.0141543197
			8:[mm_kin_sl3d<17.1239452] yes=17,no=18,missing=17
				17:[mm_kin_spvip<2.61695862] yes=35,no=36,missing=35
					35:leaf=-0.0118692769
					36:leaf=-0.0158440378
				18:[mm_kin_spvip<3.37439609] yes=37,no=38,missing=37
					37:leaf=0.0102206124
					38:leaf=-0.0149640199
		4:[mm_kin_spvip<3.6544385] yes=9,no=10,missing=9
			9:[mm_kin_sl3d<6.35359669] yes=19,no=20,missing=19
				19:[mm_iso<0.828769803] yes=39,no=40,missing=39
					39:leaf=-0.00267132255
					40:leaf=0.0104484726
				20:[mm_kin_spvip<2.65183473] yes=41,no=42,missing=41
					41:leaf=0.0157309901
					42:leaf=0.0101699894
			10:[mm_otherVtxMaxProb2<0.246544361] yes=21,no=22,missing=21
				21:[mm_iso<0.904363036] yes=43,no=44,missing=43
					43:leaf=-0.00257893442
					44:leaf=0.0123391123
				22:[mm_kin_spvip<5.10752964] yes=45,no=46,missing=45
					45:leaf=-0.00537303789
					46:leaf=-0.014017975
	2:[mm_kin_alphaBS<0.106203608] yes=5,no=6,missing=5
		5:[mm_iso<0.815590501] yes=11,no=12,missing=11
			11:[mm_kin_spvip<1.93819356] yes=23,no=24,missing=23
				23:[mm_m1iso<0.61167109] yes=47,no=48,missing=47
					47:leaf=-0.0130049298
					48:leaf=-0.00153916294
				24:[mm_kin_spvip<2.72527075] yes=49,no=50,missing=49
					49:leaf=-0.0123393787
					50:leaf=-0.0159120988
			12:[mm_kin_spvip<2.65183473] yes=25,no=26,missing=25
				25:[mm_kin_sl3d<5.56868029] yes=51,no=52,missing=51
					51:leaf=0.00522695342
					52:leaf=0.0119890952
				26:[mm_kin_spvip<4.05740547] yes=53,no=54,missing=53
					53:leaf=-0.00175940676
					54:leaf=-0.0137560368
		6:[mm_kin_alphaBS<0.156739682] yes=13,no=14,missing=13
			13:[mm_iso<0.873667896] yes=27,no=28,missing=27
				27:[mm_kin_spvip<1.87594986] yes=55,no=56,missing=55
					55:leaf=-0.0104708737
					56:leaf=-0.0157136824
				28:[mm_kin_spvip<2.54900789] yes=57,no=58,missing=57
					57:leaf=0.00381915201
					58:leaf=-0.00972752459
			14:[mm_kin_alphaBS<0.220252693] yes=29,no=30,missing=29
				29:[mm_iso<0.884994924] yes=59,no=60,missing=59
					59:leaf=-0.0159469582
					60:leaf=-0.0104478979
				30:leaf=-0.0163229965
booster[26]:
0:[mm_kin_alphaBS<0.0555440448] yes=1,no=2,missing=1
	1:[mm_iso<0.728415549] yes=3,no=4,missing=3
		3:[mm_kin_spvip<2.03967834] yes=7,no=8,missing=7
			7:[mm_kin_sl3d<10.5168056] yes=15,no=16,missing=15
				15:[mm_iso<0.615176558] yes=31,no=32,missing=31
					31:leaf=-0.0108009344
					32:leaf=-0.000558781088
				16:[mm_m2iso<0.368315011] yes=33,no=34,missing=33
					33:leaf=0.00389582734
					34:leaf=0.0140168946
			8:[mm_kin_sl3d<17.4074974] yes=17,no=18,missing=17
				17:[mm_kin_spvip<2.65183473] yes=35,no=36,missing=35
					35:leaf=-0.0119920475
					36:leaf=-0.0157441348
				18:[mm_kin_spvip<3.40654969] yes=37,no=38,missing=37
					37:leaf=0.00956125744
					38:leaf=-0.0148423268
		4:[mm_kin_spvip<3.6544385] yes=9,no=10,missing=9
			9:[mm_kin_sl3d<6.27885771] yes=19,no=20,missing=19
				19:[mm_iso<0.86328727] yes=39,no=40,missing=39
					39:leaf=-0
					40:leaf=0.0110364659
				20:[mm_kin_spvip<2.65183473] yes=41,no=42,missing=41
					41:leaf=0.0156751461
					42:leaf=0.0105895698
			10:[mm_otherVtxMaxProb2<0.299372733] yes=21,no=22,missing=21
				21:[mm_m1iso<0.880496323] yes=43,no=44,missing=43
					43:leaf=-0.00188910274
					44:leaf=0.011904262
				22:[mm_kin_spvip<5.1786952] yes=45,no=46,missing=45
					45:leaf=-0.00458120834
					46:leaf=-0.0138274198
	2:[mm_kin_alphaBS<0.106203608] yes=5,no=6,missing=5
		5:[mm_iso<0.815590501] yes=11,no=12,missing=11
			11:[mm_kin_spvip<2.20553255] yes=23,no=24,missing=23
				23:[mm_iso<0.690871716] yes=47,no=48,missing=47
					47:leaf=-0.011897183
					48:leaf=-0.000973872375
				24:[mm_kin_spvip<3.1504643] yes=49,no=50,missing=49
					49:leaf=-0.0135096423
					50:leaf=-0.0160993636
			12:[mm_kin_spvip<2.85782909] yes=25,no=26,missing=25
				25:[mm_kin_sl3d<5.46088171] yes=51,no=52,missing=51
					51:leaf=0.00442395359
					52:leaf=0.0114365993
				26:[mm_kin_spvip<4.02733517] yes=53,no=54,missing=53
					53:leaf=-0.00282545737
					54:leaf=-0.0139709245
		6:[mm_kin_alphaBS<0.166594446] yes=13,no=14,missing=13
			13:[mm_iso<0.96246469] yes=27,no=28,missing=27
				27:[mm_iso<0.798294246] yes=55,no=56,missing=55
					55:leaf=-0.0155680785
					56:leaf=-0.00980696734
				28:[mm_kin_spvip<3.37439609] yes=57,no=58,missing=57
					57:leaf=0.00449724216
					58:leaf=-0.0115415007
			14:[mm_kin_alphaBS<0.236895189] yes=29,no=30,missing=29
				29:[mm_iso<0.871638477] yes=59,no=60,missing=59
					59:leaf=-0.0159653258
					60:leaf=-0.011660059
				30:leaf=-0.0162298586
booster[27]:
0:[mm_kin_alphaBS<0.0581234992] yes=1,no=2,missing=1
	1:[mm_iso<0.719798982] yes=3,no=4,missing=3
		3:[mm_kin_spvip<2.03967834] yes=7,no=8,missing=7
			7:[mm_kin_sl3d<10.0530968] yes=15,no=16,missing=15
				15:[mm_m1iso<0.653697133] yes=31,no=32,missing=31
					31:leaf=-0.0102851773
					32:leaf=0.000158633848
				16:[mm_kin_sl3d<14.3286152] yes=33,no=34,missing=33
					33:leaf=0.00568771409
					34:leaf=0.0143568655
			8:[mm_otherVtxMaxProb2<0.42644757] yes=17,no=18,missing=17
				17:[mm_kin_spvip<3.24509501] yes=35,no=36,missing=35
					35:leaf=0.00705274846
					36:leaf=-0.0115412157
				18:[mm_kin_spvip<2.95733476] yes=37,no=38,missing=37
					37:leaf=-0.0108811948
					38:leaf=-0.0157013685
		4:[mm_kin_spvip<3.53224063] yes=9,no=10,missing=9
			9:[mm_kin_sl3d<6.27885771] yes=19,no=20,missing=19
				19:[mm_iso<0.861148953] yes=39,no=40,missing=39
					39:leaf=-0.00025121792
					40:leaf=0.0111369612
				20:[mm_kin_spvip<2.69011426] yes=41,no=42,missing=41
					41:leaf=0.0155105125
					42:leaf=0.00999047048
			10:[mm_otherVtxMaxProb2<0.387932807] yes=21,no=22,missing=21
				21:[mm_iso<0.900945961] yes=43,no=44,missing=43
					43:leaf=-0.00378703326
					44:leaf=0.01075665
				22:[mm_kin_spvip<5.1786952] yes=45,no=46,missing=45
					45:leaf=-0.00510994857
					46:leaf=-0.0141034182
	2:[mm_kin_alphaBS<0.115157545] yes=5,no=6,missing=5
		5:[mm_iso<0.839544594] yes=11,no=12,missing=11
			11:[mm_kin_spvip<2.20553255] yes=23,no=24,missing=23
				23:[mm_m1iso<0.716129541] yes=47,no=48,missing=47
					47:leaf=-0.0114900302
					48:leaf=0.00039683035
				24:[mm_kin_spvip<3.08669972] yes=49,no=50,missing=49
					49:leaf=-0.0128682749
					50:leaf=-0.0158928093
			12:[mm_kin_spvip<2.92410874] yes=25,no=26,missing=25
				25:[mm_kin_spvip<1.96999252] yes=51,no=52,missing=51
					51:leaf=0.0109188557
					52:leaf=0.0041905758
				26:[mm_kin_spvip<4.05740547] yes=53,no=54,missing=53
					53:leaf=-0.00251134206
					54:leaf=-0.0134618282
		6:[mm_kin_alphaBS<0.166594446] yes=13,no=14,missing=13
			13:[mm_iso<0.873667896] yes=27,no=28,missing=27
				27:[mm_kin_spvip<1.87594986] yes=55,no=56,missing=55
					55:leaf=-0.0110564167
					56:leaf=-0.0155938147
				28:[mm_kin_spvip<2.72527075] yes=57,no=58,missing=57
					57:leaf=0.00169018097
					58:leaf=-0.0114913052
			14:[mm_kin_spvip<2.82497382] yes=29,no=30,missing=29
				29:[mm_kin_alphaBS<0.297305226] yes=59,no=60,missing=59
					59:leaf=-0.0133088594
					60:leaf=-0.0160778034
				30:leaf=-0.0161373448
booster[28]:
0:[mm_kin_alphaBS<0.0637381896] yes=1,no=2,missing=1
	1:[mm_iso<0.724146485] yes=3,no=4,missing=3
		3:[mm_kin_spvip<1.8452009] yes=7,no=8,missing=7
			7:[mm_kin_sl3d<8.56166172] yes=15,no=16,missing=15
				15:[mm_m1iso<0.665617704] yes=29,no=30,missing=29
					29:leaf=-0.0106474906
					30:leaf=-0.000433585228
				16:[mm_kin_sl3d<12.8215084] yes=31,no=32,missing=31
					31:leaf=0.00435990933
					32:leaf=0.01395154
			8:[mm_kin_sl3d<23.6314335] yes=17,no=18,missing=17
				17:[mm_kin_spvip<2.65183473] yes=33,no=34,missing=33
					33:leaf=-0.0104870861
					34:leaf=-0.0154638998
				18:[mm_kin_spvip<3.5015173] yes=35,no=36,missing=35
					35:leaf=0.0143411672
					36:leaf=-0.0146558397
		4:[mm_kin_spvip<3.27996802] yes=9,no=10,missing=9
			9:[mm_kin_sl3d<6.17801237] yes=19,no=20,missing=19
				19:[mm_iso<0.867636859] yes=37,no=38,missing=37
					37:leaf=-1.87193691e-05
					38:leaf=0.0110235112
				20:[mm_kin_sl3d<9.55433559] yes=39,no=40,missing=39
					39:leaf=0.0128392279
					40:leaf=0.015654264
			10:[mm_iso<0.884994924] yes=21,no=22,missing=21
				21:[mm_otherVtxMaxProb2<0.13893266] yes=41,no=42,missing=41
					41:leaf=9.09828159e-05
					42:leaf=-0.012485778
				22:[mm_kin_spvip<4.89914274] yes=43,no=44,missing=43
					43:leaf=0.00683175959
					44:leaf=-0.00857366621
	2:[mm_kin_alphaBS<0.123877332] yes=5,no=6,missing=5
		5:[mm_iso<0.839544594] yes=11,no=12,missing=11
			11:[mm_kin_spvip<1.90635908] yes=23,no=24,missing=23
				23:[mm_iso<0.693169236] yes=45,no=46,missing=45
					45:leaf=-0.011854263
					46:leaf=1.27369567e-05
				24:[mm_kin_spvip<3.08669972] yes=47,no=48,missing=47
					47:leaf=-0.0127678923
					48:leaf=-0.0158357676
			12:[mm_kin_spvip<2.48098469] yes=25,no=26,missing=25
				25:[mm_kin_vtx_chi2dof<1.32044709] yes=49,no=50,missing=49
					49:leaf=0.0109834345
					50:leaf=0.00397079578
				26:[mm_kin_spvip<3.53224063] yes=51,no=52,missing=51
					51:leaf=-0.000833307335
					52:leaf=-0.0119240806
		6:[mm_kin_alphaBS<0.17677559] yes=13,no=14,missing=13
			13:[mm_iso<0.912816823] yes=27,no=28,missing=27
				27:[mm_kin_spvip<2.69011426] yes=53,no=54,missing=53
					53:leaf=-0.0123837711
					54:leaf=-0.0158285387
				28:[mm_kin_spvip<3.37439609] yes=55,no=56,missing=55
					55:leaf=0.000587320596
					56:leaf=-0.0131211504
			14:leaf=-0.015982708
booster[29]:
0:[mm_kin_alphaBS<0.0637381896] yes=1,no=2,missing=1
	1:[mm_iso<0.732702672] yes=3,no=4,missing=3
		3:[mm_kin_spvip<1.96999252] yes=7,no=8,missing=7
			7:[mm_kin_sl3d<8.56166172] yes=15,no=16,missing=15
				15:[mm_iso<0.583804727] yes=29,no=30,missing=29
					29:leaf=-0.0125929825
					30:leaf=-0.00334481988
				16:[mm_kin_sl3d<14.3286152] yes=31,no=32,missing=31
					31:leaf=0.00474540098
					32:leaf=0.0143304607
			8:[mm_kin_sl3d<23.6314335] yes=17,no=18,missing=17
				17:[mm_kin_spvip<2.61695862] yes=33,no=34,missing=33
					33:leaf=-0.0103421081
					34:leaf=-0.015308884
				18:[mm_kin_spvip<3.90479231] yes=35,no=36,missing=35
					35:leaf=0.0127057834
					36:leaf=-0.0148459105
		4:[mm_kin_spvip<3.08669972] yes=9,no=10,missing=9
			9:[mm_kin_sl3d<6.88287401] yes=19,no=20,missing=19
				19:[mm_iso<0.879360557] yes=37,no=38,missing=37
					37:leaf=0.0021906679
					38:leaf=0.0118848402
				20:[mm_kin_sl3d<10.9389505] yes=39,no=40,missing=39
					39:leaf=0.013759057
					40:leaf=0.0157006066
			10:[mm_kin_spvip<4.32493401] yes=21,no=22,missing=21
				21:[mm_nBMTrks<2] yes=41,no=42,missing=41
					41:leaf=0.00885814149
					42:leaf=-0.00643004896
				22:[mm_otherVtxMaxProb2<0.299372733] yes=43,no=44,missing=43
					43:leaf=0.00275605405
					44:leaf=-0.0122803804
	2:[mm_kin_alphaBS<0.123877332] yes=5,no=6,missing=5
		5:[mm_iso<0.859051526] yes=11,no=12,missing=11
			11:[mm_kin_spvip<2.10541868] yes=23,no=24,missing=23
				23:[mm_iso<0.715319812] yes=45,no=46,missing=45
					45:leaf=-0.0114830052
					46:leaf=-0
				24:[mm_kin_spvip<3.18166542] yes=47,no=48,missing=47
					47:leaf=-0.0127871782
					48:leaf=-0.0157392528
			12:[mm_kin_spvip<3.37439609] yes=25,no=26,missing=25
				25:[mm_kin_spvip<2.30772829] yes=49,no=50,missing=49
					49:leaf=0.00980463997
					50:leaf=0.000937281235
				26:[mm_kin_alpha<0.187288389] yes=51,no=52,missing=51
					51:leaf=-0.0127911083
					52:leaf=-0
		6:[mm_kin_alphaBS<0.187176868] yes=13,no=14,missing=13
			13:[mm_iso<0.96246469] yes=27,no=28,missing=27
				27:[mm_iso<0.798294246] yes=53,no=54,missing=53
					53:leaf=-0.015527877
					54:leaf=-0.0112516666
				28:[mm_kin_spvip<3.31153059] yes=55,no=56,missing=55
					55:leaf=0.001376334
					56:leaf=-0.0121514173
			14:leaf=-0.015897328
booster[30]:
0:[mm_kin_alphaBS<0.0637381896] yes=1,no=2,missing=1
	1:[mm_iso<0.732702672] yes=3,no=4,missing=3
		3:[mm_kin_spvip<1.8452009] yes=7,no=8,missing=7
			7:[mm_kin_sl3d<8.56166172] yes=15,no=16,missing=15
				15:[mm_m1iso<0.663255572] yes=29,no=30,missing=29
					29:leaf=-0.0105345845
					30:leaf=-0.000135235314
				16:[mm_kin_sl3d<13.9600496] yes=31,no=32,missing=31
					31:leaf=0.00559373666
					32:leaf=0.0143301738
			8:[mm_kin_sl3d<17.6981773] yes=17,no=18,missing=17
				17:[mm_kin_spvip<2.65183473] yes=33,no=34,missing=33
					33:leaf=-0.0110570844
					34:leaf=-0.0153563553
				18:[mm_kin_spvip<3.37439609] yes=35,no=36,missing=35
					35:leaf=0.010333485
					36:leaf=-0.014440814
		4:[mm_kin_spvip<2.98991227] yes=9,no=10,missing=9
			9:[mm_kin_sl3d<6.92494392] yes=19,no=20,missing=19
				19:[mm_m1iso<0.802632689] yes=37,no=38,missing=37
					37:leaf=0.000315761252
					38:leaf=0.0113089941
				20:[mm_kin_sl3d<11.2610836] yes=39,no=40,missing=39
					39:leaf=0.0137718488
					40:leaf=0.0156146772
			10:[mm_otherVtxMaxProb2<0.56056422] yes=21,no=22,missing=21
				21:[mm_kin_spvip<4.63778925] yes=41,no=42,missing=41
					41:leaf=0.0112783313
					42:leaf=-0.00151876209
				22:[mm_kin_spvip<3.93590593] yes=43,no=44,missing=43
					43:leaf=-5.93552359e-05
					44:leaf=-0.011720296
	2:[mm_kin_alphaBS<0.123877332] yes=5,no=6,missing=5
		5:[mm_iso<0.815590501] yes=11,no=12,missing=11
			11:[mm_kin_spvip<1.90635908] yes=23,no=24,missing=23
				23:[mm_iso<0.64093554] yes=45,no=46,missing=45
					45:leaf=-0.0127619291
					46:leaf=-0.00218135328
				24:[mm_kin_spvip<2.85782909] yes=47,no=48,missing=47
					47:leaf=-0.0126148639
					48:leaf=-0.0155280633
			12:[mm_kin_spvip<2.44618416] yes=25,no=26,missing=25
				25:[mm_kin_vtx_chi2dof<1.53483951] yes=49,no=50,missing=49
					49:leaf=0.0103129782
					50:leaf=0.00224915496
				26:[mm_kin_spvip<3.77747035] yes=51,no=52,missing=51
					51:leaf=-0.00201176479
					52:leaf=-0.0132101793
		6:[mm_kin_alphaBS<0.17677559] yes=13,no=14,missing=13
			13:[mm_iso<0.91634655] yes=27,no=28,missing=27
				27:[mm_kin_spvip<2.69011426] yes=53,no=54,missing=53
					53:leaf=-0.012074545
					54:leaf=-0.015639456
				28:[mm_kin_spvip<3.40654969] yes=55,no=56,missing=55
					55:leaf=0.000216643763
					56:leaf=-0.0132142967
			14:leaf=-0.0157934837
booster[31]:
0:[mm_kin_alphaBS<0.0555440448] yes=1,no=2,missing=1
	1:[mm_iso<0.688568771] yes=3,no=4,missing=3
		3:[mm_kin_spvip<1.78403831] yes=7,no=8,missing=7
			7:[mm_kin_sl3d<10.5168056] yes=15,no=16,missing=15
				15:[mm_kin_sl3d<7.51315403] yes=31,no=32,missing=31
					31:leaf=-0.00972236879
					32:leaf=0.000319132465
				16:[mm_kin_sl3d<17.1239452] yes=33,no=34,missing=33
					33:leaf=0.0070836707
					34:leaf=0.0144554302
			8:[mm_otherVtxMaxProb2<0.54322648] yes=17,no=18,missing=17
				17:[mm_kin_spvip<3.27996802] yes=35,no=36,missing=35
					35:leaf=0.00654745754
					36:leaf=-0.0125004454
				18:[mm_kin_spvip<2.92410874] yes=37,no=38,missing=37
					37:leaf=-0.0108188018
					38:leaf=-0.0154295024
		4:[mm_kin_spvip<3.27996802] yes=9,no=10,missing=9
			9:[mm_kin_sl3d<6.38842058] yes=19,no=20,missing=19
				19:[mm_iso<0.822275221] yes=39,no=40,missing=39
					39:leaf=-0.00296625751
					40:leaf=0.0101079261
				20:[mm_kin_sl3d<10.5168056] yes=41,no=42,missing=41
					41:leaf=0.0128255589
					42:leaf=0.0154450051
			10:[mm_iso<0.900945961] yes=21,no=22,missing=21
				21:[mm_kin_spvip<3.77747035] yes=43,no=44,missing=43
					43:leaf=-0.00530251395
					44:leaf=-0.0135601144
				22:[mm_kin_pvip<0.0368734263] yes=45,no=46,missing=45
					45:leaf=0.00642574253
					46:leaf=-0.0107490402
	2:[mm_kin_alphaBS<0.106203608] yes=5,no=6,missing=5
		5:[mm_iso<0.830861151] yes=11,no=12,missing=11
			11:[mm_kin_spvip<2.17231464] yes=23,no=24,missing=23
				23:[mm_iso<0.682002842] yes=47,no=48,missing=47
					47:leaf=-0.0114338361
					48:leaf=-0
				24:[mm_kin_spvip<3.1504643] yes=49,no=50,missing=49
					49:leaf=-0.0127793271
					50:leaf=-0.0155846914
			12:[mm_kin_spvip<2.85782909] yes=25,no=26,missing=25
				25:[mm_kin_sl3d<5.67990065] yes=51,no=52,missing=51
					51:leaf=0.00480429223
					52:leaf=0.0112799881
				26:[mm_kin_spvip<4.05740547] yes=53,no=54,missing=53
					53:leaf=-0.00193888322
					54:leaf=-0.013323606
		6:[mm_kin_alphaBS<0.151735857] yes=13,no=14,missing=13
			13:[mm_iso<0.884994924] yes=27,no=28,missing=27
				27:[mm_kin_spvip<2.30772829] yes=55,no=56,missing=55
					55:leaf=-0.010404855
					56:leaf=-0.0152734313
				28:[mm_kin_spvip<3.1504643] yes=57,no=58,missing=57
					57:leaf=0.00263583963
					58:leaf=-0.011678135
			14:[mm_kin_alphaBS<0.209001645] yes=29,no=30,missing=29
				29:[mm_iso<0.96246469] yes=59,no=60,missing=59
					59:leaf=-0.0150906853
					60:leaf=-0.00707934145
				30:leaf=-0.0157315992
booster[32]:
0:[mm_kin_alphaBS<0.0581234992] yes=1,no=2,missing=1
	1:[mm_iso<0.734896839] yes=3,no=4,missing=3
		3:[mm_kin_spvip<2.13837886] yes=7,no=8,missing=7
			7:[mm_kin_sl3d<10.0530968] yes=15,no=16,missing=15
				15:[mm_iso<0.591316342] yes=31,no=32,missing=31
					31:leaf=-0.0116509814
					32:leaf=-0.00181952445
				16:[mm_m2iso<0.368315011] yes=33,no=34,missing=33
					33:leaf=0.00240901788
					34:leaf=0.0132850707
			8:[mm_kin_sl3d<17.1239452] yes=17,no=18,missing=17
				17:[mm_kin_spvip<2.65183473] yes=35,no=36,missing=35
					35:leaf=-0.0120314918
					36:leaf=-0.0151989441
				18:[mm_kin_spvip<3.31153059] yes=37,no=38,missing=37
					37:leaf=0.00969128683
					38:leaf=-0.0143353771
		4:[mm_kin_spvip<3.6544385] yes=9,no=10,missing=9
			9:[mm_kin_sl3d<6.88287401] yes=19,no=20,missing=19
				19:[mm_m1iso<0.795828044] yes=39,no=40,missing=39
					39:leaf=-0.00107718119
					40:leaf=0.0104567511
				20:[mm_kin_spvip<2.72527075] yes=41,no=42,missing=41
					41:leaf=0.0151614128
					42:leaf=0.010248377
			10:[mm_otherVtxMaxProb2<0.299372733] yes=21,no=22,missing=21
				21:[mm_m1iso<0.853779256] yes=43,no=44,missing=43
					43:leaf=-0.00197547465
					44:leaf=0.0107011329
				22:[mm_kin_spvip<4.63778925] yes=45,no=46,missing=45
					45:leaf=-0.00329247699
					46:leaf=-0.0125589054
	2:[mm_kin_alphaBS<0.102013767] yes=5,no=6,missing=5
		5:[mm_iso<0.796158373] yes=11,no=12,missing=11
			11:[mm_kin_spvip<1.75376499] yes=23,no=24,missing=23
				23:[mm_m1iso<0.718498707] yes=47,no=48,missing=47
					47:leaf=-0.00998403039
					48:leaf=0.00127891102
				24:[mm_kin_spvip<2.65183473] yes=49,no=50,missing=49
					49:leaf=-0.0117818154
					50:leaf=-0.0152186975
			12:[mm_kin_spvip<2.92410874] yes=25,no=26,missing=25
				25:[mm_iso<0.892185032] yes=51,no=52,missing=51
					51:leaf=0.00297523709
					52:leaf=0.0104633356
				26:[mm_kin_spvip<4.05740547] yes=53,no=54,missing=53
					53:leaf=-0.00366677227
					54:leaf=-0.0135763949
		6:[mm_kin_alphaBS<0.151735857] yes=13,no=14,missing=13
			13:[mm_iso<0.856952012] yes=27,no=28,missing=27
				27:[mm_kin_spvip<2.51462126] yes=55,no=56,missing=55
					55:leaf=-0.0113913007
					56:leaf=-0.0153728891
				28:[mm_kin_spvip<2.72527075] yes=57,no=58,missing=57
					57:leaf=0.00309770647
					58:leaf=-0.01008718
			14:[mm_kin_alphaBS<0.209001645] yes=29,no=30,missing=29
				29:[mm_iso<0.91454953] yes=59,no=60,missing=59
					59:leaf=-0.0150818368
					60:leaf=-0.00823548622
				30:leaf=-0.0156397112
booster[33]:
0:[mm_kin_alphaBS<0.0637381896] yes=1,no=2,missing=1
	1:[mm_iso<0.732702672] yes=3,no=4,missing=3
		3:[mm_kin_spvip<1.78403831] yes=7,no=8,missing=7
			7:[mm_kin_sl3d<8.56166172] yes=15,no=16,missing=15
				15:[mm_iso<0.596114874] yes=31,no=32,missing=31
					31:leaf=-0.0116459234
					32:leaf=-0.00214028731
				16:[mm_kin_sl3d<15.3527088] yes=33,no=34,missing=33
					33:leaf=0.00622714683
					34:leaf=0.0143189318
			8:[mm_kin_sl3d<18.3259029] yes=17,no=18,missing=17
				17:[mm_kin_spvip<2.61695862] yes=35,no=36,missing=35
					35:leaf=-0.0105191935
					36:leaf=-0.015132172
				18:[mm_kin_spvip<3.43865108] yes=37,no=38,missing=37
					37:leaf=0.0111495676
					38:leaf=-0.0145121943
		4:[mm_kin_spvip<3.08669972] yes=9,no=10,missing=9
			9:[mm_kin_sl3d<6.11327887] yes=19,no=20,missing=19
				19:[mm_iso<0.902678132] yes=39,no=40,missing=39
					39:leaf=0.00203118077
					40:leaf=0.0117257284
				20:[mm_kin_sl3d<9.25235653] yes=41,no=42,missing=41
					41:leaf=0.0125969015
					42:leaf=0.0152138639
			10:[mm_otherVtxMaxProb2<0.439278632] yes=21,no=22,missing=21
				21:[mm_m1iso<0.788907945] yes=43,no=44,missing=43
					43:leaf=-0.00471508643
					44:leaf=0.0111469133
				22:[mm_kin_spvip<3.99689126] yes=45,no=46,missing=45
					45:leaf=-0.000154569076
					46:leaf=-0.0115436548
	2:[mm_kin_alphaBS<0.123877332] yes=5,no=6,missing=5
		5:[mm_iso<0.859051526] yes=11,no=12,missing=11
			11:[mm_kin_spvip<2.10541868] yes=23,no=24,missing=23
				23:[mm_iso<0.713200331] yes=47,no=48,missing=47
					47:leaf=-0.0111651784
					48:leaf=0.000383036328
				24:[mm_iso<0.761198819] yes=49,no=50,missing=49
					49:leaf=-0.0150423842
					50:leaf=-0.0111526893
			12:[mm_kin_spvip<2.44618416] yes=25,no=26,missing=25
				25:[mm_kin_vtx_chi2dof<1.64646494] yes=51,no=52,missing=51
					51:leaf=0.0107850572
					52:leaf=0.00340497214
				26:[mm_kin_spvip<3.77747035] yes=53,no=54,missing=53
					53:leaf=-0.000450979307
					54:leaf=-0.0121645927
		6:[mm_kin_alphaBS<0.166594446] yes=13,no=14,missing=13
			13:[mm_iso<0.911117077] yes=27,no=28,missing=27
				27:[mm_iso<0.796158373] yes=55,no=56,missing=55
					55:leaf=-0.0151292523
					56:leaf=-0.0109396679
				28:[mm_kin_spvip<3.40654969] yes=57,no=58,missing=57
					57:leaf=0.000970117049
					58:leaf=-0.0123720272
			14:[mm_kin_alphaBS<0.260159969] yes=29,no=30,missing=29
				29:[mm_iso<0.96246469] yes=59,no=60,missing=59
					59:leaf=-0.0151948761
					60:leaf=-0.00977701414
				30:leaf=-0.0155795328
booster[34]:
0:[mm_kin_alphaBS<0.0637381896] yes=1,no=2,missing=1
	1:[mm_iso<0.724146485] yes=3,no=4,missing=3
		3:[mm_kin_spvip<1.8452009] yes=7,no=8,missing=7
			7:[mm_kin_sl3d<8.56166172] yes=15,no=16,missing=15
				15:[mm_iso<0.593720853] yes=31,no=32,missing=31
					31:leaf=-0.0114981234
					32:leaf=-0.00300692255
				16:[mm_kin_sl3d<16.0427761] yes=33,no=34,missing=33
					33:leaf=0.00607831543
					34:leaf=0.0142763453
			8:[mm_kin_spvip<2.69011426] yes=17,no=18,missing=17
				17:[mm_kin_sl3d<13.2767467] yes=35,no=36,missing=35
					35:leaf=-0.0120126726
					36:leaf=0.00948035996
				18:[mm_otherVtxMaxProb2<0.103568889] yes=37,no=38,missing=37
					37:leaf=-0
					38:leaf=-0.014735559
		4:[mm_kin_spvip<3.27996802] yes=9,no=10,missing=9
			9:[mm_kin_sl3d<6.53347158] yes=19,no=20,missing=19
				19:[mm_iso<0.86328727] yes=39,no=40,missing=39
					39:leaf=0.000125708844
					40:leaf=0.0107071381
				20:[mm_kin_sl3d<10.6172667] yes=41,no=42,missing=41
					41:leaf=0.0127971666
					42:leaf=0.015173614
			10:[mm_otherVtxMaxProb2<0.53430599] yes=21,no=22,missing=21
				21:[mm_iso<0.900945961] yes=43,no=44,missing=43
					43:leaf=-0.0035508438
					44:leaf=0.01038629
				22:[mm_kin_spvip<4.08820772] yes=45,no=46,missing=45
					45:leaf=-0.00206145854
					46:leaf=-0.0122349309
	2:[mm_kin_alphaBS<0.123877332] yes=5,no=6,missing=5
		5:[mm_iso<0.86963439] yes=11,no=12,missing=11
			11:[mm_kin_spvip<2.20553255] yes=23,no=24,missing=23
				23:[mm_iso<0.713200331] yes=47,no=48,missing=47
					47:leaf=-0.0115946848
					48:leaf=0.000410936162
				24:[mm_iso<0.746112883] yes=49,no=50,missing=49
					49:leaf=-0.015111669
					50:leaf=-0.0118476916
			12:[mm_kin_spvip<3.40654969] yes=25,no=26,missing=25
				25:[mm_kin_spvip<2.03967834] yes=51,no=52,missing=51
					51:leaf=0.0104864957
					52:leaf=0.00278963451
				26:[mm_kin_alpha<0.177896976] yes=53,no=54,missing=53
					53:leaf=-0.0120937396
					54:leaf=-0
		6:[mm_kin_alphaBS<0.17677559] yes=13,no=14,missing=13
			13:[mm_iso<0.845981002] yes=27,no=28,missing=27
				27:[mm_kin_spvip<2.69011426] yes=55,no=56,missing=55
					55:leaf=-0.0129220597
					56:leaf=-0.0153994812
				28:[mm_kin_spvip<2.75842667] yes=57,no=58,missing=57
					57:leaf=0.000364474807
					58:leaf=-0.0120007619
			14:[mm_kin_alphaBS<0.248304889] yes=29,no=30,missing=29
				29:[mm_iso<0.86963439] yes=59,no=60,missing=59
					59:leaf=-0.0152803529
					60:leaf=-0.011574843
				30:leaf=-0.0154865822
booster[35]:
0:[mm_kin_alphaBS<0.0555440448] yes=1,no=2,missing=1
	1:[mm_iso<0.688568771] yes=3,no=4,missing=3
		3:[mm_kin_spvip<2.03967834] yes=7,no=8,missing=7
			7:[mm_kin_sl3d<11.3752232] yes=15,no=16,missing=15
				15:[mm_m1iso<0.651223481] yes=31,no=32,missing=31
					31:leaf=-0.00976562127
					32:leaf=0.000307177252
				16:[mm_m2iso<0.368315011] yes=33,no=34,missing=33
					33:leaf=0.0031474994
					34:leaf=0.0132077532
			8:[mm_otherVtxMaxProb2<0.359561056] yes=17,no=18,missing=17
				17:[mm_kin_sl3d<16.8446522] yes=35,no=36,missing=35
					35:leaf=-0.00897098333
					36:leaf=0.00749828387
				18:[mm_kin_spvip<3.1504643] yes=37,no=38,missing=37
					37:leaf=-0.0112593593
					38:leaf=-0.015124823
		4:[mm_kin_spvip<3.11888194] yes=9,no=10,missing=9
			9:[mm_kin_sl3d<6.60767078] yes=19,no=20,missing=19
				19:[mm_iso<0.822275221] yes=39,no=40,missing=39
					39:leaf=-0.00207840046
					40:leaf=0.0104560424
				20:[mm_kin_sl3d<11.146327] yes=41,no=42,missing=41
					41:leaf=0.0127902795
					42:leaf=0.0151364617
			10:[mm_iso<0.904363036] yes=21,no=22,missing=21
				21:[mm_kin_spvip<4.05740547] yes=43,no=44,missing=43
					43:leaf=-0.0054847789
					44:leaf=-0.0134925554
				22:[mm_kin_spvip<5.73730326] yes=45,no=46,missing=45
					45:leaf=0.00723047135
					46:leaf=-0.00968709122
	2:[mm_kin_alphaBS<0.102013767] yes=5,no=6,missing=5
		5:[mm_iso<0.856952012] yes=11,no=12,missing=11
			11:[mm_kin_spvip<2.37669373] yes=23,no=24,missing=23
				23:[mm_m1iso<0.660959959] yes=47,no=48,missing=47
					47:leaf=-0.0118456371
					48:leaf=-0.000190863226
				24:[mm_kin_spvip<3.24509501] yes=49,no=50,missing=49
					49:leaf=-0.0124666775
					50:leaf=-0.0151945548
			12:[mm_kin_spvip<3.21366453] yes=25,no=26,missing=25
				25:[mm_kin_spvip<2.13837886] yes=51,no=52,missing=51
					51:leaf=0.0109906411
					52:leaf=0.00453589251
				26:[mm_kin_alpha<0.141665041] yes=53,no=54,missing=53
					53:leaf=-0.0101066586
					54:leaf=0.00122632924
		6:[mm_kin_alphaBS<0.151735857] yes=13,no=14,missing=13
			13:[mm_iso<0.850405395] yes=27,no=28,missing=27
				27:[mm_kin_spvip<2.61695862] yes=55,no=56,missing=55
					55:leaf=-0.011557268
					56:leaf=-0.01513365
				28:[mm_kin_spvip<2.69011426] yes=57,no=58,missing=57
					57:leaf=0.00341631426
					58:leaf=-0.0102022355
			14:[mm_kin_alphaBS<0.209001645] yes=29,no=30,missing=29
				29:[mm_iso<0.96246469] yes=59,no=60,missing=59
					59:leaf=-0.0147490799
					60:leaf=-0.00676482404
				30:leaf=-0.0153816901
booster[36]:
0:[mm_kin_alphaBS<0.0555440448] yes=1,no=2,missing=1
	1:[mm_iso<0.728415549] yes=3,no=4,missing=3
		3:[mm_kin_spvip<1.90635908] yes=7,no=8,missing=7
			7:[mm_kin_sl3d<8.75712681] yes=15,no=16,missing=15
				15:[mm_iso<0.581344068] yes=31,no=32,missing=31
					31:leaf=-0.0118913967
					32:leaf=-0.00271096244
				16:[mm_kin_sl3d<14.3286152] yes=33,no=34,missing=33
					33:leaf=0.00503645465
					34:leaf=0.0138814133
			8:[mm_kin_sl3d<18.6628685] yes=17,no=18,missing=17
				17:[mm_kin_spvip<2.65183473] yes=35,no=36,missing=35
					35:leaf=-0.010512799
					36:leaf=-0.0148196919
				18:[mm_kin_spvip<3.43865108] yes=37,no=38,missing=37
					37:leaf=0.0109204445
					38:leaf=-0.013972939
		4:[mm_kin_spvip<3.05416679] yes=9,no=10,missing=9
			9:[mm_kin_sl3d<6.17801237] yes=19,no=20,missing=19
				19:[mm_iso<0.86963439] yes=39,no=40,missing=39
					39:leaf=0.00100574363
					40:leaf=0.0107375467
				20:[mm_kin_sl3d<9.25235653] yes=41,no=42,missing=41
					41:leaf=0.0123197688
					42:leaf=0.0149638141
			10:[mm_kin_spvip<4.29505634] yes=21,no=22,missing=21
				21:[mm_nBMTrks<2] yes=43,no=44,missing=43
					43:leaf=0.00921056047
					44:leaf=-0.00629973738
				22:[mm_otherVtxMaxProb2<0.13893266] yes=45,no=46,missing=45
					45:leaf=0.00696546678
					46:leaf=-0.0112758642
	2:[mm_kin_alphaBS<0.115157545] yes=5,no=6,missing=5
		5:[mm_iso<0.815590501] yes=11,no=12,missing=11
			11:[mm_kin_spvip<2.10541868] yes=23,no=24,missing=23
				23:[mm_m1iso<0.690069973] yes=47,no=48,missing=47
					47:leaf=-0.0109862322
					48:leaf=-0.000563101552
				24:[mm_kin_spvip<2.85782909] yes=49,no=50,missing=49
					49:leaf=-0.0121665932
					50:leaf=-0.015039674
			12:[mm_kin_spvip<3.18166542] yes=25,no=26,missing=25
				25:[mm_kin_spvip<2.03967834] yes=51,no=52,missing=51
					51:leaf=0.0100510726
					52:leaf=0.002487964
				26:[mm_kin_alpha<0.187288389] yes=53,no=54,missing=53
					53:leaf=-0.0111491317
					54:leaf=0.000756580615
		6:[mm_kin_alphaBS<0.161639944] yes=13,no=14,missing=13
			13:[mm_iso<0.907746375] yes=27,no=28,missing=27
				27:[mm_kin_spvip<1.8452009] yes=55,no=56,missing=55
					55:leaf=-0.0092753889
					56:leaf=-0.0146379313
				28:[mm_kin_spvip<3.53224063] yes=57,no=58,missing=57
					57:leaf=0.00188425183
					58:leaf=-0.0118121142
			14:[mm_kin_alphaBS<0.260159969] yes=29,no=30,missing=29
				29:[mm_iso<0.96246469] yes=59,no=60,missing=59
					59:leaf=-0.0149197113
					60:leaf=-0.00940682925
				30:leaf=-0.0153245116
booster[37]:
0:[mm_kin_alphaBS<0.0666885972] yes=1,no=2,missing=1
	1:[mm_iso<0.743967831] yes=3,no=4,missing=3
		3:[mm_kin_spvip<2.13837886] yes=7,no=8,missing=7
			7:[mm_kin_sl3d<10.5168056] yes=15,no=16,missing=15
				15:[mm_iso<0.629347861] yes=29,no=30,missing=29
					29:leaf=-0.0100640235
					30:leaf=-0.000395763287
				16:[mm_iso<0.528534293] yes=31,no=32,missing=31
					31:leaf=0.00331186922
					32:leaf=0.0133813806
			8:[mm_otherVtxMaxProb2<0.314650178] yes=17,no=18,missing=17
				17:[mm_kin_sl3d<18.6628685] yes=33,no=34,missing=33
					33:leaf=-0.00918216724
					34:leaf=0.00908651855
				18:[mm_kin_spvip<3.11888194] yes=35,no=36,missing=35
					35:leaf=-0.0107843913
					36:leaf=-0.0149447164
		4:[mm_kin_spvip<3.6544385] yes=9,no=10,missing=9
			9:[mm_kin_sl3d<5.7714448] yes=19,no=20,missing=19
				19:[mm_m1iso<0.837394238] yes=37,no=38,missing=37
					37:leaf=-0.00111870631
					38:leaf=0.00919991732
				20:[mm_kin_spvip<2.5833261] yes=39,no=40,missing=39
					39:leaf=0.0146125993
					40:leaf=0.00946601294
			10:[mm_otherVtxMaxProb2<0.299372733] yes=21,no=22,missing=21
				21:[mm_m1iso<0.860517919] yes=41,no=42,missing=41
					41:leaf=-0.00320535386
					42:leaf=0.0108451331
				22:[mm_kin_spvip<5.56551647] yes=43,no=44,missing=43
					43:leaf=-0.00489111757
					44:leaf=-0.013289785
	2:[mm_kin_alphaBS<0.128350183] yes=5,no=6,missing=5
		5:[mm_iso<0.848219514] yes=11,no=12,missing=11
			11:[mm_kin_spvip<2.10541868] yes=23,no=24,missing=23
				23:[mm_iso<0.741579771] yes=45,no=46,missing=45
					45:leaf=-0.0106592355
					46:leaf=0.000179686846
				24:[mm_iso<0.746112883] yes=47,no=48,missing=47
					47:leaf=-0.0148520023
					48:leaf=-0.0114557892
			12:[mm_kin_spvip<2.5833261] yes=25,no=26,missing=25
				25:[mm_otherVtxMaxProb2<0.719019949] yes=49,no=50,missing=49
					49:leaf=0.0113365911
					50:leaf=0.00454870192
				26:[mm_kin_spvip<3.77747035] yes=51,no=52,missing=51
					51:leaf=-0.00160635856
					52:leaf=-0.0127889114
		6:[mm_kin_alphaBS<0.192317918] yes=13,no=14,missing=13
			13:[mm_iso<0.96246469] yes=27,no=28,missing=27
				27:[mm_kin_spvip<2.23934078] yes=53,no=54,missing=53
					53:leaf=-0.0103234667
					54:leaf=-0.0148082059
				28:[mm_kin_spvip<2.75842667] yes=55,no=56,missing=55
					55:leaf=0.00267137936
					56:leaf=-0.0103012836
			14:leaf=-0.0151995989
booster[38]:
0:[mm_kin_alphaBS<0.0637381896] yes=1,no=2,missing=1
	1:[mm_iso<0.732702672] yes=3,no=4,missing=3
		3:[mm_kin_spvip<1.78403831] yes=7,no=8,missing=7
			7:[mm_kin_sl3d<7.61152458] yes=15,no=16,missing=15
				15:[mm_m1iso<0.663255572] yes=29,no=30,missing=29
					29:leaf=-0.0105262827
					30:leaf=-0.000911418407
				16:[mm_kin_sl3d<13.9600496] yes=31,no=32,missing=31
					31:leaf=0.00427667052
					32:leaf=0.0135971047
			8:[mm_otherVtxMaxProb2<0.552105904] yes=17,no=18,missing=17
				17:[mm_kin_spvip<3.27996802] yes=33,no=34,missing=33
					33:leaf=0.00706602307
					34:leaf=-0.0126188528
				18:[mm_kin_spvip<2.89142156] yes=35,no=36,missing=35
					35:leaf=-0.00961979013
					36:leaf=-0.0147188473
		4:[mm_kin_spvip<2.92410874] yes=9,no=10,missing=9
			9:[mm_kin_sl3d<6.24500418] yes=19,no=20,missing=19
				19:[mm_m1iso<0.786590219] yes=37,no=38,missing=37
					37:leaf=-0.00105459418
					38:leaf=0.00984843168
				20:[mm_nBMTrks<2] yes=39,no=40,missing=39
					39:leaf=0.0148043651
					40:leaf=0.0122328037
			10:[mm_otherVtxMaxProb2<0.514255345] yes=21,no=22,missing=21
				21:[mm_kin_spvip<4.7024951] yes=41,no=42,missing=41
					41:leaf=0.0115782041
					42:leaf=-0.00090587762
				22:[mm_kin_spvip<3.93590593] yes=43,no=44,missing=43
					43:leaf=-0
					44:leaf=-0.0109829577
	2:[mm_kin_alphaBS<0.123877332] yes=5,no=6,missing=5
		5:[mm_iso<0.817735851] yes=11,no=12,missing=11
			11:[mm_kin_spvip<1.93819356] yes=23,no=24,missing=23
				23:[mm_iso<0.647861004] yes=45,no=46,missing=45
					45:leaf=-0.0119142793
					46:leaf=-0.00170846982
				24:[mm_kin_spvip<2.85782909] yes=47,no=48,missing=47
					47:leaf=-0.0120176375
					48:leaf=-0.0148314089
			12:[mm_kin_spvip<2.5833261] yes=25,no=26,missing=25
				25:[mm_kin_vtx_chi2dof<1.53483951] yes=49,no=50,missing=49
					49:leaf=0.00960202888
					50:leaf=0.00162047194
				26:[mm_kin_spvip<3.77747035] yes=51,no=52,missing=51
					51:leaf=-0.00193088269
					52:leaf=-0.0124872178
		6:[mm_kin_alphaBS<0.187176868] yes=13,no=14,missing=13
			13:[mm_iso<0.884994924] yes=27,no=28,missing=27
				27:[mm_kin_spvip<2.51462126] yes=53,no=54,missing=53
					53:leaf=-0.0117563615
					54:leaf=-0.0149305388
				28:[mm_kin_spvip<3.05416679] yes=55,no=56,missing=55
					55:leaf=-0
					56:leaf=-0.012038908
			14:leaf=-0.0151158338
booster[39]:
0:[mm_kin_alphaBS<0.0637381896] yes=1,no=2,missing=1
	1:[mm_iso<0.748265207] yes=3,no=4,missing=3
		3:[mm_kin_spvip<1.93819356] yes=7,no=8,missing=7
			7:[mm_kin_sl3d<8.75712681] yes=15,no=16,missing=15
				15:[mm_m1iso<0.663255572] yes=29,no=30,missing=29
					29:leaf=-0.0097491229
					30:leaf=0.00031918264
				16:[mm_iso<0.522978127] yes=31,no=32,missing=31
					31:leaf=0.00107740669
					32:leaf=0.0125383614
			8:[mm_kin_sl3d<18.3259029] yes=17,no=18,missing=17
				17:[mm_kin_spvip<2.5833261] yes=33,no=34,missing=33
					33:leaf=-0.0102910539
					34:leaf=-0.014544934
				18:[mm_kin_spvip<3.37439609] yes=35,no=36,missing=35
					35:leaf=0.0113069927
					36:leaf=-0.0136939399
		4:[mm_kin_spvip<3.27996802] yes=9,no=10,missing=9
			9:[mm_kin_sl3d<6.04929066] yes=19,no=20,missing=19
				19:[mm_m1iso<0.856035471] yes=37,no=38,missing=37
					37:leaf=0.000943539373
					38:leaf=0.010168558
				20:[mm_kin_sl3d<9.25235653] yes=39,no=40,missing=39
					39:leaf=0.0120493965
					40:leaf=0.0147147356
			10:[mm_otherVtxMaxProb2<0.56056422] yes=21,no=22,missing=21
				21:[mm_iso<0.854801714] yes=41,no=42,missing=41
					41:leaf=-0.00539779104
					42:leaf=0.0087792147
				22:[mm_kin_spvip<4.29505634] yes=43,no=44,missing=43
					43:leaf=-0.00205902685
					44:leaf=-0.012022581
	2:[mm_kin_alphaBS<0.128350183] yes=5,no=6,missing=5
		5:[mm_iso<0.86963439] yes=11,no=12,missing=11
			11:[mm_kin_spvip<1.90635908] yes=23,no=24,missing=23
				23:[mm_iso<0.690871716] yes=45,no=46,missing=45
					45:leaf=-0.0109553644
					46:leaf=0.000469791878
				24:[mm_iso<0.759079516] yes=47,no=48,missing=47
					47:leaf=-0.0144897811
					48:leaf=-0.0103789279
			12:[mm_kin_spvip<3.37439609] yes=25,no=26,missing=25
				25:[mm_kin_spvip<2.03967834] yes=49,no=50,missing=49
					49:leaf=0.0101383263
					50:leaf=0.00267092907
				26:[mm_kin_alpha<0.173137382] yes=51,no=52,missing=51
					51:leaf=-0.0116711697
					52:leaf=-0
		6:[mm_kin_alphaBS<0.187176868] yes=13,no=14,missing=13
			13:[mm_iso<0.912816823] yes=27,no=28,missing=27
				27:[mm_kin_spvip<2.34286451] yes=53,no=54,missing=53
					53:leaf=-0.0108901318
					54:leaf=-0.0147491163
				28:[mm_kin_spvip<2.69011426] yes=55,no=56,missing=55
					55:leaf=0.00221606321
					56:leaf=-0.0109507293
			14:leaf=-0.0150362728
booster[40]:
0:[mm_kin_alphaBS<0.0555440448] yes=1,no=2,missing=1
	1:[mm_iso<0.739339113] yes=3,no=4,missing=3
		3:[mm_kin_spvip<1.8452009] yes=7,no=8,missing=7
			7:[mm_kin_sl3d<8.56166172] yes=15,no=16,missing=15
				15:[mm_iso<0.631626904] yes=31,no=32,missing=31
					31:leaf=-0.0101576447
					32:leaf=-0.000195650777
				16:[mm_kin_sl3d<13.2767467] yes=33,no=34,missing=33
					33:leaf=0.00468836306
					34:leaf=0.0132864136
			8:[mm_kin_sl3d<19.3782578] yes=17,no=18,missing=17
				17:[mm_kin_spvip<2.54900789] yes=35,no=36,missing=35
					35:leaf=-0.00948625058
					36:leaf=-0.0144242989
				18:[mm_kin_spvip<3.5015173] yes=37,no=38,missing=37
					37:leaf=0.0119314333
					38:leaf=-0.0136496052
		4:[mm_kin_spvip<3.6544385] yes=9,no=10,missing=9
			9:[mm_kin_sl3d<6.88287401] yes=19,no=20,missing=19
				19:[mm_m1iso<0.837394238] yes=39,no=40,missing=39
					39:leaf=0.000834265724
					40:leaf=0.0105622662
				20:[mm_kin_pvip<0.0295968316] yes=41,no=42,missing=41
					41:leaf=0.0143915759
					42:leaf=-0
			10:[mm_otherVtxMaxProb2<0.211312965] yes=21,no=22,missing=21
				21:[mm_iso<0.856952012] yes=43,no=44,missing=43
					43:leaf=-0.00374021428
					44:leaf=0.0112636657
				22:[mm_kin_spvip<5.1786952] yes=45,no=46,missing=45
					45:leaf=-0.00404307619
					46:leaf=-0.0127536627
	2:[mm_kin_alphaBS<0.106203608] yes=5,no=6,missing=5
		5:[mm_iso<0.804683566] yes=11,no=12,missing=11
			11:[mm_kin_spvip<1.93819356] yes=23,no=24,missing=23
				23:[mm_m1iso<0.735318899] yes=47,no=48,missing=47
					47:leaf=-0.00956118293
					48:leaf=0.00159012154
				24:[mm_kin_spvip<2.82497382] yes=49,no=50,missing=49
					49:leaf=-0.0113557167
					50:leaf=-0.0146407252
			12:[mm_kin_spvip<2.5833261] yes=25,no=26,missing=25
				25:[mm_iso<0.892185032] yes=51,no=52,missing=51
					51:leaf=0.0031735925
					52:leaf=0.0105234012
				26:[mm_kin_spvip<4.08820772] yes=53,no=54,missing=53
					53:leaf=-0.00204913411
					54:leaf=-0.0130459843
		6:[mm_kin_alphaBS<0.166594446] yes=13,no=14,missing=13
			13:[mm_iso<0.854801714] yes=27,no=28,missing=27
				27:[mm_kin_spvip<2.03967834] yes=55,no=56,missing=55
					55:leaf=-0.0104091857
					56:leaf=-0.0145087773
				28:[mm_kin_spvip<3.27996802] yes=57,no=58,missing=57
					57:leaf=0.0010495669
					58:leaf=-0.0126514137
